%YAML:1.0
---
opencv_ml_svm:
   format: 3
   svmType: C_SVC
   kernel:
      type: LINEAR
   C: 2.6699999999999999e+00
   term_criteria: { epsilon:1.1920928955078125e-07, iterations:1000 }
   var_count: 64
   class_count: 8
   class_labels: !!opencv-matrix
      rows: 8
      cols: 1
      dt: i
      data: [ 1, 2, 3, 4, 5, 6, 7, 8 ]
   sv_total: 28
   support_vectors:
      - [ -1.33999492e-04, -3.53444048e-05, -2.28644014e-04,
          1.41314202e-04, 3.42492480e-04, -1.30726476e-04,
          2.96591286e-04, 8.24053350e-05, 9.27774236e-05, 7.13112313e-05,
          5.27251723e-06, 1.13843729e-04, -4.56716916e-05,
          1.57807925e-04, -4.66288504e-04, 2.30018020e-04,
          -3.71372880e-05, -6.50253904e-04, -1.81124167e-04,
          -4.29590000e-04, 2.60729750e-04, -1.39884753e-04,
          1.35524882e-04, 1.37760784e-04, -1.94700289e-04,
          -1.52288078e-04, -7.19801683e-05, -9.62948616e-05,
          -8.40373832e-06, -2.04212440e-04, -3.57097524e-05,
          9.97530224e-05, 5.40060646e-05, 2.21127048e-04,
          -3.35603458e-04, -1.03839302e-05, -1.22002632e-04,
          4.37496738e-06, -7.13335176e-05, -7.87064564e-05,
          3.24048451e-05, 8.31740617e-05, 4.96473185e-05, 2.88898766e-04,
          -2.84403417e-04, -3.30306502e-04, -5.90105308e-04,
          -3.21262138e-04, -8.41545989e-05, -7.64043762e-06,
          -1.22632366e-04, -5.37294545e-04, 6.20697392e-05,
          -2.96641228e-04, -3.29908245e-04, 2.32326332e-04,
          1.74336383e-04, -3.56273347e-04, -4.01806523e-04,
          -1.94040491e-04, -8.82460736e-05, -3.86798958e-04,
          -1.20348677e-05, -7.52021442e-05 ]
      - [ 2.59418794e-05, -7.48498314e-06, 2.62544218e-05,
          4.38756215e-05, 3.92840884e-05, -2.12628784e-05,
          -1.16951587e-05, -1.17357067e-05, -3.59249862e-05,
          -1.59264055e-05, -2.80215463e-05, 1.60504915e-05,
          -5.81660024e-05, -2.62903686e-05, -8.01183123e-05,
          -3.35632867e-05, 1.01204183e-04, -7.02441903e-05,
          -9.89529872e-05, -3.95854731e-05, -2.81279299e-05,
          -2.40399768e-05, 7.89372734e-06, 1.39478307e-05,
          1.26177274e-05, -3.91345638e-05, -5.36977714e-05,
          -8.19299457e-05, -4.68601502e-05, -1.11587804e-04,
          -4.48664687e-05, 7.63951030e-05, 2.11613242e-05,
          -4.63319047e-05, -2.46868985e-05, -1.63828790e-05,
          1.72136097e-05, -1.93420656e-05, -3.55819020e-06,
          3.14137869e-05, 1.13629721e-05, 2.69896300e-05,
          -8.80651260e-06, 9.63147613e-05, -6.50885268e-05,
          -4.34413778e-05, -1.26783980e-05, -1.26355445e-07,
          -2.26420343e-05, -7.34341884e-05, -7.16743161e-05,
          -6.79917357e-05, 3.89022389e-05, 2.88836304e-06,
          -4.24917016e-05, 5.64472139e-05, 3.32324089e-05,
          -1.40576318e-04, -2.11629391e-04, -8.69579308e-05,
          -6.19961429e-05, -1.28214684e-04, -1.29482942e-04,
          -4.77184549e-05 ]
      - [ 6.56103948e-05, -5.70728334e-05, 2.65965605e-06,
          4.49974832e-05, 5.22820337e-05, -5.31145270e-05,
          -9.61653313e-06, 1.98735161e-05, 7.03274054e-05,
          -6.70980444e-05, -7.25187929e-05, 8.69244031e-05,
          2.45814426e-05, 9.88037573e-05, -3.64583320e-05,
          -9.32194689e-06, 4.69601728e-05, -8.97853606e-05,
          -1.78973933e-04, -3.54200274e-05, 3.87767468e-05,
          -8.12228391e-05, 7.72375424e-05, 2.91934839e-06,
          1.28390229e-05, -7.34061832e-05, -1.71058477e-04,
          -1.82334028e-04, -7.06361170e-05, -1.52115841e-04,
          -1.32691290e-04, 1.00708552e-04, 6.12242957e-06,
          -1.19820928e-04, -2.84086091e-05, -2.28852969e-05,
          4.65657649e-05, -1.04225146e-05, -3.82794533e-05,
          3.00929660e-05, 4.10811699e-05, 1.85635181e-05, 2.44366602e-05,
          6.31287767e-05, -1.38858322e-05, -3.59529986e-05,
          -9.83875361e-06, 4.69804900e-06, -7.95961460e-05,
          8.68229563e-06, 2.32227867e-05, 1.92748701e-07, 6.60055157e-05,
          -5.04246636e-05, -1.68195438e-05, 5.27290977e-05,
          4.94957931e-06, -5.88829716e-05, -1.08648943e-04,
          -6.31746207e-06, 1.78941646e-05, -1.03443323e-04,
          -1.28429761e-04, -6.39472782e-05 ]
      - [ -1.69048115e-04, -3.73319854e-05, 1.78390292e-05,
          6.76079362e-05, 8.35277460e-05, -2.20518705e-04,
          -5.69010845e-05, 3.08475537e-05, -2.83017998e-05,
          -1.17413991e-04, -4.65403588e-07, 7.75769877e-05,
          2.56498133e-05, 4.49532199e-05, 1.03386301e-04,
          -1.07578824e-04, 1.52508310e-05, 9.48966917e-05,
          2.42331625e-05, 6.84946863e-05, -1.20747618e-05,
          3.81311875e-05, -2.83250483e-05, 4.02463047e-05,
          -3.33920580e-05, -1.31087974e-04, -3.29995055e-05,
          -2.30507285e-04, -1.71319305e-04, -4.39761425e-05,
          -7.47655868e-05, -1.25568567e-05, 1.89867860e-04,
          -6.70428744e-06, 1.19786237e-05, -1.03209095e-04,
          9.57359589e-07, -1.93706510e-04, -3.31960910e-04,
          8.97347054e-05, -3.83555707e-05, -7.71633404e-06,
          1.96258145e-04, 1.45005601e-04, -4.56689668e-05,
          -8.02488285e-05, 1.76321075e-04, -5.83489018e-05,
          -3.22086598e-05, -4.91177852e-05, 2.20466063e-05,
          -3.31494193e-05, -8.04010488e-05, -6.49819776e-05,
          -1.40688848e-04, -5.75595459e-06, 1.86829357e-06,
          2.31483664e-05, 1.97457598e-06, -3.32703826e-06,
          -9.08664515e-05, -2.15158856e-04, -2.65608018e-04,
          9.74249197e-05 ]
      - [ 2.44688599e-05, -1.63094082e-04, -1.68804108e-04,
          4.50842090e-05, 1.04260282e-04, -1.70817904e-04,
          -2.29699217e-04, -1.12008011e-05, 3.55668963e-05,
          -2.96207509e-05, 6.23750748e-05, 1.64118115e-04,
          9.49276728e-05, -1.24981489e-05, 1.97836052e-04,
          4.03622253e-05, -3.27088674e-05, -2.30049685e-04,
          9.42732277e-06, 1.61877688e-05, 6.34873722e-05,
          -1.26384330e-04, -3.88339831e-05, 2.66915758e-05,
          -2.35143707e-05, -2.52146390e-04, -6.57612618e-05,
          -1.69697232e-04, -6.69442379e-05, 6.87130232e-05,
          -7.65339937e-05, -2.90926437e-05, 6.98574077e-05,
          -1.26885207e-05, 7.84054100e-06, -1.08723674e-04,
          4.58296527e-05, -2.04008844e-04, -1.26163781e-04,
          3.37403253e-05, 4.29395259e-05, 9.94639704e-05, 6.68938301e-05,
          1.51840126e-04, -2.20962509e-04, -1.35407492e-04,
          -7.88084872e-05, -8.87609203e-05, -7.43695782e-05,
          -6.39516074e-05, -1.50030755e-04, -2.48453580e-04,
          -1.39054770e-04, 2.35620919e-05, -2.94677611e-05,
          1.18750453e-04, 5.04989039e-05, -8.38367923e-05,
          -1.03357670e-04, -1.49493790e-04, -2.57361717e-05,
          -2.91902601e-04, -1.48863954e-04, 5.05722426e-07 ]
      - [ 1.18757518e-04, 3.33983371e-05, -1.55323374e-04,
          1.37092749e-04, 2.88100564e-05, -1.49339146e-04,
          -6.59943034e-05, -4.77662543e-05, -4.80246745e-05,
          -2.11494495e-04, -3.83450169e-05, 8.99582301e-05,
          5.60852059e-05, 1.28752008e-05, 7.68885002e-05,
          -1.71947395e-04, 1.07247077e-04, -2.46852112e-04,
          -1.59712537e-04, 2.87831754e-05, -5.17055851e-05,
          -5.12992010e-05, 1.14292998e-04, 1.22642334e-04,
          -1.37861471e-05, 9.26231805e-05, -1.05983199e-04,
          5.73421084e-06, 5.33897401e-05, 1.04105166e-04, 1.20717297e-04,
          1.50051608e-04, -1.14358063e-05, -1.30096800e-04,
          -1.27788735e-04, -1.06709886e-04, -1.65213365e-04,
          -2.10384358e-04, -2.31239501e-05, 1.33710462e-04,
          1.17535848e-04, -1.18359778e-04, 1.66373124e-04,
          1.31589855e-04, 2.60110592e-05, -2.44122875e-05,
          -1.12925882e-04, -8.41597721e-05, 5.65032133e-05,
          2.20312304e-05, 1.35023283e-05, -1.08457054e-04,
          7.13904883e-05, 1.71621956e-04, -4.44701291e-05,
          2.29826866e-04, -1.22815891e-05, -3.08898598e-04,
          -1.58343770e-04, -1.42085963e-04, -1.27424370e-04,
          -5.55432052e-05, 5.01122340e-05, 1.63292323e-04 ]
      - [ 2.72170255e-05, -1.20962077e-05, -1.39961157e-05,
          1.93905798e-05, 2.70309720e-05, -1.06047279e-04,
          -7.67778911e-05, 2.27332093e-05, -4.48241408e-05,
          -6.19695202e-05, -2.42433871e-05, -6.95820836e-06,
          2.52050359e-05, 1.75619589e-05, -1.45097129e-05,
          4.11884066e-05, 9.19504032e-07, -1.46769735e-05,
          1.28633592e-05, 9.88419833e-06, 6.59867146e-05,
          -2.52978298e-05, 3.21802836e-05, -1.67997350e-05,
          -7.47867380e-05, -1.56109512e-04, -8.27770491e-05,
          -6.44332686e-05, -2.78278130e-05, -2.50173543e-05,
          -4.69014376e-05, 1.70693766e-05, 2.25835101e-05,
          -2.14788124e-05, -1.42543113e-05, -1.45044396e-06,
          2.82506608e-05, -1.65131587e-05, -3.03344841e-05,
          -1.36434837e-05, 6.46102126e-06, 3.32268573e-05,
          4.58159338e-05, 4.49809377e-05, -4.18947275e-05,
          -3.35190634e-05, -5.80103733e-05, -6.28147973e-05,
          -2.16290391e-05, -2.32776601e-05, -6.42878222e-05,
          -6.90605302e-05, 4.65566654e-06, 1.79020697e-06,
          -2.58003402e-05, 7.04729682e-05, 2.90450062e-05,
          -4.75173147e-05, -3.90213063e-05, -2.07264329e-05,
          -3.49867514e-05, -1.01225662e-04, -1.69785548e-04,
          1.19827682e-05 ]
      - [ 3.87953878e-05, -9.28008449e-05, 7.58429887e-05,
          -1.07917578e-04, -1.99278365e-05, -2.82809458e-04,
          6.30164723e-05, -2.60261353e-04, -2.10565951e-04,
          1.33790178e-04, -1.03420178e-04, -3.84451996e-05,
          3.81645332e-05, -1.96784185e-05, 2.77113413e-05,
          1.23750006e-05, -3.52196657e-05, 3.49216745e-04,
          2.37368164e-04, -2.01456023e-05, 6.21566869e-05,
          1.47966755e-04, 1.42372446e-04, 1.98917362e-04, 4.89922997e-04,
          9.15960627e-05, 1.59443109e-04, 2.62044050e-05,
          -2.83077883e-04, -4.06985608e-04, -2.64987437e-04,
          3.51007984e-05, 8.19460911e-05, -1.79260300e-04,
          -3.58611142e-05, -1.59154966e-04, 3.70709458e-05,
          1.32092435e-04, 2.75346189e-04, -6.52771414e-05,
          -1.68000057e-04, 3.34961369e-05, 1.21760546e-04,
          5.44115028e-05, -2.21201684e-04, -1.90363135e-04,
          5.00310562e-05, 3.01640539e-04, -8.78733626e-05,
          -3.83261737e-04, -1.88529055e-04, 6.61640734e-05,
          7.45906509e-05, -1.04993514e-05, -1.79124618e-04,
          -2.49155892e-05, 6.76087657e-05, 1.85030167e-05,
          2.06449428e-07, -9.33064002e-05, 1.07445368e-04,
          -5.89104544e-04, -5.21302863e-04, -5.05014286e-05 ]
      - [ 3.80174519e-04, -2.05498873e-04, -1.56018505e-05,
          -1.22698635e-04, -5.87865434e-05, -1.47295184e-04,
          1.14702656e-04, 4.63643577e-04, 2.54320039e-04,
          -8.75917467e-05, 6.82677637e-05, 1.28543950e-04,
          2.42184164e-04, 2.65164243e-04, -4.28677922e-05,
          -9.77209711e-05, 3.53653413e-05, 1.54835856e-04,
          -6.71916641e-05, 1.61165866e-04, 1.83353568e-05,
          1.33872045e-05, 3.25593894e-04, 1.38209289e-04, 2.72378151e-04,
          -1.10411580e-04, -5.20070680e-05, -1.96601803e-04,
          -1.22367535e-04, -2.58433021e-04, -1.87655591e-04,
          9.73973292e-05, 1.26262123e-04, -2.01341056e-04,
          4.50902262e-05, 1.48858904e-04, 1.78863644e-04, 5.36225671e-05,
          8.05844829e-05, 6.59690850e-05, 9.62674021e-05, 6.89626540e-05,
          1.96753404e-04, 2.15583786e-04, -7.30655256e-06,
          2.44884082e-04, 1.13034868e-04, 6.27362024e-05,
          -4.98061301e-04, -2.94287620e-05, -3.84430532e-05,
          3.18563048e-04, 8.84130350e-05, 1.78838964e-04,
          -1.38651039e-05, -1.11363173e-04, 2.26083157e-05,
          1.71577834e-04, 2.04632306e-04, 1.58841231e-05, 1.07542051e-04,
          -2.62569345e-04, 3.79624762e-05, -1.98151814e-04 ]
      - [ -1.27754960e-04, -9.40534301e-06, 6.18663398e-05,
          9.34457694e-06, -2.15395576e-05, -5.84394547e-05,
          -9.14651755e-05, 6.17124942e-06, -4.03458944e-05,
          -5.01353315e-05, -1.42189338e-05, 4.43070385e-05,
          4.91298706e-05, 1.40942182e-04, 4.43212666e-05,
          -5.34479295e-05, 1.35858372e-05, 2.27642566e-04,
          1.31042907e-04, 8.56009938e-05, 1.01762067e-04, 3.90113782e-05,
          7.73062275e-05, 9.56059012e-05, 4.54810579e-05,
          -8.50598517e-05, -1.32123358e-04, -1.60569893e-04,
          -1.38602176e-04, 3.43174943e-05, -1.63230889e-05,
          -7.66890298e-05, -4.41691191e-06, 4.04983439e-05,
          -2.31796439e-05, -4.78642360e-05, -4.91685132e-05,
          -1.51652886e-04, -1.34940172e-04, -4.59026378e-05,
          -3.13110650e-05, 5.85125308e-05, 1.15407827e-04,
          -5.01659451e-05, -3.90891473e-05, -5.16232358e-05,
          3.25749716e-05, 6.40578510e-05, -2.72724101e-05,
          -7.07677536e-05, 1.75889418e-05, -8.39052082e-05,
          1.78238096e-07, 1.37684314e-04, -9.30187016e-05,
          -2.55869982e-05, 1.31218314e-06, 6.21608269e-05,
          6.03809385e-05, 6.72446840e-05, -7.91668845e-06,
          -1.03758619e-04, -1.56540598e-04, 4.71235762e-06 ]
      - [ -8.11921709e-05, -1.15145398e-04, -9.16926947e-05,
          -1.38954332e-04, -3.63243416e-05, -6.15753175e-04,
          -5.05018921e-04, -8.91392338e-05, -7.95192027e-05,
          -2.01963310e-04, -1.62406577e-04, 3.15614976e-04,
          4.38007293e-04, 1.50849955e-04, 3.83618695e-04, 1.16621515e-04,
          -3.26009613e-05, 1.37898460e-04, 8.34735183e-05,
          -1.38089847e-04, -8.13276802e-06, -1.11940579e-04,
          6.18420963e-05, -8.85015106e-05, 3.99353485e-05,
          -7.32148692e-05, -4.63774340e-05, 9.39364963e-06,
          -1.89781582e-04, 3.07870905e-05, -1.89077546e-04,
          -1.53286193e-04, -1.73230728e-05, -8.62932429e-05,
          -7.57106754e-05, 2.48387660e-05, 1.41112963e-04,
          -1.78242408e-04, -1.66098340e-04, -1.67625421e-06,
          -1.07778098e-04, 1.70670493e-04, 1.51633052e-04,
          1.32951871e-04, -3.77932185e-04, -2.22028713e-04,
          3.34231241e-04, 7.67041420e-05, -4.03234153e-05,
          -2.58566171e-04, -1.01098754e-04, -2.34444906e-05,
          4.92288273e-05, 3.09702591e-04, 1.24522281e-04, 1.38755917e-04,
          9.94176153e-05, 9.85879014e-05, 1.89646991e-04, 5.31638216e-05,
          -7.37658702e-05, 4.53224347e-05, -3.86864907e-04,
          1.36801405e-04 ]
      - [ 8.71384909e-05, 2.22627368e-05, 3.84880637e-04, 1.15474068e-04,
          2.20831971e-05, -8.20857094e-05, -5.71024255e-04,
          -5.04200871e-05, -2.20904578e-04, -1.85430297e-04,
          -1.30346874e-04, -1.88866645e-04, -1.79425580e-04,
          -1.58216251e-04, -1.61890479e-04, -1.52105495e-05,
          -1.02879203e-04, 8.67844792e-05, 1.46187886e-04,
          1.12123467e-04, -4.94475185e-04, -1.40763092e-04,
          1.47407394e-04, 1.29740089e-04, 2.80079184e-05, 1.20408695e-04,
          -1.22367026e-04, -3.43766180e-04, 9.16308418e-05,
          -2.83698639e-04, 9.08883812e-05, -1.48448860e-04,
          -6.82174868e-05, -1.71931024e-04, -3.12793651e-04,
          -2.10667378e-04, -8.17612308e-05, 5.33745369e-05,
          -1.46948791e-04, 2.03584583e-04, 2.81733141e-04,
          1.24652124e-05, 1.36164919e-04, 3.36948811e-04, 6.79958976e-05,
          4.30652057e-04, 6.79926190e-04, -2.61215264e-05,
          4.00054327e-04, 3.00698244e-04, 1.83345310e-05, 1.98372814e-04,
          1.40856733e-04, 2.14372994e-04, 3.57453770e-04, 2.07847901e-04,
          2.53881390e-05, -1.29947148e-04, 4.07784304e-04,
          2.56700587e-04, 1.22114900e-04, -3.00014450e-04,
          -5.88207222e-05, 2.33062732e-04 ]
      - [ -5.57574785e-05, -3.30656917e-07, 4.90660823e-05,
          1.60634554e-05, 5.97945036e-05, -2.55708059e-04,
          -1.65374906e-04, -5.16146174e-05, -6.74764087e-05,
          -2.01723786e-04, 9.47040735e-06, 1.04806077e-05,
          4.80160998e-05, -8.80378320e-06, -7.52385531e-05,
          1.55134821e-05, -4.28828980e-06, 5.20348585e-05,
          1.70276006e-04, 1.56317285e-04, 2.77472118e-05,
          -1.17605312e-04, 5.33625680e-05, 1.67311991e-05,
          -5.61614725e-05, -3.03626002e-04, -2.10943137e-04,
          -1.09577151e-04, -7.66577141e-05, -3.22161104e-05,
          2.48735232e-05, 3.78257170e-07, -9.68642689e-06,
          -1.05603176e-05, -1.30864355e-04, -1.29721127e-04,
          -5.33520142e-05, -4.21882105e-05, -2.51234487e-05,
          1.45176064e-05, -3.70885436e-06, 1.65136036e-04,
          8.41418514e-05, 1.21102757e-05, -1.33671085e-04,
          -3.40773004e-05, 6.60429350e-07, -9.92536206e-06,
          -2.63665170e-05, -6.32936863e-05, -1.63815610e-04,
          -3.88443732e-05, 5.25056166e-05, 2.21096689e-05,
          -1.18330776e-04, -3.11574331e-06, -4.02790356e-05,
          -7.17312942e-05, 9.47575154e-06, 5.17851404e-05,
          -4.42325691e-05, -2.30918202e-04, -3.21930012e-04,
          -8.39368022e-06 ]
      - [ 1.20233504e-04, 1.34224310e-05, -1.33541791e-04,
          3.96739197e-05, 4.70353843e-05, 1.52732435e-04, 6.54103569e-05,
          1.82021715e-04, 1.18511547e-04, 3.58223333e-05, 8.02287559e-06,
          1.50565233e-04, 1.35825365e-04, 1.91170562e-04, 6.00237690e-05,
          9.04129265e-05, -8.58600542e-05, -3.12153716e-05,
          -1.93028798e-04, 4.58321229e-05, 7.26765438e-06,
          -1.64962155e-04, 3.43196516e-05, -1.44957463e-04,
          -6.86450585e-05, -1.05588995e-04, -3.24625318e-04,
          -2.09245365e-04, -1.10456444e-04, -1.78246009e-05,
          -4.28673593e-05, 1.60489199e-05, -5.80500237e-05,
          -5.63749609e-06, 8.75599653e-06, 2.23467825e-04,
          -1.41100300e-05, 1.06285399e-04, -9.01533931e-05,
          -3.51287890e-05, 6.07776965e-05, -1.16690690e-05,
          5.73719008e-05, 5.06945471e-05, 5.84847658e-05, 8.57030027e-05,
          1.06762500e-05, -8.02681607e-05, -7.07310319e-05,
          2.54129031e-04, 1.61912001e-04, 1.28661064e-04,
          -1.86472080e-05, -1.09651228e-04, -4.91372957e-05,
          3.17294543e-05, -4.78773472e-05, 1.33584646e-04,
          2.16613917e-04, 1.09397981e-04, 1.85728131e-04, 2.26215503e-04,
          3.00091160e-05, -6.86523781e-05 ]
      - [ -9.61381738e-05, -6.51828959e-05, -3.11857148e-05,
          2.71329518e-05, -5.88221701e-05, -6.86670501e-06,
          -3.21868320e-05, -1.07301123e-04, -9.55237847e-05,
          -3.06106704e-05, 3.22163360e-05, 1.31775771e-04,
          1.03276048e-04, 1.04071703e-04, 8.95083285e-05,
          -5.52318852e-05, -7.28629311e-05, 7.60921394e-05,
          1.43357374e-05, 1.16763418e-04, 8.51383738e-05, 4.38660163e-06,
          -7.15627084e-06, -1.75439145e-05, -4.34898357e-05,
          -1.59509305e-04, -8.62777524e-05, -5.22094415e-05,
          -5.51862904e-05, 9.12809992e-05, -1.34537440e-05,
          -9.59705067e-05, 9.72656271e-05, 7.99505942e-05,
          -1.50377164e-05, -5.71761411e-05, -9.99550757e-05,
          -6.24519525e-05, -1.17951939e-04, 5.59210685e-06,
          5.95280399e-05, -5.65477967e-06, 3.36894518e-05,
          -4.24529499e-05, 4.65635167e-05, 8.48248965e-05,
          -7.95691619e-07, 4.88233018e-05, -5.95011879e-05,
          4.36699011e-05, 7.22817567e-05, -2.21606751e-05,
          -8.09987469e-05, -7.71833365e-05, -1.01627978e-04,
          -4.26915685e-05, -2.66182051e-05, 3.67207067e-05,
          1.67305203e-04, 6.27221671e-05, -7.98346300e-05,
          7.20766593e-06, 2.67227297e-05, 4.84266056e-05 ]
      - [ -9.52690389e-05, -1.50603883e-04, -6.49996509e-05,
          -6.47523557e-05, -3.06784241e-05, -4.64373952e-05,
          -3.53412215e-05, -1.07475826e-04, -7.32863627e-05,
          -1.35216091e-04, 5.74090627e-05, 3.10222385e-04,
          1.39107942e-04, 2.64010916e-04, 1.35448616e-04,
          -7.63972057e-05, -1.71848205e-05, -2.10681137e-05,
          1.72431792e-05, 1.38061660e-04, 5.96647260e-05,
          -7.30015527e-05, -2.93656398e-04, -1.61261254e-04,
          -1.80508927e-04, -8.99723964e-05, -1.86218822e-04,
          -1.76257709e-05, 2.54951137e-05, 1.31905079e-04,
          -9.10742601e-05, -1.52901484e-04, -2.62047688e-05,
          -9.00843297e-05, 8.04742740e-06, 5.65923219e-05,
          -1.14268492e-04, -8.74954858e-05, -8.85036279e-05,
          2.72581638e-05, 1.30466244e-04, 1.87821315e-05, 9.66293446e-05,
          -1.17336938e-04, 3.46733646e-06, -3.72820468e-05,
          8.97296923e-05, 4.56191992e-05, 1.44081614e-05, 1.02841284e-06,
          3.76908465e-05, -9.91338893e-05, -3.59312289e-05,
          -5.46600495e-05, 4.91101264e-06, 1.28060899e-04,
          4.20283977e-05, 8.74143370e-05, 1.18966178e-04, 1.01693833e-04,
          1.01074351e-04, 1.49839834e-04, 7.99172703e-05, 1.22223049e-04 ]
      - [ 3.13427227e-05, 2.90809603e-05, 4.78957518e-05, 1.32716514e-06,
          -8.67780473e-05, -7.37921146e-05, -1.11367968e-04,
          -6.42427985e-05, -1.30263259e-04, -1.28050844e-04,
          -5.77070095e-05, -3.04853093e-05, -1.09646302e-04,
          1.53104251e-04, -1.15800640e-05, 1.68220704e-05,
          -7.09145752e-05, -8.75329060e-05, 5.23193557e-05,
          4.97880756e-05, -3.52474453e-05, -3.25477995e-05,
          -7.70209881e-05, -7.06589271e-05, -9.52808987e-05,
          -5.16582149e-05, -4.06982945e-05, 2.12955292e-05,
          2.74719896e-05, 1.64129713e-04, 2.26551219e-05,
          -3.31845367e-05, -3.09658972e-05, -6.55592157e-05,
          -4.99327189e-06, 6.92113827e-06, -6.18258200e-05,
          -5.95641677e-06, -1.26048562e-05, 8.80098814e-05,
          1.21242883e-04, 4.92813488e-05, 1.00301579e-04,
          -8.44547467e-05, 9.18399674e-05, 7.32219123e-05,
          6.52485614e-05, 1.32510526e-04, 1.84092904e-04, 2.00880662e-04,
          1.82175063e-04, 7.75863955e-05, 1.68328497e-05, 1.01476398e-04,
          1.47782921e-04, 5.64782167e-05, 3.43385582e-05,
          -1.27140511e-05, -2.92647746e-05, 1.11071087e-04,
          3.39673934e-05, 1.57167626e-04, 2.10470331e-04, 1.98328227e-04 ]
      - [ -2.89826185e-05, 6.27860936e-06, -1.58382063e-05,
          4.34508293e-05, -5.75892000e-06, -3.40820370e-05,
          -1.01890975e-04, -9.95864102e-05, -4.98034715e-05,
          -9.72981070e-05, -3.94453818e-05, 5.93638943e-05,
          2.10044927e-05, 4.65504054e-05, 2.65428098e-05,
          -1.86970901e-05, -3.60433442e-05, 2.02003525e-06,
          -2.04605840e-06, 1.30322842e-05, -2.20462171e-05,
          -9.85260922e-05, -1.36389586e-04, -1.56148366e-04,
          -1.35317619e-04, -1.63749835e-04, -1.23930731e-04,
          -4.76389687e-05, -5.95583733e-05, 1.24515327e-05,
          7.44698582e-07, -1.62765514e-06, -1.61816279e-05,
          -7.25814061e-06, -3.15485377e-05, -3.55801822e-05,
          -9.99037729e-06, 7.31551063e-06, 4.61436821e-06,
          1.48858971e-05, 3.49160073e-05, 3.20220097e-05, 7.26226426e-06,
          -3.31755073e-05, -1.49283978e-05, -3.14834942e-05,
          -5.86596252e-05, -4.62165735e-05, -4.08880260e-05,
          -2.42708466e-05, -2.29181333e-05, 9.01277053e-06,
          3.05491303e-05, -2.62155208e-05, -2.37748172e-05,
          -5.11631333e-05, -2.97388142e-05, -2.93915491e-05,
          1.40561324e-05, 2.03824711e-05, -6.12574368e-05,
          -2.63263428e-05, -8.82612585e-05, -1.01092738e-07 ]
      - [ -1.88549006e-04, 7.00429591e-05, 4.69302759e-05,
          1.57129616e-05, -1.00885709e-05, -8.20179921e-05,
          -7.44972640e-05, -1.15027164e-04, -5.24470342e-05,
          1.73314092e-08, 1.65386609e-05, 3.85206513e-05,
          -1.81803807e-06, 1.72985820e-05, -2.73883161e-05,
          -8.22653892e-05, -5.90834970e-05, 1.85084995e-04,
          1.04880324e-04, -2.03901473e-05, 3.87225627e-05,
          -5.23023118e-06, 1.64714074e-05, -2.00981412e-05,
          -5.81432141e-06, -2.58580985e-05, 6.85784471e-05,
          -1.52068992e-06, -3.05205540e-05, 1.86382513e-05,
          8.41995497e-05, -4.74467852e-05, 1.35075039e-04,
          7.36742586e-05, 1.20871146e-05, -3.92101501e-05,
          -3.97543263e-05, -1.05767132e-04, -4.72620559e-05,
          -2.95822451e-06, -1.56288079e-05, 2.16327680e-05,
          -4.76295572e-05, -4.60680849e-06, -5.44921350e-05,
          -4.37227573e-05, 4.31927219e-06, 9.13880212e-05,
          1.10204865e-05, -8.47771662e-05, -3.81985083e-05,
          -5.81511122e-05, -3.82210746e-05, 2.24898195e-05,
          -4.61116615e-05, -1.02446356e-05, 1.63946061e-05,
          -1.03317925e-05, -4.99353991e-05, 4.18932395e-05,
          -8.16873071e-05, -8.75275437e-05, -2.49075529e-05,
          2.35665266e-05 ]
      - [ -4.32251458e-04, -5.06096330e-05, 9.21962419e-06,
          8.95751145e-06, -2.20022266e-04, -4.27981548e-04,
          -3.23519635e-04, -4.38420277e-04, 5.52167221e-05,
          -9.04650151e-05, 2.82562396e-04, 3.81708414e-05,
          1.07496071e-05, 2.15650376e-04, 4.42033197e-04,
          -6.62038801e-05, -2.07741741e-05, 2.86617724e-04,
          2.57298118e-04, 1.88252816e-04, 2.12030809e-05,
          -2.08886035e-04, -2.72692298e-04, -3.66497057e-04,
          -7.82437273e-05, 1.26490093e-04, 2.41493573e-04,
          4.24943690e-04, 3.79144709e-04, 4.81986179e-04, 1.75676018e-04,
          9.87911408e-05, 9.75825533e-05, 3.38103164e-05, 6.09357412e-05,
          1.51841377e-05, -2.90057447e-04, -5.34139574e-04,
          -4.45664191e-05, -1.17192340e-05, -1.15188363e-04,
          4.56056150e-05, 5.89813571e-05, -1.56021670e-05,
          -4.02471836e-04, -2.61289737e-04, 7.59804752e-05,
          1.07150845e-04, 2.28241042e-04, -1.37139112e-04,
          -4.10451408e-04, -2.62844231e-04, -1.51025684e-04,
          2.88917596e-04, -6.39764630e-06, -5.68404394e-05,
          2.08599551e-04, -2.13712425e-04, -3.56367033e-04,
          -1.05771032e-04, -2.24646628e-05, -2.50509675e-05,
          -4.80896269e-05, 3.08756105e-04 ]
      - [ -8.13409788e-05, 2.47813696e-05, 5.66518174e-05,
          -3.80451784e-05, -4.94353844e-05, -1.13202368e-04,
          -5.88660478e-05, -1.17326650e-04, -1.28998232e-04,
          -7.51787593e-05, -3.08241542e-05, -8.72670716e-05,
          -1.34107642e-04, -6.26603651e-05, -3.96413707e-05,
          3.39690087e-05, -3.65300434e-06, -2.51051679e-05,
          1.55284415e-05, 7.93850359e-06, 1.40676957e-05, 2.29089255e-05,
          -4.51343039e-05, -7.02756051e-06, -5.69827316e-05,
          8.03535295e-05, 6.52824456e-05, 9.34998170e-05,
          -2.45779574e-05, 3.10544128e-05, 7.94073421e-05,
          -3.72228169e-06, 3.88892295e-05, 6.57391211e-05,
          -2.33098144e-05, -7.47022132e-05, -8.80881344e-05,
          -9.73214337e-05, -5.11382677e-05, 7.32497792e-05,
          3.95806819e-05, -1.82306885e-05, 1.38776777e-05,
          1.07487554e-04, 3.06738330e-05, -6.87688726e-06,
          4.60546034e-05, 1.29258609e-04, 2.12686471e-04, 8.55872859e-05,
          9.52920618e-06, 7.43639339e-06, -5.20421017e-05,
          -5.78685103e-07, 4.44773650e-05, 1.23118982e-04,
          -5.00786655e-06, -5.18667075e-05, -7.45402212e-05,
          1.49585658e-05, -7.62704149e-05, 3.60239683e-05,
          5.87137911e-05, 4.50317311e-05 ]
      - [ -1.67971666e-04, 1.05285559e-04, 5.58155225e-05,
          5.60682893e-05, 5.64720722e-06, -1.82752439e-04,
          -1.31273278e-04, -1.52851586e-04, -4.32761699e-05,
          -1.67867140e-04, -1.01718215e-04, -2.84460548e-05,
          -4.27598789e-05, -2.91005690e-05, -1.50498643e-04,
          -1.39081152e-04, -4.42350538e-05, 3.15477992e-05,
          3.28791975e-05, 7.13035342e-06, 5.24826064e-05,
          -4.29180436e-05, -2.36111009e-05, -1.87984711e-04,
          -9.27851652e-05, -1.59677395e-04, 4.92732470e-05,
          2.76017745e-05, 4.22522680e-05, 6.66571577e-05, 1.96250003e-05,
          -8.12361468e-05, -5.10821701e-05, 4.67061109e-05,
          -5.91456192e-05, -1.33980560e-04, -6.71075395e-05,
          -1.06202584e-04, -3.41830892e-05, -3.95126835e-06,
          6.02168911e-05, -6.90704110e-05, -2.91828510e-05,
          -2.32677894e-06, -2.19009729e-04, -6.35634497e-05,
          -2.39039473e-05, -6.41485713e-06, 1.22091486e-04,
          -2.07262783e-05, -5.83520632e-05, -2.32442508e-05,
          -2.26078482e-05, -1.01511694e-04, -3.31553929e-05,
          5.44393697e-05, 1.78701284e-05, -1.64750491e-05,
          -9.68511595e-05, -1.15360717e-05, -6.10918505e-05,
          -5.72075296e-05, -1.14708688e-04, 1.19217817e-04 ]
      - [ 1.34491493e-04, -1.59324627e-04, -2.57519605e-05,
          3.27420785e-05, -1.94846889e-05, 6.40851504e-05,
          2.56460589e-05, 1.13674221e-04, 1.12672780e-04,
          -2.72931138e-05, -6.88346408e-05, 5.17320332e-05,
          -1.39775279e-04, 1.17687705e-06, 1.24525352e-04,
          1.64613026e-04, -6.76717027e-05, -3.01365595e-04,
          2.98314171e-05, -5.48069984e-05, -7.66278317e-05,
          -2.46759941e-04, -1.91230822e-04, -1.55951784e-04,
          -9.98999167e-05, -2.01144194e-05, -1.44415433e-04,
          1.37258496e-04, 1.00833822e-05, -6.21660656e-05,
          -2.18791669e-04, 1.40497586e-05, 5.57864087e-06,
          -5.54025974e-05, 7.87775061e-05, 3.76438547e-05,
          8.96341498e-06, 1.00643920e-04, 1.06163076e-04,
          -4.41859811e-05, -3.30345955e-07, -4.19130738e-05,
          4.34717440e-05, -5.80284250e-05, -6.06156391e-05,
          -1.92081905e-04, -2.04250959e-04, 1.85450714e-04,
          8.40577777e-05, 1.15736308e-04, -3.07420196e-05,
          1.01076010e-04, 5.53726604e-05, 2.76375176e-05, 1.27681677e-04,
          -1.55925354e-05, 1.00413217e-05, -3.67245484e-05,
          -6.89133376e-05, -2.12056984e-04, -5.41472000e-05,
          -9.81508347e-05, -3.94452309e-06, 2.34442541e-05 ]
      - [ 1.06004125e-04, -1.79965955e-05, -3.53517207e-05,
          -5.28687306e-05, -4.07526422e-05, 1.44493633e-05,
          -4.40329859e-05, -8.45957948e-06, -5.65037772e-05,
          -8.57808191e-05, -8.11524733e-05, -1.17582422e-04,
          -4.90720377e-05, -5.67030147e-05, -4.58343857e-05,
          2.29778516e-06, -4.18110321e-05, -1.11792287e-04,
          -1.66601712e-05, -2.03419077e-05, 1.01682699e-05,
          -3.60119047e-05, -1.48981990e-05, 8.24362814e-06,
          -4.13080415e-05, -1.14994225e-06, 7.55706878e-06,
          5.32920167e-05, 6.99576340e-05, 9.72618454e-06,
          -1.02835402e-05, 8.22816583e-06, -1.47028622e-04,
          -5.97800208e-05, -3.92366092e-05, 2.46477084e-05,
          -3.07654300e-05, 1.80007119e-05, 3.56105884e-05,
          3.04035075e-05, 6.40647268e-05, 8.42703957e-06, 3.07804657e-05,
          1.25567414e-04, 4.65040030e-05, 4.01174439e-05, 2.54113584e-05,
          4.17141346e-05, 1.60226380e-04, 1.57694856e-04, 2.32924776e-05,
          3.81215905e-05, 2.52983245e-05, 3.42330823e-05,
          -3.00600368e-05, 8.96563433e-05, 2.58430209e-05,
          -9.57560405e-05, -1.00151112e-04, -1.46201328e-05,
          8.73325189e-05, 1.14887654e-04, 7.34732748e-05, 6.84761253e-05 ]
      - [ 2.59575376e-04, 1.24593163e-04, 1.43220153e-04, 8.08376135e-05,
          3.24593311e-05, -1.98075613e-05, -1.74708941e-04,
          4.18248783e-05, -3.26099835e-05, -1.24508733e-04,
          -2.20528120e-04, -3.85878702e-05, -7.62007840e-05,
          -1.00656893e-04, -3.63878135e-05, 2.36161402e-04,
          -1.13852024e-04, -4.55254223e-04, -3.55921075e-04,
          -1.25623090e-04, 1.49939850e-04, -2.31658196e-04,
          -1.26267027e-04, 4.88516162e-05, -7.00787932e-05,
          -4.32768487e-04, -3.02529588e-05, -5.30443140e-05,
          2.01079383e-05, -2.24717238e-04, -7.41883123e-05,
          5.84568479e-05, -1.11155394e-04, -2.28912060e-04,
          -3.23508284e-05, 5.40437759e-05, 2.40470217e-05,
          2.90653770e-05, 2.56764528e-04, -8.66218543e-05,
          -2.46976415e-04, 9.64076389e-05, 1.09126457e-04,
          8.31631551e-05, -1.56389739e-04, -9.49869791e-05,
          -2.93014193e-04, -1.64177582e-05, 2.68178301e-05,
          7.93573854e-05, -1.91220606e-04, 1.27457140e-04,
          3.46221386e-05, -1.01259284e-05, 1.20397650e-04,
          -1.08375680e-04, 8.33869708e-05, -1.61431541e-04,
          -2.77374274e-05, -1.58560273e-04, 6.35941478e-06,
          -1.50364183e-04, -2.59581517e-04, 3.06993170e-05 ]
      - [ 1.06686406e-04, 1.16348938e-05, 1.39830154e-04, 1.98727983e-04,
          -8.36382969e-05, -2.66754592e-04, 1.25432562e-04,
          -2.22705814e-04, -1.32045971e-04, -1.76886169e-04,
          4.98125919e-05, -2.95447011e-04, -4.65385470e-04,
          1.22898840e-04, -4.79673967e-04, -8.75972619e-05,
          4.48313294e-05, -8.05575837e-05, 1.89717757e-04,
          -7.94987063e-05, -7.77525856e-05, 2.46877404e-04,
          2.15212611e-04, 6.74164548e-05, -1.43477286e-04,
          6.47362322e-06, 1.30560933e-04, 9.25832574e-05, 1.10174660e-04,
          7.24942365e-05, 2.74860009e-04, 1.53247718e-04, 6.31041476e-05,
          3.26103094e-04, 3.35756813e-05, -3.85400162e-05,
          6.96127245e-05, 5.67827447e-05, -1.15554569e-04,
          1.06933192e-04, 3.06246453e-04, -5.53269820e-06,
          7.27839870e-05, 1.84213131e-04, 3.23190092e-04, 5.96447499e-05,
          7.15985952e-05, 8.20925488e-05, 2.21452879e-04, 4.41380165e-04,
          1.40342076e-04, 1.24821072e-05, -1.08801170e-04,
          1.83484721e-04, 9.90494082e-05, 2.79394608e-05,
          -1.75488516e-04, -2.89191434e-04, -3.62348597e-04,
          1.23929916e-04, -3.64527295e-05, 1.24265032e-04,
          9.61834812e-05, 1.17062540e-04 ]
      - [ -7.04447230e-05, 2.11526585e-05, -1.96039309e-05,
          4.56918715e-05, 1.14796538e-04, -1.89384155e-05,
          -6.57292549e-05, 5.63238864e-05, -1.57162394e-05,
          -4.22474404e-05, -5.09018755e-05, -2.29682919e-05,
          -1.42195844e-04, -1.50875843e-04, -2.54269369e-04,
          -5.83838155e-05, 7.33633206e-05, -1.89997888e-06,
          -2.12198393e-05, 1.04435370e-04, -6.12031636e-06,
          2.47124990e-05, 1.02364058e-04, 4.64188561e-05,
          -1.34958973e-05, -1.37526644e-04, -1.35025941e-04,
          -4.56999114e-05, 2.72073430e-05, -5.66699373e-06,
          6.93672046e-05, 4.30077780e-05, -4.18002710e-05,
          -8.18050758e-05, -1.31108842e-04, -3.79052108e-05,
          -2.82992050e-06, 3.54656695e-05, 1.31131228e-05,
          7.63408843e-06, 3.69931513e-05, 8.19240813e-05, 1.33282610e-05,
          8.10272250e-05, 5.53359314e-05, -9.39467645e-05,
          -4.36947666e-05, -1.27650812e-04, 2.29723464e-05,
          -7.89141814e-06, -6.28580019e-05, 2.08406000e-05,
          -2.27095825e-05, -6.55903204e-05, -5.76300044e-06,
          -8.47993942e-05, 2.29050465e-06, -2.46707950e-05,
          -4.01865545e-05, -8.51428831e-06, 2.36875021e-05,
          -7.76016241e-05, -1.24267855e-04, -4.15641580e-06 ]
      - [ 5.68249270e-05, 2.08157348e-06, 1.03570374e-05, 1.57475788e-05,
          5.42390226e-05, 4.29785978e-05, -5.59175787e-05,
          1.63864661e-05, 4.60081210e-05, 1.60102882e-05,
          -1.40366683e-05, 1.47958490e-04, 4.45325022e-05,
          -7.67303136e-05, -6.36279292e-05, 7.18315903e-07,
          -3.03575962e-05, 5.80291562e-05, -1.03362263e-05,
          1.48780193e-04, 7.27683187e-07, -1.04623679e-04,
          -1.87472651e-05, -1.58983268e-04, -1.12446447e-04,
          -1.78411836e-04, -2.03778778e-04, -1.10676803e-04,
          -6.62478124e-05, -1.06924519e-04, -8.79385625e-05,
          5.00303031e-06, -4.00463687e-05, -2.09720911e-05,
          1.00374855e-05, -3.13349919e-05, -4.43009558e-05,
          -3.18261482e-05, 5.01370341e-05, 5.32061531e-05,
          -6.96461721e-05, -5.01912873e-05, -1.15546049e-04,
          -1.48734529e-04, -4.49253930e-05, -5.20261674e-05,
          -1.72012107e-04, -1.45824131e-04, -8.79518630e-05,
          -2.10149185e-04, -8.62750458e-05, -3.75737509e-05,
          1.05010346e-04, -9.08235234e-05, -1.78775299e-04,
          -8.21352514e-05, 5.02818621e-05, 9.43441046e-05,
          1.36963154e-05, -4.68152830e-05, -8.05436357e-05,
          -6.05470013e-05, -1.80290604e-04, -2.92597797e-05 ]
   uncompressed_sv_total: 1071
   uncompressed_support_vectors:
      - [ 8.60673828e+03, 1.53401733e+03, 8.29058472e+02, 2.62545227e+02,
          0., 0., 0., 0., 0., 0., 0., 0., 0., 0., 0., 0., 1.44515410e+04,
          3.91834473e+02, 0., 0., 0., 0., 0., 0., 0., 0., 0., 0., 0., 0.,
          2.59696851e+03, 8.26630859e+02, 3.33028015e+02, 0., 0.,
          1.99521924e+03, 9.33235547e+03, 2.08720825e+02, 1.55124268e+03,
          1.85332007e+03, 7.43342090e+03, 0., 0., 0., 6., 0., 0., 0.,
          1.66016370e+03, 0., 0., 0., 0., 0., 0., 0., 2.03912188e+04,
          1.31240578e+01, 0., 0., 0., 0., 3.49834259e+02, 7.45214050e+02 ]
      - [ 8.85109863e+03, 1.43882666e+03, 9.13450623e+02, 1.99904984e+02,
          0., 0., 0., 0., 0., 0., 0., 0., 0., 0., 0., 0., 1.57586875e+04,
          8.09567795e+01, 0., 0., 0., 0., 0., 0., 0., 0., 0., 0., 0., 0.,
          8.90056152e+01, 3.68040283e+03, 1.47217300e+02, 2.10237961e+01,
          0., 2.00332166e+03, 8.29525293e+03, 9.17273132e+02,
          1.49251575e+03, 1.82845618e+03, 7.15464990e+03, 2.23606796e+01,
          0., 0., 0., 0., 0., 0., 4.20334808e+02, 2.93148438e+02, 0., 0.,
          0., 0., 0., 0., 2.04053516e+04, 7.07106781e+00, 0., 0., 0., 0.,
          1.49913376e+02, 3.69177460e+02 ]
      - [ 2.00005518e+03, 9.46659973e+02, 1.64578821e+03, 2.05427783e+03,
          1.19872051e+04, 0., 0., 0., 0., 0., 1.83387488e+03,
          2.51538037e+03, 5.04848340e+03, 1.92891199e+03, 3.08136548e+03,
          5.06209521e+03, 2.03764707e+04, 1.86010761e+01, 0., 0., 0., 0.,
          0., 0., 0., 0., 0., 0., 0., 0., 0., 0., 0., 4.33820229e+01, 0.,
          0., 8.17357910e+03, 7.87856567e+02, 1.33393958e+03,
          7.11202759e+02, 1.01971416e+04, 7.21110249e+00, 0., 0., 0., 0.,
          2.97338181e+01, 4.98196754e+01, 8., 1.41421356e+01, 0., 0., 0.,
          0., 0., 0., 2.04122461e+04, 1.41421354e+00, 0., 0., 0., 0.,
          5.65685415e+00, 0. ]
      - [ 6.35211523e+03, 2.14884521e+03, 6.19143604e+03, 4.39399268e+03,
          442., 0., 0., 0., 0., 1.10308655e+02, 1.51283215e+03,
          6.99143701e+03, 2.52911255e+03, 3.03293408e+03, 8.56752014e+02,
          4.93888721e+03, 3.68564502e+03, 7.50317261e+02, 0., 0., 0., 0.,
          0., 0., 0., 0., 0., 0., 0., 2.95042358e+02, 2.12004321e+03,
          1.31355884e+03, 5.78047241e+02, 0., 1.32060593e+02, 0.,
          1.50226135e+02, 0., 2.52420288e+02, 1.75372681e+03,
          1.83588613e+04, 1.41421354e+00, 0., 0., 0., 0., 4.68358337e+02,
          8.54223999e+02, 3.79371387e+03, 1.12643347e+03, 0., 0., 0., 0.,
          3.46698723e+01, 4.24683936e+03, 1.28152109e+04, 2.85009186e+02,
          0., 2.28280533e+02, 1.96577661e+03, 2.39774414e+03,
          1.82132751e+03, 1.99317932e+03 ]
      - [ 3.39565918e+03, 1.24818982e+03, 3.55195093e+03, 3.21024121e+03,
          0., 0., 0., 0., 0., 1.18793945e+02, 2.70475488e+03,
          3.83819653e+03, 2.80936646e+03, 3.30999219e+03, 1.97166040e+03,
          5.91697656e+03, 1.55477014e+03, 0., 0., 0., 0., 0., 0., 0., 0.,
          0., 0., 0., 0., 0., 0., 2.43600317e+03, 1.01851520e+03,
          1.57109741e+02, 0., 0., 0., 0., 6.82421875e+01, 1.43102695e+04,
          6.12549170e+03, 0., 0., 0., 0., 0., 2.91652539e+03,
          2.06021387e+03, 6.65591943e+03, 3.56354065e+01, 0., 0., 0., 0.,
          0., 1.01786289e+04, 8.71690039e+03, 9.91100647e+02,
          1.25595251e+03, 0., 0., 0., 3.06623306e+01, 9.77515332e+03 ]
      - [ 2010., 5.47816553e+03, 6.35572266e+03, 0., 292., 0., 0., 0.,
          0., 8.48528099e+00, 1.17199756e+03, 7.52333789e+03,
          1.99790796e+03, 2.38537842e+03, 1.48296631e+03, 5.83901807e+03,
          6.97775537e+03, 1.47581470e+03, 0., 0., 0., 0., 0., 0., 0., 0.,
          0., 0., 0., 0., 1.11464502e+03, 1.33732739e+03, 30.,
          2.12132034e+01, 0., 0., 0., 5.80098633e+02, 8.33395752e+02,
          9.35894434e+03, 1.02290352e+04, 5.81377678e+01, 0., 0., 0., 0.,
          3.81653015e+02, 3.08239160e+03, 7.08488379e+03, 1.31890100e+03,
          0., 0., 0., 0., 0., 6.15289307e+03, 1.43133018e+04, 0., 0., 0.,
          0., 0., 1.37618384e+03, 6.39570190e+02 ]
      - [ 2.84933838e+03, 1.47611536e+03, 6.95256201e+03, 9.95703735e+02,
          274., 0., 0., 0., 0., 1.83847752e+01, 1.15801552e+02,
          8.19322656e+03, 2.49347754e+03, 2.13620337e+03, 2.52236597e+03,
          3.30693335e+03, 8.08975952e+02, 6.53911285e+01, 0., 0., 0., 0.,
          0., 0., 0., 0., 0., 0., 0., 0., 7.87146759e+01, 6.66167358e+02,
          24., 0., 0., 0., 9.05459473e+02, 9.17194214e+01,
          4.53896912e+02, 9.75674023e+03, 9.84116016e+03, 4.82318146e+02,
          0., 0., 0., 6.81175461e+01, 7.10279602e+02, 6.38868262e+03,
          9.43671973e+03, 3.53553391e+01, 0., 0., 0., 0., 4.75218628e+02,
          7.93700049e+03, 1.17414814e+04, 7.37460205e+02, 0., 0., 0., 0.,
          4.42134827e+02, 9.27181348e+03 ]
      - [ 6.61370850e+03, 9.96472070e+03, 3.21800732e+03, 0., 0., 0., 0.,
          0., 142., 1.18802361e+02, 1.09662024e+03, 3.05544312e+03,
          1.49736279e+03, 2.73041235e+03, 1.57281937e+02, 3.34568066e+03,
          1.20013662e+04, 4.40446533e+02, 0., 0., 0., 0., 0., 0., 0., 0.,
          0., 0., 56., 1.07424393e+02, 2.53837207e+03, 5.91997607e+03,
          0., 0., 0., 0., 4.35335144e+02, 1.41737378e+03, 2.94603333e+02,
          4.87590381e+03, 9.94531836e+03, 3.63567310e+03, 2.56488257e+03,
          0., 136., 0., 0., 0., 0., 0., 0., 0., 0., 0., 2.20037140e+02,
          1.88251440e+03, 1.70442090e+04, 1.92027136e+03, 0., 0., 0., 0.,
          0., 0. ]
      - [ 1.00217773e+04, 3.76348047e+03, 4.95891663e+02, 0.,
          3.13883984e+03, 0., 3.95442322e+02, 3.15416553e+03,
          7.69518896e+03, 3.23635590e+02, 0., 0., 0., 0., 2.66762964e+03,
          5.26756641e+03, 1.55858467e+04, 8.59524231e+02, 0., 0.,
          1.02443872e+03, 1.62086804e+03, 1.27392578e+03, 1.26089404e+03,
          8.02048096e+03, 4.45481781e+02, 8.65499878e+02, 0.,
          3.28854126e+03, 0., 2.82842708e+00, 4.02720996e+03,
          5.08275879e+03, 9.46932007e+02, 0., 0., 1.89367163e+03,
          1.15288965e+03, 5.37401161e+01, 7.98249329e+02, 9.02170703e+03,
          1.06496143e+04, 1.69208398e+03, 0., 0., 0., 2.84256927e+02,
          5.81862549e+02, 3.29746411e+03, 1.87323257e+02, 4.05859589e+02,
          0., 8.18486938e+02, 0., 4.07650513e+02, 9.98561133e+03,
          1.02554453e+04, 2.82328979e+02, 6.52993088e+01, 0.,
          1.95020239e+03, 0., 5.41753540e+02, 2.23518823e+03 ]
      - [ 1.15625684e+04, 4.21106140e+02, 0., 9.94012451e+02, 1878.,
          6.41749023e+02, 1.25257050e+02, 4.83600586e+03, 3.87777222e+03,
          0., 0., 0., 0., 0., 3.95135925e+02, 6.62965967e+03,
          1.21793281e+04, 1.58460266e+03, 4.32428040e+02, 1.49630981e+03,
          3.94005151e+03, 2.75719019e+03, 5.15807861e+03, 1.52739160e+03,
          6.51344922e+03, 1.53075150e+02, 0., 6.54371460e+02,
          3.66877441e+03, 0., 0., 1.53796069e+03, 7.51352734e+03,
          1.32678589e+03, 0., 0., 1974., 0., 4.94974747e+01,
          4.74434387e+02, 1.50185137e+04, 3.80713623e+03, 2.71533276e+03,
          0., 222., 0., 2.63126282e+02, 2.64380298e+03, 6.72028857e+03,
          9.76444763e+02, 1.77916980e+03, 1.65469458e+03, 254.,
          1.66051074e+03, 1.81261890e+03, 9.54081250e+03, 9.28862793e+03,
          2.93165466e+02, 2.56811218e+02, 1.71656631e+02, 1926.,
          8.46286011e+01, 2.17807251e+02, 5.73175781e+03 ]
      - [ 4.48609424e+03, 9.42512695e+03, 0., 1.09898071e+03, 1354., 0.,
          0., 0., 0., 3.12693520e+01, 0., 1.44941260e+03, 5.46327930e+03,
          2.06583765e+03, 9.29922607e+02, 0., 9.61509375e+03,
          7.42571411e+01, 0., 0., 0., 3.18449371e+02, 0., 4.75177856e+02,
          742., 1.38772266e+03, 0., 6.04211853e+02, 1.25331677e+03,
          1.12218457e+03, 1.79107556e+03, 7.42414063e+03, 0., 0., 0., 0.,
          0., 1.23846680e+02, 3.91821899e+02, 2.08284644e+03,
          6.56237500e+03, 1.28391006e+04, 0., 0., 0., 0., 0., 0., 0., 0.,
          0., 0., 0., 8.65915710e+02, 2.09226392e+03, 3.40926123e+03,
          4.15500537e+03, 7.17053027e+03, 1.19533960e+03, 0., 0., 0., 0.,
          0. ]
      - [ 1.07353066e+04, 5.32211377e+03, 1.80092297e+03, 1.12707104e+03,
          2.27475439e+03, 0., 0., 0., 0., 0., 0., 2.12132034e+01, 0., 0.,
          0., 1.15339148e+03, 4.09346997e+03, 1.98010101e+02, 0., 0., 0.,
          0., 0., 0., 0., 0., 0., 0., 5.73459326e+03, 3.17580859e+03,
          1.66513818e+03, 6.32733838e+03, 1.80846631e+03, 2.09082108e+02,
          1.25260889e+03, 0., 0., 7.95110092e+01, 6.94801819e+02,
          9.77792188e+03, 6.81288818e+03, 1.27362781e+03, 5.43074585e+02,
          2.78922363e+03, 692., 0., 0., 0., 0., 0., 0., 0., 0., 0.,
          4.76769867e+02, 3.70791431e+03, 6.35548096e+03, 3.14761328e+03,
          1.48237756e+03, 2.58971069e+03, 4.12259766e+03, 1.92353840e+01,
          0., 0. ]
      - [ 4.98949854e+03, 1.13341223e+03, 6.55063477e+02, 3.99299377e+02,
          9.01396362e+02, 0., 6.33694763e+02, 0., 654., 0.,
          1.11865990e+02, 0., 2.38541870e+03, 5.16084570e+03,
          5.64070752e+03, 5.08358496e+03, 3202., 2.57791797e+03,
          1.51015771e+03, 8.10856323e+02, 2.10688770e+03, 3.62215393e+02,
          9.53128357e+01, 6.26024219e+03, 3.00790723e+03, 0., 0., 0.,
          564., 0., 5.07228320e+03, 5.73045117e+03, 1.01100446e+03, 0.,
          0., 0., 322., 0., 2.19203110e+02, 4.12728418e+03,
          2.59781982e+03, 2.06765039e+03, 4.50072705e+03, 6.07274756e+03,
          1856., 0., 2.54558449e+01, 3.23914600e+03, 4.60975293e+03,
          1.78657129e+03, 0., 7.96383057e+02, 1992., 0., 1.53514746e+03,
          4.82350586e+03, 14280., 0., 0., 0., 486., 0., 5.57609680e+02,
          2.52815210e+03 ]
      - [ 2.40505225e+03, 8.28258398e+03, 2.49430908e+03, 6.95363220e+02,
          7.85566040e+02, 7.12179718e+01, 1.77098846e+02, 1.35781567e+03,
          9.90043555e+03, 1.21797009e+03, 3.85292084e+02, 2.40681793e+02,
          3.28902905e+03, 1.01278247e+03, 3.77367163e+03, 4.61854639e+03,
          1.30177559e+04, 1.72552661e+03, 0., 0., 978., 8.87973022e+02,
          1.25654956e+03, 0., 2.78631494e+03, 4.45128845e+02, 0., 0.,
          1070., 2.30217285e+01, 1.29342606e+02, 6.05778223e+03, 1294.,
          1.10946338e+03, 9.16185547e+02, 0., 2.49451245e+03,
          3.60757202e+02, 1.27279224e+01, 2.03603931e+03, 5.65664111e+03,
          4.40369971e+03, 6.43774072e+03, 1.80851465e+03, 2040., 0., 0.,
          0., 8.65250854e+02, 6.50538177e+01, 0., 2.79152863e+02,
          9.31256470e+02, 6.13350159e+02, 2.54225098e+03, 3.65770752e+03,
          1.07206797e+04, 4.18126709e+03, 0., 0., 1026., 0.,
          5.56913269e+02, 3.36362866e+03 ]
      - [ 7.37287158e+03, 1.26981726e+03, 1.41197156e+03, 2.63314624e+03,
          1698., 3.06809387e+02, 1.05145386e+03, 3.66038721e+03,
          6.04742871e+03, 0., 0., 0., 1.63899805e+03, 5.08035553e+02,
          3.06160864e+03, 2.50420825e+03, 1.25749346e+04, 1.52336133e+03,
          2.66030060e+02, 1.01695331e+03, 3.08742969e+03, 2.79590649e+03,
          5.54832178e+03, 0., 6.40352002e+03, 5.59464035e+01, 0., 0.,
          230., 2.98328686e+01, 0., 3.63196680e+03, 3.43896826e+03,
          1.58857410e+03, 5.33030945e+02, 0., 506., 0., 2.63472961e+02,
          3.90358472e+03, 6.24579980e+03, 4.89541699e+03, 7.43851758e+03,
          0., 960., 0., 2.83985901e+02, 3.92458923e+02, 3.39242432e+03,
          2.97526184e+02, 2.74590607e+01, 1.60079431e+03, 2.02462573e+03,
          1.42201001e+03, 4.27772168e+03, 5.79255957e+03, 8.94124902e+03,
          7.51310791e+02, 0., 0., 748., 0., 2.36201935e+02,
          4.38959082e+03 ]
      - [ 6.36733545e+03, 2.96984844e+01, 3.68043848e+03, 0.,
          2.60822925e+03, 8.04294495e+02, 4.52548332e+01, 1.68460291e+03,
          1850., 9.13669189e+02, 0., 1.84912012e+03, 5.11612842e+03,
          2.77595386e+03, 2.27277661e+03, 6.81455420e+03, 3.84561694e+03,
          1.29269995e+03, 1.68127734e+03, 4.22209814e+03, 6.78767920e+03,
          8.76101563e+02, 1.08868823e+03, 2.80273877e+03, 4.50765283e+03,
          0., 0., 0., 98., 0., 1.44754959e+02, 5.84321826e+03,
          4.81005615e+02, 2.38916718e+02, 0., 0., 0., 0., 0., 0.,
          4.93065625e+03, 5.19804688e+03, 3.42532080e+03, 4.12355664e+03,
          2040., 0., 6.50695343e+01, 4.04474983e+01, 3.88174658e+03,
          8.11002075e+02, 2.36108081e+03, 3.93730865e+02, 2.04618921e+03,
          5.20818604e+02, 4.30107080e+03, 9.82693164e+03, 5.54298682e+03,
          3.94461670e+01, 0., 0., 0., 0., 2.57526703e+02, 2.21930908e+03 ]
      - [ 9.85425391e+03, 3.21215308e+03, 4.85842969e+03, 4.00319885e+02,
          508., 0., 2.51752106e+02, 5.58023926e+02, 8.06212280e+02, 0.,
          0., 0., 2.79655371e+03, 2.47515820e+03, 2.07855908e+03,
          1.44232471e+03, 1.19571006e+04, 1.48492480e+03, 1.61650439e+03,
          4.02654199e+03, 4.28562500e+03, 4.29031464e+02, 1.81019333e+02,
          6.77200089e+01, 4.29436829e+02, 1.55693466e+02, 0., 0.,
          1.74741052e+03, 0., 1.13737720e+03, 2.88180737e+03, 304.,
          1.27279224e+01, 2.06596222e+02, 0., 2.46941382e+03,
          2.64196892e+01, 1.85136139e+02, 3.80087769e+03, 5.64736328e+03,
          2.34342871e+03, 4.30861133e+03, 4.53561035e+03, 1888., 0.,
          1.55563498e+01, 0., 2., 2.82842708e+00, 0., 0., 4.00848608e+03,
          3.10111670e+03, 1.31155603e+03, 6.33976416e+03, 9.62560547e+03,
          3.87021637e+02, 0., 0., 0., 0., 1.41421354e+00, 0. ]
      - [ 9.98029492e+03, 3.60338672e+03, 4.46359009e+02, 6.28028687e+02,
          1.30614966e+03, 4.34350098e+02, 6.25117859e+02, 3.10208130e+03,
          3.46995605e+03, 1.83847763e+02, 0., 0., 556., 2.56912445e+02,
          8.74239319e+02, 4.81122705e+03, 8.80072461e+03, 4.86695587e+02,
          1.93662891e+03, 4.29985791e+03, 4.37213330e+03, 8.76101563e+02,
          4.09952393e+03, 1.95982422e+03, 6.04941797e+03, 1.81400116e+02,
          0., 0., 174., 0., 0., 5.74186377e+03, 1.06768975e+04,
          5.79958350e+03, 5.17650452e+02, 2.91121979e+02, 1580., 0., 0.,
          2.10534766e+03, 8.98440723e+03, 6.88643213e+03, 1.82335156e+03,
          2.05380005e+03, 46., 2.53207428e+02, 0., 4.94800977e+03,
          1.07759668e+04, 4.29279248e+03, 2.40683398e+03, 0., 138.,
          2.58739307e+03, 1.48252014e+03, 1.07562393e+04, 5.06509619e+03,
          1.01074226e+02, 0., 0., 274., 0., 2.27951752e+02,
          9.68089063e+03 ]
      - [ 7.06238086e+03, 2.49579883e+03, 1.01537384e+03, 1.75760425e+03,
          3.05700439e+03, 0., 5.34572754e+02, 8.83149805e+03,
          2.02555298e+03, 9.89949493e+01, 0., 5.40418335e+02,
          1.48401965e+03, 0., 1.24399622e+03, 5.45758301e+03,
          1.38008271e+04, 0., 0., 6.11182434e+02, 1.08700171e+03,
          3.39522144e+03, 2.98585132e+03, 8.12640137e+02, 1.22805381e+04,
          0., 0., 0., 774., 0., 0., 5.53495947e+03, 5.04684375e+03,
          1.08981128e+03, 0., 0., 1.20761660e+04, 1.74928551e+01,
          1.27703491e+03, 6.75486511e+02, 8.12750391e+03, 6.27241992e+03,
          3.08132739e+03, 0., 336., 0., 2.02232544e+02, 2.38987036e+03,
          6.27436328e+03, 4.44192236e+03, 8.62371155e+02, 0., 1786., 0.,
          1.86353796e+03, 2.64417773e+03, 16320., 0., 0., 0., 1020., 0.,
          1.74051526e+03, 4.10604346e+03 ]
      - [ 1.28669531e+04, 8.79773071e+02, 0., 0., 1020., 0.,
          3.71994690e+02, 2.72203711e+03, 4.15802686e+03, 0.,
          8.40238037e+01, 0., 2., 0., 1.36547043e+02, 2.03009961e+03,
          2.34214492e+04, 3.38357446e+03, 1.98116135e+02, 2.81262256e+03,
          3.22394531e+03, 0., 2.43991895e+03, 8.78743652e+03,
          2.98584790e+03, 0., 6.84251404e+01, 0., 2.85039233e+03,
          5.05800354e+02, 0., 0., 9.59194727e+03, 7.09338672e+03, 0., 0.,
          2650., 9.80542908e+02, 8.18176025e+02, 8.04651489e+02,
          1.71760410e+04, 1.66369226e+03, 2.43036011e+03, 8.72937134e+02,
          22., 0., 3.85203949e+02, 7.72852100e+03, 15441.,
          2.16618945e+03, 0., 9.51314850e+01, 788., 0., 2.56933032e+03,
          8.69648828e+03, 1.36835732e+04, 2.70456104e+03, 0., 0.,
          2.35900391e+03, 3.08146057e+02, 7.22745056e+02, 1.37022681e+03 ]
      - [ 4.56099756e+03, 1.63629639e+03, 0., 1.75418359e+03,
          8.68712305e+03, 8.62914673e+02, 1.16843567e+03, 2.73342090e+03,
          1.60049622e+03, 0., 0., 0., 1.81191260e+03, 8.39196045e+02,
          2.21999585e+03, 3.70613623e+03, 1.16074658e+04, 2.67286377e+02,
          1.20586670e+03, 6.78639453e+03, 3.61188696e+03, 2.26433887e+03,
          8.06101761e+01, 3.76765167e+02, 5.41632520e+03, 1.94047522e+03,
          0., 0., 5.16626514e+03, 2.96998322e+02, 1.08894446e+03,
          2.83196167e+03, 5.74282150e+01, 3.53553391e+01, 0., 0.,
          3.94483154e+03, 8.80149292e+02, 1.21175439e+03, 6.98632910e+03,
          2.31118237e+03, 3.70076447e+02, 0., 9.62081070e+01, 64., 0.,
          5.62244339e+01, 0., 10., 7.07106781e+00, 0., 2.02685474e+03,
          6.77866309e+03, 2.38916992e+03, 1.46690662e+03, 7.45093408e+03,
          6.84581348e+03, 4.83159027e+02, 0., 0., 10., 0.,
          7.07106781e+00, 0. ]
      - [ 7.67653320e+03, 4.15924805e+03, 7.58098633e+02, 0., 736., 0.,
          0., 3.57416797e+03, 3.31858423e+03, 1.21097705e+03,
          8.43483215e+02, 5.57078064e+02, 7.40129517e+02, 1.62984665e+02,
          7.25914551e+03, 4.31999219e+03, 1.08653652e+04, 6.08297607e+02,
          8.93111389e+02, 3.52324243e+03, 5.54228223e+03, 3.88711914e+03,
          1.32936066e+02, 0., 1.22260229e+03, 7.98287109e+02, 0., 0.,
          1.69932605e+03, 0., 1.97989899e+02, 5.88365723e+03, 6., 0., 0.,
          9.48683262e+00, 1.18935925e+03, 1.34164076e+01, 44.,
          2.74606250e+03, 3.79310938e+03, 3.07422632e+03, 6.29761816e+03,
          2.69275488e+03, 2040., 0., 0., 0., 488., 4.95182686e+01,
          3.86059570e+02, 0., 4.41349805e+03, 3.22975732e+03,
          1.76517029e+03, 4.11946924e+03, 1.15525039e+04, 2.97334534e+02,
          0., 0., 0., 0., 5.09324799e+01, 0. ]
      - [ 7.06617627e+03, 2.24747729e+03, 0., 0., 1.99176050e+03, 0.,
          5.78838501e+02, 3.73907324e+03, 1.59428296e+03, 1.11722870e+02,
          9.05207138e+01, 0., 6.15003906e+02, 1.48675012e+03,
          2.68085083e+03, 7.03458008e+03, 1.41218086e+04, 1.01434711e+03,
          1.53070044e+03, 3.68789856e+02, 3.58810693e+03, 2.81807788e+03,
          3.45160913e+03, 0., 2.84608813e+03, 7.10807037e+01, 0., 0.,
          1248., 0., 9.89949512e+00, 3.49140942e+03, 1.21902356e+03,
          4.08881012e+02, 7.45299927e+02, 9.86711731e+01, 1.30904333e+03,
          1.10462662e+02, 0., 0., 6.38642920e+03, 6.08200537e+03,
          2.81724902e+03, 3.86176782e+03, 2028., 0., 7.87801590e+01,
          4.68386047e+02, 1.38818018e+03, 3.70523926e+02, 0., 0., 852.,
          8.38019653e+02, 3.39331152e+03, 7.81184998e+02, 1.63112441e+04,
          6.92964630e+01, 0., 0., 0., 0., 2.63821899e+02, 4.09704773e+02 ]
      - [ 1.68726025e+03, 3.65448071e+03, 1.88771619e+03, 1.07339893e+03,
          3.57081421e+03, 3.96247406e+02, 8.65833862e+02, 4.09841357e+03,
          6.32216016e+03, 2.63950562e+02, 2.30971863e+02, 2.15406590e+01,
          7.81959656e+02, 1.72044336e+03, 1.86152856e+03, 8.18217285e+03,
          1.72435098e+04, 2.54687134e+03, 0., 0., 1.17201025e+03,
          3.31826733e+03, 4.56123193e+03, 6.95880798e+02, 8.81170703e+03,
          1.65210034e+03, 0., 0., 1016., 0., 0., 3.37342529e+01,
          9.63137988e+03, 2.23313208e+03, 0., 0., 1730., 0.,
          4.24264050e+00, 1.82702661e+03, 7.60969043e+03, 6.04732471e+03,
          4.60301660e+03, 2.67123682e+03, 4.30582275e+02, 0.,
          4.17218262e+02, 8.22107178e+02, 8.22611133e+03, 5.15318604e+02,
          1.27640173e+03, 8.19908508e+02, 376., 3.32015076e+02,
          4.03496899e+03, 2.75095264e+03, 1.41172666e+04, 1.56977707e+02,
          0., 0., 638., 0., 0., 8.62734473e+03 ]
      - [ 6.80673633e+03, 1.51517725e+03, 0., 6.28012733e+01,
          1.15191174e+03, 0., 5.80450012e+02, 2.86371582e+03,
          3.19682056e+03, 6.78822479e+01, 0., 0., 148., 0.,
          2.94317474e+01, 4.08561060e+03, 1.56033828e+04, 2.19357324e+03,
          1.75528186e+03, 3.48441602e+03, 3.36016748e+03, 6.36088074e+02,
          5.01665918e+03, 4.88772412e+03, 2244., 0., 0., 0.,
          1.38902625e+03, 0., 1.13137083e+01, 1.02012549e+03,
          1.54242910e+04, 2.55722778e+03, 1.40254639e+03, 0., 1816.,
          4.67546806e+01, 2.82842708e+00, 5.74073877e+03, 6.89472266e+03,
          5.70249902e+03, 1.31924280e+03, 2.69731738e+03, 5.09063354e+02,
          0., 0., 5.42228809e+03, 1.41753281e+04, 5.04878357e+02, 0., 0.,
          626., 3.80770264e+02, 1.14907227e+03, 1.05360352e+04,
          9.52371289e+03, 2.24282227e+02, 0., 0., 1.20402112e+03,
          2.12438232e+02, 0., 7.11371875e+03 ]
      - [ 7.16803027e+03, 3.35286084e+03, 1.80677332e+03, 6.88897644e+02,
          1.85900281e+03, 1.34014923e+02, 6.13936646e+02, 3.72257837e+03,
          1.86641174e+03, 3.95979767e+01, 0., 6.42969666e+02,
          1.79392798e+03, 1.86884570e+03, 5.35310791e+03, 2.63764087e+03,
          1.95102520e+04, 7.16656799e+02, 0., 0., 1042., 9.15698669e+02,
          5.05394073e+02, 3.88972992e+02, 8.88099414e+03, 4.71971802e+02,
          0., 0., 1556., 0., 0., 0., 2.84938232e+03, 2.43244736e+02, 0.,
          0., 4.69985986e+03, 6.65502869e+02, 1.83847752e+01,
          2.04342932e+03, 6.31417871e+03, 4.22550879e+03, 4.14617627e+03,
          4.09908008e+03, 2.30202808e+03, 0., 1.01823380e+02,
          1.06282874e+03, 3.62598218e+03, 7.54007202e+02, 0., 0., 754.,
          0., 1.36222986e+03, 8.12859131e+02, 1.82412266e+04,
          3.49770569e+02, 0., 0., 1994., 1.56204996e+01, 6.90375305e+02,
          2.00429565e+03 ]
      - [ 4.83200293e+03, 4.55038721e+03, 2.91568652e+03, 7.22357254e+01,
          488., 0., 1.97989902e+01, 4.48020752e+03, 5.15654590e+03,
          3.76748962e+02, 1.60765063e+03, 8.06380798e+02, 1326.,
          9.29478760e+02, 6.61665283e+03, 4.41927637e+03, 1.80405625e+04,
          1.14279712e+03, 0., 1.00170752e+03, 4.21176270e+03,
          2.10246680e+03, 1.53149023e+03, 7.86142456e+02, 6.65330908e+03,
          4.24264050e+00, 0., 0., 206., 0., 0., 0., 6.39904907e+02,
          1.78846298e+02, 0., 0., 424., 0., 0., 0., 6.77169531e+03,
          4.37111768e+03, 6.05505322e+03, 3.66334131e+03, 2348., 0., 0.,
          8.06744629e+02, 1.53167163e+03, 1.69705620e+01, 3.39767578e+02,
          1.67223389e+03, 6.24751123e+03, 7.97682922e+02, 1.38690442e+03,
          7.44497131e+02, 1.51663545e+04, 0., 0., 0., 110., 0.,
          1.69705620e+01, 6.00052734e+02 ]
      - [ 1.17473809e+04, 1.85768265e+02, 1.73686609e+03, 7.96900269e+02,
          972., 0., 1.08129761e+03, 0., 2.32071753e+03, 1.13084363e+03,
          0., 7.93101501e+02, 1.44997974e+03, 3.30723450e+02,
          3.49563354e+03, 3.72486523e+03, 8.24328320e+03, 4.84147314e+03,
          0., 0., 12., 0., 2.82842708e+00, 1.45858517e+01,
          1.10453606e+01, 1.15737457e+02, 0., 0., 112., 0., 0.,
          8.19478027e+03, 1.44351123e+03, 1.72629871e+03, 0., 0.,
          5.97851953e+03, 1.85869885e+03, 1.20208160e+02, 0.,
          8.50303809e+03, 1.37556653e+03, 7.08728076e+03, 2.08858936e+03,
          4028., 0., 2.47693512e+02, 0., 5.90702942e+02, 0., 0., 0.,
          1.07832813e+03, 1.42458862e+03, 1.03592053e+03, 4.45260010e+03,
          1.39429902e+04, 4.73351440e+02, 0., 0., 696., 0.,
          1.75362488e+02, 1.00902460e+03 ]
      - [ 8.59658496e+03, 3.21752197e+03, 3.25689160e+03, 1.01384869e+03,
          2008., 4.83075409e+02, 4.81850342e+02, 3.50639355e+03,
          6.27500781e+03, 9.93969727e+01, 1.56524765e+02, 3.97786377e+02,
          1.19438586e+03, 1.62291602e+03, 4.24389313e+02, 4.02380713e+03,
          1.90930566e+04, 1.18667761e+03, 4.45486237e+02, 0., 728.,
          2.23503540e+03, 1.24446729e+03, 5.13499207e+02, 7.39792285e+03,
          1.41377576e+03, 0., 5.76589966e+02, 1472., 0., 0., 0.,
          5.48029297e+03, 7.95621338e+02, 0., 0., 3.40743872e+03,
          1.01175775e+03, 4.10121918e+01, 2.05191919e+03, 6.29166455e+03,
          6.07471143e+03, 5.04746875e+03, 6.88001465e+02, 2.92296875e+03,
          0., 2.89246704e+02, 0., 1.38121875e+03, 2.41010468e+02, 0.,
          5.61100708e+02, 6.65539490e+02, 4.37988586e+02, 3.97331543e+03,
          6.84189111e+03, 1.02830127e+04, 3.38375122e+02, 0., 0., 1270.,
          1.49966660e+02, 1.54155823e+02, 2.34761572e+03 ]
      - [ 9.80234668e+03, 5.65685425e+01, 1.45301392e+03, 8.50025574e+02,
          8.72489844e+03, 5.02272339e+01, 2.03714270e+03, 3.38932886e+03,
          1.39964709e+03, 1.80432837e+03, 0., 1.59022018e+02, 1126., 0.,
          6.92641541e+02, 9.52575439e+02, 8.62304199e+03, 2.02250488e+03,
          1.51554626e+03, 3.30826733e+03, 5.86941504e+03, 1.09445508e+03,
          8.76491089e+02, 1.65196854e+02, 5.17097510e+03, 4.82382874e+02,
          1.02539844e+03, 1.24757373e+03, 2.47212500e+03, 1.99360938e+03,
          9.61030273e+02, 4.55395313e+03, 1.79794775e+03, 2.58801086e+02,
          0., 0., 6.85540137e+03, 8.64526917e+02, 5.82636292e+02,
          4.53819385e+03, 3.90893701e+03, 1.18365967e+03, 4.93803619e+02,
          8.56457825e+02, 366., 0., 4.11885895e+02, 0., 1.67272144e+03,
          1.58436621e+03, 2.66778320e+03, 1.51015186e+03, 1.98134326e+03,
          1.75525903e+03, 3.51713330e+03, 2.79510889e+03, 1.37674844e+04,
          7.77817459e+01, 0., 0., 1106., 0., 8.74122803e+02,
          2.05925488e+03 ]
      - [ 6.20560205e+03, 9.55825293e+03, 5.99612354e+03, 0., 594., 0.,
          0., 0., 0., 0., 6.09104346e+03, 0., 2.24857959e+03,
          8.10061707e+02, 1.73613660e+03, 3.02655273e+03, 8.17169824e+03,
          1.41421354e+00, 0., 0., 0., 0., 0., 0., 0., 3.67695541e+01,
          8.48343567e+02, 0., 1.01023993e+03, 5.57836548e+02,
          5.09116898e+01, 1.22458164e+04, 0., 0., 0., 0., 0.,
          1.03856079e+03, 1.67404700e+03, 6.19229053e+03, 8.47356055e+03,
          2.23857129e+03, 3.30555566e+03, 8.43406433e+02, 0., 0., 0., 0.,
          0., 0., 0., 0., 0., 0., 1.59416901e+02, 8.98376758e+03,
          7.08345313e+03, 4.98473584e+03, 0., 0., 0., 0., 0., 0. ]
      - [ 2.56645996e+03, 1.48198962e+03, 7.25480530e+02, 1.95177393e+03,
          1.04844199e+04, 1.34164076e+01, 4.24264050e+00, 0., 0., 0., 0.,
          0., 2.99893848e+03, 2.50086108e+03, 2.63108081e+03,
          1.76301001e+03, 8.50116602e+03, 2.62151807e+03, 1.30566699e+03,
          1.33407922e+03, 1.75853040e+03, 1.29792261e+03, 0.,
          1.11543716e+02, 1.38016504e+03, 2.54558441e+02, 0.,
          1.05737012e+03, 2.92113721e+03, 5.96969727e+02, 5.83837305e+03,
          3.46865771e+03, 0., 3.09014557e+02, 4.24499702e+01, 0.,
          7.23559961e+03, 2.94025928e+03, 6.22253952e+01, 7.64758545e+02,
          6.47353662e+03, 2.94292358e+02, 1.24987964e+03, 1.47709167e+02,
          66., 0., 0., 4.02355560e+02, 6., 0., 0., 0., 1.15240991e+03,
          0., 2.10237961e+02, 6.51169580e+03, 1.31661758e+04,
          2.79588989e+02, 0., 0., 368., 0., 2.64457947e+02, 0. ]
      - [ 5.93470166e+03, 1.24531921e+03, 1.27298999e+03, 2.55224561e+03,
          0., 0., 0., 0., 0., 0., 0., 0., 0., 0., 2.02821751e+01,
          2.05547217e+03, 5.98847363e+03, 1.12755054e+03, 0., 0., 0., 0.,
          0., 0., 0., 0., 0., 0., 0., 0., 1.00735922e+01, 1.35815166e+04,
          0., 7.07106781e+00, 2.50599289e+01, 6.17187646e+03,
          2.68579590e+03, 1.37961353e+03, 1.01081482e+03, 2.18360059e+03,
          5.21226416e+03, 1.19142224e+03, 0., 0., 0., 0., 0., 0., 0., 0.,
          0., 0., 0., 0., 1.44903307e+01, 6.02577441e+03, 1.34964619e+04,
          1.42320129e+03, 0., 0., 0., 0., 0., 0. ]
      - [ 1.90603516e+03, 8.21680481e+02, 1.35441345e+03, 4.70280029e+03,
          7486., 5.09313202e+01, 4.29025024e+02, 2.31449854e+03, 0., 0.,
          0., 3.37342139e+03, 6.57493713e+02, 2.21257227e+03,
          1.11914221e+03, 4.08442676e+03, 1.59740342e+04, 1.02657983e+03,
          9.80028259e+02, 3.95026514e+03, 882., 0., 0., 9.20457520e+02,
          9.56029846e+02, 1.14880017e+03, 6.50238403e+02, 7.75740417e+02,
          2.10331323e+03, 0., 0., 1.97471521e+03, 5.19270630e+02,
          1.93747253e+02, 5.26359802e+02, 7.76627002e+03, 2.92769653e+03,
          9.12142578e+02, 5.83757019e+02, 6.09041895e+03, 2.80896680e+03,
          3.35410187e+02, 2.11627029e+02, 0., 1170., 1.39854980e+03,
          7.60862366e+02, 0., 3.33029602e+02, 0., 0., 9.27564209e+02,
          1.08744629e+03, 1.80661365e+03, 1.66920007e+03, 5.52016699e+03,
          1.05966582e+04, 2.10005591e+03, 5.94839249e+01, 0.,
          7.51237427e+02, 0., 3.25652802e+02, 0. ]
      - [ 3.88985645e+03, 3.44156201e+03, 4.32268652e+03, 3.42679346e+03,
          0., 0., 0., 0., 46., 0., 0., 0., 3.64092236e+03,
          2.59015015e+03, 5.72896045e+03, 3.80080786e+03, 11058., 0., 0.,
          0., 0., 0., 0., 0., 0., 0., 0., 0., 12., 3.52241394e+02,
          3.67610596e+03, 3.56667480e+03, 242., 2.29444611e+02, 0., 0.,
          0., 0., 4.31732715e+03, 2.58568115e+03, 1.01110908e+04,
          8.88461426e+02, 7.79236816e+02, 9.62600647e+02, 5808., 0., 0.,
          0., 1182., 0., 0., 0., 0., 0., 6.92964630e+01, 1.99693262e+03,
          18360., 0., 0., 0., 0., 0., 1.45331860e+03, 0. ]
      - [ 4.71184082e+03, 2.65766064e+03, 4.05938525e+03, 1.42907568e+03,
          972., 0., 2.48726105e+02, 1.76796301e+03, 1558.,
          1.08187341e+03, 9.77372437e+02, 1.50683130e+03, 4.07495947e+03,
          2.03734717e+03, 3.24304541e+03, 5.73882520e+03, 2.55743457e+03,
          3.97037158e+03, 1.11577234e+03, 4.95925146e+03, 5.00442285e+03,
          2.12993286e+03, 1.69705620e+01, 2.16666748e+03, 3.73603320e+03,
          0., 0., 0., 684., 0., 2.14946503e+02, 7.77840674e+03,
          5.07201050e+02, 3.55917633e+02, 0., 0., 0., 0., 1.97989902e+01,
          2.04075146e+03, 4.70847510e+03, 2.93991528e+03, 5.66413184e+03,
          3.20567236e+03, 1908., 0., 1.88311646e+02, 8.40119019e+01,
          1.43711572e+03, 3.18198059e+02, 1.20885632e+03, 1.30512988e+03,
          2.20266260e+03, 2.66332886e+03, 9.41682800e+02, 1.12496396e+04,
          5.28500781e+03, 0., 0., 0., 0., 0., 0., 2.38937744e+03 ]
      - [ 1.18031846e+04, 1.74247852e+03, 2.41267487e+02, 1.93813171e+03,
          0., 2.47523743e+02, 7.20044312e+02, 1.05656653e+03,
          5.24493506e+03, 1.31698486e+02, 0., 0., 5.14559998e+02, 0.,
          4.78180817e+02, 8.28537292e+02, 1.13834795e+04, 4.23349365e+03,
          2.42007544e+03, 0., 2.33667188e+03, 0., 2.25051904e+03,
          5.12903369e+03, 4500., 2.35567398e+02, 7.94638245e+02, 0.,
          2.54149707e+03, 0., 1.80115204e+02, 4.39660400e+03,
          1.28512266e+04, 3.42660132e+03, 3.70656189e+02, 8.22120422e+02,
          8.97403418e+03, 0., 1.47785327e+03, 7.85540588e+02,
          5.64011572e+03, 6.99108691e+03, 1.76975635e+03, 0., 98., 0.,
          0., 1.71205029e+03, 7.89068945e+03, 2.35482349e+03, 0., 0.,
          1.99321484e+03, 2.79256165e+02, 9.36985962e+02, 4.50353711e+03,
          1.61140996e+04, 1.07330139e+03, 0., 0., 1942., 0.,
          7.86181519e+02, 7.43268555e+03 ]
      - [ 9.52925293e+02, 6.11684387e+02, 1.28993188e+03, 2.86606641e+03,
          5.17155078e+03, 5.83095169e+00, 7.07106781e+00, 0., 0., 0., 0.,
          0., 1.55080627e+02, 2.42736206e+03, 3.01736353e+03,
          4.41114063e+03, 2.64367725e+03, 5.38678662e+03, 4.17841064e+03,
          3.51159888e+03, 2.66314575e+03, 6.57961975e+02, 2.23904755e+02,
          3.04217041e+02, 0., 0., 0., 0., 2.03991287e+02, 5.52007141e+02,
          1.66374805e+03, 4544., 0., 0., 0., 0., 4.83974170e+03,
          1.42994678e+03, 1.04718701e+03, 2.92240454e+03, 5.19111377e+03,
          0., 0., 0., 0., 0., 0., 0., 6., 0., 0., 0., 7.36973096e+03,
          1.34507324e+03, 2.29243359e+03, 1.03963730e+04, 274., 0., 0.,
          0., 0., 0., 4.24264050e+00, 0. ]
      - [ 5.73054993e+02, 1.23964343e+03, 0., 8.68900684e+03, 174., 0.,
          1.49405106e+02, 0., 1.57917694e+02, 9.89949493e+01,
          1.15690942e+03, 2.11013306e+03, 1.91479395e+03, 1.30012793e+03,
          5.38035950e+02, 7.98092432e+03, 6.53303857e+03, 3.41923779e+03,
          3.45140356e+03, 8.42950586e+03, 1544., 0., 0., 0., 2.,
          1.41421354e+00, 0., 3.23109894e+01, 3.42052612e+01, 0.,
          1.69705620e+01, 4.08580811e+03, 0., 0., 2.74590607e+01,
          3.10378271e+03, 1.84677771e+03, 5.47565735e+02, 1.04014368e+03,
          6.85703320e+03, 2.14419092e+03, 9.47523117e+01, 0., 0., 0., 0.,
          4.24264050e+00, 0., 652., 1.06066017e+02, 5.18021240e+02,
          9.32534180e+02, 7.40263037e+03, 1.52794165e+03, 1.06430627e+03,
          4.47163574e+03, 9.67301172e+03, 4.73408386e+02, 1.15210373e+02,
          4.94772682e+01, 0., 0., 4.18807831e+02, 1.10724884e+02 ]
      - [ 4.52121826e+03, 1.47327124e+03, 0., 1.67086792e+03, 3528., 0.,
          1.79207434e+03, 2.27466699e+03, 1.02003137e+03, 1.45631995e+03,
          0., 0., 1.51172009e+03, 0., 2.26984448e+03, 1.97467761e+03,
          4.38423730e+03, 2.60467017e+03, 8.90928711e+02, 0.,
          3.94086084e+03, 1.89428491e+03, 5.18572900e+03, 6.29143066e+03,
          4.60989404e+03, 1.38172021e+03, 0., 0., 0., 0., 2.94156433e+02,
          6.09640332e+03, 9.98795349e+02, 1.41421356e+02, 5.16141479e+02,
          0., 7.92476172e+03, 0., 8.98278381e+02, 3.96180347e+03,
          3.86638086e+03, 1.44249780e+03, 0., 8.06380798e+02, 1240., 0.,
          1.41421356e+02, 4.05076953e+03, 6.90659863e+03, 2.08569287e+03,
          0., 0., 1496., 0., 4.58970996e+03, 8.92092480e+03, 8160., 0.,
          0., 0., 992., 0., 9.52926758e+02, 2.89106250e+03 ]
      - [ 8.29281543e+03, 8.96144226e+02, 1.45355457e+03, 8.34636475e+02,
          2040., 0., 0., 0., 0., 0., 0., 0., 0., 0., 0., 0.,
          1.62345684e+04, 2.18634628e+02, 0., 0., 0., 0., 0., 0., 0., 0.,
          0., 0., 0., 0., 1.81019333e+02, 4.03320728e+03, 0., 0., 0., 0.,
          7.02113721e+03, 1.54044678e+03, 4.17425244e+03, 6.15999854e+03,
          0., 0., 0., 0., 0., 0., 0., 0., 0., 0., 0., 0., 0., 0., 0.,
          2.04000391e+03, 1.68639824e+04, 2.09130444e+03, 0., 0., 0., 0.,
          0., 0. ]
      - [ 8.72822949e+03, 3.46894629e+03, 1.12957275e+03, 1.23007007e+03,
          1554., 3.86160583e+02, 1.76456146e+02, 1.16535315e+03,
          3.21677051e+03, 1.47648230e+01, 0., 0., 0., 4.09353149e+02,
          4.84548584e+03, 1.90179236e+03, 1.73184512e+04, 2.31659973e+02,
          1.36990576e+03, 7.55244324e+02, 6.36741638e+02, 2.40831890e+01,
          5.01141296e+02, 2.26069604e+03, 8.51097852e+03, 4.24264050e+00,
          8.68855042e+02, 5.73949463e+02, 1978., 0., 0., 2.03000977e+03,
          9.60243262e+03, 2.19203110e+02, 2.13100922e+02, 4.61861450e+02,
          2152., 2.79769556e+03, 1.38385681e+03, 1.45345471e+03,
          6.48541357e+03, 6.21941650e+03, 5.99723340e+03, 4.00991272e+02,
          114., 1.41598022e+02, 8.91206970e+01, 1.58824939e+03,
          3.61646362e+03, 1.30138382e+02, 0., 0., 0., 1.06526993e+02,
          7.22347290e+02, 5.38510254e+03, 1.44781641e+04, 5.75293457e+02,
          5.30373474e+02, 4.75556519e+02, 2.44423242e+03, 0.,
          5.98450195e+02, 3.43989404e+03 ]
      - [ 4.48645557e+03, 1.15495715e+03, 5.67543823e+02, 1.81519812e+03,
          3.73363075e+01, 0., 0., 0., 0., 0., 0., 0., 0., 0.,
          2.84409237e+01, 6.08512842e+03, 5.94880469e+03, 1.25407373e+03,
          9.29909607e+02, 9.88682678e+02, 7.77409424e+02, 2.92827606e+02,
          5.51369873e+02, 2.38951874e+02, 7.24359375e+02, 4.52170319e+02,
          0., 0., 258., 0., 4.24264069e+01, 8.36991602e+03,
          4.43846817e+01, 0., 0., 0., 6.67109229e+03, 1.26097156e+03,
          1.71367322e+03, 9.55336133e+03, 6.40312424e+01, 0., 0., 0., 0.,
          0., 2.40831890e+01, 1.02130829e+02, 2.47024707e+03, 0., 0., 0.,
          854., 0., 6.94246875e+03, 8.53039063e+03, 4.30547119e+03, 0.,
          0., 0., 0., 0., 2.97472687e+02, 1.83674670e+03 ]
      - [ 4.13149072e+03, 8.25851660e+03, 9.60363708e+02, 4.00719727e+03,
          4.22472656e+03, 0., 0., 0., 0., 5.10813080e+02, 3.45724927e+03,
          1.50405457e+03, 7.04003418e+02, 1.03903723e+03, 1.84979675e+03,
          2.75812476e+03, 1.33113809e+04, 6.61706116e+02, 0., 0., 0., 0.,
          0., 0., 0., 0., 3.06897369e+02, 7.11624878e+02, 7.46924072e+02,
          5.00463898e+02, 0., 6.65435205e+03, 0., 0., 0., 0.,
          6.46533057e+03, 1.39936145e+03, 1.99264294e+03, 4.51290234e+03,
          6.43567432e+03, 5.28078674e+02, 0., 0., 0., 0., 0., 0., 0., 0.,
          0., 0., 0., 0., 7.42428436e+01, 3.86597681e+03, 1.20750137e+04,
          5.57611523e+03, 0., 0., 0., 0., 0., 0. ]
      - [ 7.94228564e+03, 4.20094482e+03, 5.77503113e+02, 7.04590637e+02,
          9.10704590e+03, 2.89939697e+02, 2.34403259e+02, 4.35010345e+02,
          1.17315918e+03, 5.51543274e+01, 0., 6.41954834e+02,
          1.40364392e+03, 5.68242920e+02, 2.83895605e+03, 4.65593689e+02,
          1.52691973e+04, 9.30523438e+02, 6.76844604e+02, 1.04019226e+02,
          2.88770325e+02, 1.86938492e+02, 0., 1.26077393e+02,
          9.77042297e+02, 3.34324707e+02, 0., 1.50188806e+03,
          2.00882080e+03, 1.20220032e+03, 1.22891174e+03, 2.84664404e+03,
          1.32799365e+03, 7.22569824e+02, 0., 0., 8.92066406e+03,
          9.34594177e+02, 6.56211792e+02, 4.61794092e+03, 5.75711328e+03,
          1.08990894e+03, 3.78113739e+02, 1.58280322e+03, 340., 0., 0.,
          8.74551331e+02, 8.65433228e+02, 1.15965515e+02, 0.,
          2.16856592e+03, 2.93354028e+03, 1.43694122e+02, 1.94299609e+03,
          0., 1.63215859e+04, 2.86257837e+03, 0., 0., 712.,
          7.33484802e+01, 1.12375830e+03, 6.19080322e+02 ]
      - [ 6.28172461e+03, 4.10642090e+03, 7.64037354e+02, 9.33145386e+02,
          2100., 7.54351563e+02, 2.30262061e+03, 3.19913989e+03, 126.,
          6.79823486e+02, 0., 0., 1.22596533e+03, 0., 2.31979004e+03,
          8.78603320e+03, 6.85647461e+03, 2.95647827e+03, 1.94125073e+03,
          3.79600244e+03, 1.31030396e+03, 3.80423462e+02, 1.74945459e+03,
          6.27432324e+03, 6.08810840e+03, 0., 0., 5.52105042e+02,
          4.36891406e+03, 0., 1.36961182e+03, 5.93945801e+03,
          2.64132446e+03, 3.30305115e+02, 0., 7.38432251e+02,
          5.08658398e+03, 1.06720154e+03, 3.14073706e+03, 2.39423877e+03,
          7.82074902e+03, 2.02682935e+03, 3.54355078e+03, 3.26899951e+03,
          1.51035229e+03, 0., 3.06687036e+03, 4.43365576e+03,
          1.15108643e+02, 2.46355298e+03, 4.14673370e+02, 0., 80., 0.,
          8.36930542e+02, 1.39056875e+04, 7.65663770e+03, 1.40691968e+03,
          0., 4.74444946e+02, 2.80448462e+03, 0., 1.81812598e+03,
          5.78168506e+03 ]
      - [ 6.66028015e+02, 1.69705620e+01, 1.11590784e+03, 4.08357764e+03,
          3.54972900e+03, 2.14336182e+02, 2.06542212e+03, 5.23100586e+03,
          0., 0., 0., 4.26018768e+02, 8.23747559e+02, 7.77001038e+02,
          2.28768042e+03, 7.90947754e+03, 3.02210352e+03, 5.32312012e+03,
          1.11174280e+03, 1.82605396e+03, 7.15628479e+02, 3.58607025e+02,
          4.23666840e+02, 7.52355420e+03, 7.04464307e+03, 1.34881668e+02,
          5.50695923e+02, 0., 1166., 0., 5.15671082e+02, 8.87708984e+03,
          4.88439063e+03, 1.44249780e+03, 0., 8.06380798e+02,
          6.29227588e+03, 2.27224536e+03, 1.13598059e+03, 4.93255908e+03,
          9.59699280e+02, 3.83182178e+03, 1.95412384e+02, 0., 506., 0.,
          2.82842708e+00, 3.80767017e+03, 1.70026855e+03, 3.10903369e+03,
          1.75188599e+03, 2.20494904e+02, 2.13492383e+03, 2.56257837e+03,
          8.46340027e+02, 1.07114053e+04, 8.20595215e+03, 0., 0., 0.,
          1250., 0., 9.70304443e+02, 5.02105176e+03 ]
      - [ 8.09084131e+03, 2.75825806e+03, 1.75397815e+03, 6.46413208e+02,
          2.13201563e+03, 7.84091797e+01, 6.71288940e+02, 4.44904932e+03,
          6.03983057e+03, 7.07106781e+00, 0., 0., 14., 0.,
          3.92206689e+03, 1.99028003e+03, 1.37656221e+04, 3.18666162e+03,
          1.36850562e+03, 0., 1218., 0., 5.64778662e+03, 2.69389014e+03,
          6.72859033e+03, 1.36818164e+03, 0., 8.94946960e+02,
          2.07142041e+03, 0., 0., 4.97457813e+03, 1.58059092e+04,
          4.30905518e+03, 3.17042572e+02, 1.90157822e+02, 2.62984058e+03,
          2.92246460e+02, 1.07044348e+03, 8.41260986e+02, 1.25378193e+04,
          5.24878955e+03, 2.92311841e+03, 7.45966492e+02, 102., 0., 0.,
          1.91719897e+03, 4.83468018e+03, 4.54468323e+02, 0., 0.,
          1.82930212e+03, 1.49517834e+03, 3.06320117e+03, 6.71030322e+03,
          1.10897949e+04, 8.97053345e+02, 1.38568616e+03, 0.,
          2.27841235e+03, 3.81379059e+02, 1.76783472e+03, 5.08433105e+03 ]
      - [ 3.47881812e+03, 0., 1.95489575e+03, 1.64970532e+03, 1586.,
          6.30146240e+02, 1.46731506e+03, 3.75311548e+03, 1376., 0.,
          2.84397614e+02, 6.05575745e+02, 9.12774902e+02, 1.65397302e+03,
          5.65685425e+02, 1.14432227e+04, 8.38120605e+03, 3.31291382e+03,
          7.97030762e+02, 0., 9.74445129e+02, 0., 1.22849939e+03,
          7.85052051e+03, 7.15453223e+03, 3.89948029e+02, 8.51456421e+02,
          0., 1204., 0., 8.62670288e+01, 7.17248633e+03, 5.13535498e+03,
          1.50329773e+03, 0., 0., 5.19670996e+03, 3.40379211e+02,
          7.35391083e+01, 9.96660034e+02, 8.50171777e+03, 1.61510583e+03,
          3.34847998e+03, 2.67533276e+03, 2.00535840e+03, 3.82938049e+02,
          2.26614673e+03, 8.45707129e+03, 1.68459692e+03, 1.23243958e+03,
          0., 4.45091003e+02, 386., 0., 3.18416077e+02, 8.16672510e+03,
          1.22041182e+04, 4.04087860e+02, 2.98800934e+02, 3.79739380e+02,
          2.44356470e+03, 0., 9.49713135e+02, 5.68762939e+03 ]
      - [ 5.10163965e+03, 2.84514673e+03, 0., 1.12166284e+03,
          1.54705554e+03, 7.21110229e+01, 5.54739075e+02, 7.13374756e+03,
          2.59928052e+03, 6.84225952e+02, 1.42702563e+03, 0.,
          2.30192163e+03, 2.70739716e+02, 4.09680084e+02, 1.03287754e+04,
          6.71624707e+03, 8.98839111e+02, 2.93001709e+02, 0., 996., 0.,
          3.72629639e+02, 1.26680342e+04, 3.85336377e+03, 0.,
          9.91561401e+02, 0., 2.16150098e+03, 2.40831890e+01,
          2.94730377e+02, 9.56300781e+03, 2.09835791e+03, 8.78777588e+02,
          9.62369507e+02, 5.95728699e+02, 4.67355176e+03, 4.73500977e+02,
          3.30840283e+03, 2.75457104e+03, 4.87426709e+03, 4.75999414e+03,
          3.43630933e+03, 7.70224670e+02, 1.98689063e+03, 1.84266382e+03,
          2.85218896e+03, 5.12508887e+03, 5.70712109e+03, 1.45788098e+03,
          3.74432907e+01, 0., 238., 1.42688477e+02, 8.28340607e+01,
          8.29149512e+03, 1.16080439e+04, 1.02319922e+03, 8.12231506e+02,
          3.59302094e+02, 2.02077563e+03, 8.25402954e+02, 1.59711279e+03,
          6.32971924e+03 ]
      - [ 6.18027686e+03, 3.18393750e+03, 4.76219580e+03, 7.31985693e+03,
          0., 0., 0., 0., 48., 3.62038666e+02, 3.47331396e+03,
          3.25026709e+03, 1.17391846e+03, 1.87695239e+03, 3.84731079e+02,
          3.15058057e+03, 5.60974414e+03, 5.28015137e+01, 0., 0., 0., 0.,
          0., 0., 0., 0., 5.27947144e+02, 6.45442505e+02, 9.55137512e+02,
          8.41461853e+02, 1.00440204e+03, 7.25004785e+03, 9.18076904e+02,
          0., 1.38183765e+03, 4.65874463e+03, 5.35283081e+02,
          1.04690018e+02, 1.61839856e+03, 7.49245215e+03, 9.06414746e+03,
          5.65685415e+00, 0., 0., 0., 0., 8.87918320e+01, 2.21359444e+01,
          4.92050598e+02, 0., 0., 0., 0., 0., 2.04395554e+02,
          4.92786865e+03, 8.22898828e+03, 1.75495361e+03, 1.20246167e+03,
          5.17088013e+02, 8.10380664e+03, 0., 1.41364777e+02,
          3.42271881e+02 ]
      - [ 6.87898730e+03, 9.79150635e+02, 2.43417343e+02, 4.47575684e+02,
          7.47001221e+02, 0., 2.43445709e+02, 6.93167847e+02,
          1.42755945e+03, 2.46866425e+02, 6.95151001e+02, 0.,
          1.28902612e+03, 9.43875061e+02, 2.66740137e+03, 9.56541504e+03,
          6.01742188e+03, 1.76632031e+03, 6.64762329e+02, 9.81135071e+02,
          1.36383459e+03, 0., 0., 0., 1.46525073e+03, 2.96984844e+01,
          1.69008881e+02, 0., 3.02255371e+03, 0., 8.65051208e+02,
          8.50928809e+03, 1.93152625e+03, 6.22253952e+01, 3.27566772e+02,
          0., 768., 0., 5.84107178e+02, 3.84455444e+03, 7.84308838e+03,
          2.16858252e+03, 4.47538574e+03, 4.34107568e+03, 992., 0.,
          6.50930786e+01, 4.10409546e+02, 0., 0., 0., 0., 0., 0., 0.,
          1.27711914e+03, 1.27108545e+04, 1.80308850e+03, 1.43351355e+03,
          2.78604907e+03, 0., 0., 0., 0. ]
      - [ 1.19895850e+04, 1.93380566e+03, 0., 0., 2040., 0.,
          1.03290967e+03, 1.67321411e+03, 7140., 0., 0., 0., 0., 0., 0.,
          0., 8.28723633e+03, 4.30472021e+03, 1.32400909e+02,
          8.26555481e+02, 5.57272412e+03, 1.28026465e+03, 5.59349365e+03,
          4.47175830e+03, 3.16250464e+03, 1.68480811e+03, 0., 0., 102.,
          0., 5.04479248e+02, 8.82541809e+02, 2.07078633e+04,
          5.18316846e+03, 0., 0., 2040., 0., 0., 0., 1.11501924e+04,
          1.11621514e+04, 0., 0., 0., 0., 0., 8.06380798e+02,
          1.13496123e+04, 4.08707733e+02, 1.73779846e+03, 0.,
          4.27935986e+03, 2.58058008e+03, 5.82620020e+03, 1.02226416e+03,
          3.41426416e+03, 1.54910242e+03, 0., 0., 510., 0.,
          5.61442749e+02, 3.61184448e+03 ]
      - [ 6.27257373e+03, 8.54099609e+02, 0., 0., 952., 0.,
          5.39654846e+02, 6.83450830e+03, 9.16078613e+02, 0., 0., 0.,
          6.11882324e+01, 0., 1.41421354e+00, 1.02466377e+04,
          8.54385156e+03, 1.31354578e+03, 4.69685596e+03, 1.84732715e+03,
          1968., 2.24284229e+03, 4.19691064e+03, 3.94542578e+03,
          5.02648584e+03, 0., 0., 0., 9.59999924e+01, 0., 4.65639343e+02,
          8.26792773e+03, 1.60570205e+04, 9.19569397e+02, 1.05380261e+03,
          0., 1560., 9.74837402e+02, 1.37457446e+03, 2.72235791e+03,
          1.03527422e+04, 4.68324902e+03, 2.22440747e+03, 7.08481445e+02,
          858., 0., 3.47462219e+02, 7.53933398e+03, 1.66472188e+04,
          1.94827014e+03, 2.97011182e+03, 0., 2.08015356e+03,
          1.88037427e+03, 1.86491870e+03, 1.06331748e+04, 5.40771191e+03,
          0., 0., 0., 942., 0., 0., 1.70360706e+03 ]
      - [ 1.16304434e+04, 1.45236804e+03, 0., 0., 1020., 0.,
          4.53891571e+02, 2.13043921e+03, 5.87511133e+03, 0., 0., 0., 0.,
          0., 4.02243690e+01, 3.21093164e+03, 1.74846875e+04,
          1.82274524e+03, 1.00038165e+03, 7.70434937e+02, 2.99739697e+03,
          1.13216606e+02, 7.54016943e+03, 1.67997913e+03, 6.52858008e+03,
          4.51044739e+02, 0., 0., 1.83999985e+02, 0., 3.80319916e+02,
          4.95912109e+03, 1.50355449e+04, 4.87694824e+03, 1.54036768e+03,
          0., 1600., 0., 1.41421354e+00, 3.03511646e+03, 1.07801924e+04,
          6.23863672e+03, 1.47316870e+03, 0., 1.50462122e+03, 0.,
          5.83250977e+02, 6.18642578e+03, 1.26502051e+04, 2.10545410e+03,
          2.68031567e+03, 1.04179846e+03, 1.50812500e+03, 1.09361230e+03,
          9.03651489e+02, 7.03376758e+03, 1.01836826e+04, 0., 0., 0.,
          760., 0., 5.51543274e+01, 2.83779004e+03 ]
      - [ 3.71590308e+03, 2.78979468e+03, 2.42682715e+03, 3.44706055e+03,
          1032., 0., 2.27688385e+02, 3.26407300e+03, 222.,
          6.36396103e+01, 0., 2.04217517e+03, 1.38447083e+03,
          6.79390930e+02, 2.57445166e+03, 8.30530273e+03, 1.08723291e+04,
          1.84663379e+03, 0., 1.02103967e+03, 5.27662354e+03,
          1.23995044e+03, 1.37301904e+03, 0., 5.86879688e+03,
          1.41421356e+01, 3.54564514e+02, 6.28767029e+02, 1148., 0.,
          1.55563488e+01, 5.91227539e+03, 2.42914746e+03, 1.22450146e+03,
          0., 1.03673523e+03, 5.26689453e+03, 1.08731665e+03,
          5.65900391e+02, 3.38700653e+02, 1.13172207e+04, 4.18163428e+03,
          4.34219336e+03, 0., 336., 0., 1.29247955e+02, 2.76441187e+03,
          1.43697217e+03, 4.71221191e+02, 8.27647247e+01, 5.93105518e+03,
          3.61490625e+03, 9.25792908e+02, 1.42490149e+03, 9.71363574e+03,
          7.50524805e+03, 2.12132034e+01, 0., 0., 930., 0.,
          5.63711121e+02, 2.72353394e+03 ]
      - [ 1.31155342e+04, 2.77796936e+02, 0., 0., 2.74825049e+03,
          1.32098450e+02, 1.20583337e+03, 5.55576074e+03, 0., 0., 0., 0.,
          592., 0., 9.46618896e+02, 7.75640576e+03, 1.29155801e+04,
          2.82544165e+03, 0., 0., 172., 2.00066895e+03, 3.53045923e+03,
          6.22296484e+03, 6.82954199e+03, 0., 0., 0., 6.62208496e+02,
          5.01008972e+02, 1.90227393e+03, 7.03190723e+03, 1.04842539e+04,
          1.51439600e+03, 0., 0., 976., 0., 1.34164076e+01,
          4.11533740e+03, 1.17599609e+04, 5.54830664e+03, 0., 0., 382.,
          0., 4.16194214e+02, 6.21518457e+03, 1.16000166e+04,
          1.21154663e+03, 0., 0., 106., 2.59187195e+02, 5.27631250e+03,
          8.00433936e+03, 9.70460059e+03, 1.35465784e+03, 0., 0.,
          1.24098499e+03, 3.42550171e+02, 1.00237457e+03, 3.96258081e+03 ]
      - [ 3.26202881e+03, 2.80948639e+01, 1.00846420e+02, 0., 0., 0.,
          8.90132507e+02, 1.31861829e+03, 1.56500232e+03, 0., 0., 0., 0.,
          0., 2.87014331e+03, 1.46594766e+04, 6.24520410e+03,
          3.43227020e+02, 1.59962494e+02, 2.26008850e+02, 1092.,
          5.19123535e+02, 8.25514160e+02, 1.69018579e+03, 818.,
          3.89974365e+02, 0., 0., 414., 0., 1.75735092e+02,
          1.42711074e+04, 4.78350781e+03, 7.92516235e+02, 1.30519482e+03,
          2.73469922e+03, 2.32266626e+03, 2.07127661e+03, 1.61905237e+03,
          8.65690234e+03, 5.31032129e+03, 5.64075256e+02, 3.56788208e+02,
          0., 272., 0., 2.39670996e+03, 9.08817480e+03, 22., 0., 0., 0.,
          0., 0., 2.00895593e+03, 1.03947734e+04, 5.49988525e+03,
          3.13494629e+03, 5.17511353e+02, 4.98196754e+01, 2.53524170e+03,
          1.30465869e+03, 1.83015210e+03, 8.19330273e+03 ]
      - [ 9.36907422e+03, 4.99317627e+03, 2.88840356e+03, 0., 0., 0., 0.,
          0., 0., 0., 1.70205652e+03, 2.49817065e+03, 1.39332593e+03,
          2.14303979e+03, 1.44254932e+03, 3.60508032e+03, 8.61926270e+03,
          2.02643921e+03, 0., 0., 0., 0., 0., 0., 6., 0., 0.,
          2.03502209e+03, 8.08278442e+02, 1.07487769e+03, 6.10981995e+02,
          4.75159229e+03, 0., 0., 0., 0., 0., 0., 1.41421356e+01,
          6.18719482e+03, 1.04007197e+04, 1.75319763e+03, 1.99226855e+03,
          2.77762671e+03, 386., 0., 0., 0., 0., 0., 0., 0., 0., 0., 0.,
          4.09661670e+03, 8.54451758e+03, 2.49172437e+03, 1.76778967e+03,
          3.86305786e+03, 0., 0., 0., 0. ]
      - [ 3.58642139e+03, 3.31876587e+03, 6.90408496e+03, 3.95518896e+03,
          0., 0., 0., 0., 0., 0., 3.72996729e+03, 2.61606323e+03,
          1.21291833e+03, 2.06893408e+03, 1.93710962e+03, 4.85297168e+03,
          2.03299063e+04, 2.13462158e+02, 0., 0., 0., 0., 0., 0., 0., 0.,
          0., 0., 0., 0., 1.41421354e+00, 0., 2.62333447e+03,
          2.12879333e+02, 8.75694458e+02, 9.17256775e+02, 0., 0., 0.,
          8.19813477e+03, 1.02997373e+04, 9.02157410e+02, 1.43518701e+03,
          7.68023438e+02, 264., 0., 4.10121918e+01, 2.86289642e+02, 0.,
          1.31240578e+01, 0., 0., 0., 0., 0., 2.98328686e+01,
          1.62828193e+04, 5.05425781e+03, 0., 0., 0., 0., 0.,
          1.21655254e+01 ]
      - [ 3.62715771e+03, 3.63288110e+03, 3.73825415e+03, 2.52468408e+03,
          1.31871692e+03, 1.62845996e+03, 0., 0., 560., 0., 0., 0.,
          4.12131738e+03, 3.21800269e+03, 5.42496680e+03, 5.62992969e+03,
          5.34652539e+03, 3.48999573e+02, 0., 0., 0., 0., 0., 0., 0., 0.,
          0., 0., 0., 0., 1.73536255e+03, 1.26564072e+04, 258., 0., 0.,
          0., 0., 4.64005310e+02, 5.26887695e+03, 5.17334619e+03,
          1.00458545e+04, 1.35930313e+02, 1.14996973e+03, 1.87654541e+03,
          1.29738037e+03, 0., 0., 0., 478., 0., 0., 0., 0., 0.,
          6.10403564e+02, 8.85281641e+03, 1.06468867e+04, 4.16824097e+02,
          0., 3.22960632e+02, 0., 0., 4.76971893e+02, 0. ]
      - [ 6.13224268e+03, 6.98378906e+03, 5.72712830e+02, 6.99847290e+02,
          6.63486816e+02, 1.45113754e+02, 5.26101563e+02, 6.98713074e+01,
          2., 0., 0., 0., 0., 2.85131836e+03, 3.51710767e+03,
          3.70125586e+03, 1.01057617e+04, 2.56087720e+03, 0., 0., 0., 0.,
          0., 0., 6.16314880e+02, 5.10090912e+02, 4.67546806e+01, 0.,
          1.24319470e+03, 1.31487701e+02, 2.64693042e+03, 6.12050732e+03,
          0., 0., 0., 0., 2.09475433e+02, 10., 1.19037811e+02,
          4.11471289e+03, 8.57319434e+03, 2.07399927e+03, 7.87370068e+03,
          2.34243805e+02, 608., 0., 0., 0., 0., 0., 0., 0., 0., 0., 0.,
          0., 1.62721455e+04, 5.02776514e+03, 0., 0., 0., 0., 0., 0. ]
      - [ 1.08651787e+04, 2.31596655e+03, 0., 1.24723694e+02, 308., 0.,
          1.31597473e+03, 0., 990., 1.13137085e+02, 3.76616516e+02,
          1.44109912e+03, 3.99002258e+02, 6.46897095e+02, 8.92467102e+02,
          8.50895410e+03, 1.16168086e+04, 1.47875452e+03, 2.51710547e+03,
          4.70272247e+02, 8.35028613e+03, 8.87262085e+02, 8.14314636e+02,
          1.60496558e+03, 1.56127771e+03, 0., 0., 0., 258., 0.,
          1.73948273e+02, 3.97364063e+03, 1.03242603e+03, 0., 0., 0.,
          6.38928772e+02, 7.21110249e+00, 7.78203049e+01, 2.78142920e+03,
          1.03827197e+04, 2.03222424e+03, 4.05286621e+03, 5.14473486e+03,
          668., 2.44920395e+02, 0., 9.89100220e+02, 5.10588287e+02,
          2.97681244e+02, 0., 5.26322949e+03, 4.21085693e+03, 0.,
          3.92228540e+03, 1.16651250e+04, 3.12339307e+03, 0., 0., 0.,
          362., 0., 3.01243103e+02, 8.17434998e+01 ]
      - [ 1.34263672e+04, 5.14384583e+02, 7.98122787e+01, 7.84381714e+02,
          234., 3.54053680e+02, 0., 3.13087860e+02, 990., 3.14607697e+02,
          0., 3.52547882e+02, 2.88683105e+03, 1.42294263e+03,
          3.37015771e+03, 3.60278394e+03, 7.08086328e+03, 1.61132788e+03,
          2.90806079e+03, 5.49365332e+03, 4.23615088e+03, 1.53059009e+03,
          1.45664001e+02, 3.11801208e+02, 3.11168762e+02, 1.38592926e+02,
          0., 0., 456., 4.00232422e+02, 2.61768115e+03, 3.82894458e+03,
          0., 0., 0., 0., 5.60475586e+02, 1.92353840e+01, 5.65685415e+00,
          2.72382642e+03, 5.79812158e+03, 4.38034619e+03, 2.94055981e+03,
          5.17622070e+03, 1260., 0., 0., 0., 684., 1.10451050e+03,
          1.70301025e+03, 8.38127686e+02, 4.05416748e+03, 1.65747876e+03,
          1.96884082e+03, 5.57592383e+03, 1.19366855e+04, 0., 0., 0., 0.,
          0., 1.41421342e+00, 0. ]
      - [ 9.44235645e+03, 1.81019333e+02, 0., 0., 2.59946484e+03,
          1.70880081e+02, 3.34343994e+03, 4.89134131e+03, 8.22612915e+02,
          0., 0., 0., 688., 0., 8.97048767e+02, 9.72302148e+03,
          4.52844678e+03, 5.65685415e+00, 6.98140411e+01, 8.42140121e+01,
          9.21954422e+01, 1.65680420e+02, 1.85082068e+03, 4.70098682e+03,
          6.23747656e+03, 8.21216980e+02, 0., 0., 1680., 0.,
          1.94744043e+03, 9.93566992e+03, 1.86646240e+03, 1.90293503e+02,
          4.68721680e+02, 0., 2.27385132e+03, 5.10720367e+02,
          1.70441687e+03, 6.01208496e+03, 8.50054883e+03, 3.07670825e+03,
          4.19372656e+03, 2.68268524e+02, 392., 0., 3.25505005e+03,
          4.83064551e+03, 7.73552148e+03, 2.96379395e+03, 1.18164453e+03,
          0., 1504., 0., 4.63651428e+02, 1.28519805e+04, 5.60239160e+03,
          0., 0., 1.30552673e+02, 2.96222852e+03, 0., 9.33079956e+02,
          9.42837500e+03 ]
      - [ 9.38969043e+03, 1.92867395e+03, 1.89216113e+03, 1.36996582e+03,
          4.76346527e+02, 2.33568481e+03, 0., 0., 316., 1.33962677e+02,
          0., 0., 0., 2.11326685e+03, 4.78873389e+03, 4.88998584e+03,
          5.09022754e+03, 2.10717819e+02, 0., 0., 0., 0., 0., 0., 0.,
          1.92333038e+02, 8.63712921e+01, 0., 3.10380493e+03,
          1.44415796e+03, 5.59685181e+02, 5.75462500e+03, 8.09415359e+01,
          1.55563488e+01, 0., 0., 3.50407837e+02, 0., 1.53512000e+03,
          4.83376270e+03, 4.81473047e+03, 1.41683972e+03, 2.23720898e+03,
          4.61017236e+03, 4.09509521e+03, 0., 2.54558449e+01, 0., 0., 0.,
          0., 0., 0., 0., 0., 0., 1.09302246e+04, 1.39507239e+03, 0.,
          2.76019897e+03, 4.08228394e+03, 0., 4.24264050e+00, 0. ]
      - [ 1.27773291e+04, 1.70504578e+03, 1.02979724e+03, 0.,
          3.01134790e+03, 0., 5.25597290e+02, 9.80342163e+02, 0., 0., 0.,
          4.71663025e+02, 1.52303003e+03, 6.64939087e+02, 3.56892188e+03,
          2.40653955e+03, 3.21000781e+03, 1.58230066e+03, 5.68819824e+03,
          4.74448975e+03, 638., 1.31023438e+03, 1.64347992e+02,
          7.17683984e+03, 1.95283728e+03, 7.78738708e+02, 0., 0., 538.,
          0., 3.68948193e+03, 3.14515820e+03, 2.13621069e+03,
          2.24905090e+02, 0., 0., 826., 0., 0., 5.78181641e+03,
          7.26950488e+03, 3.34266089e+03, 3.20068726e+03, 3.66293774e+03,
          428., 0., 2.05964020e+02, 1.97276038e+03, 4.00698047e+03,
          5.82972754e+03, 1.84171399e+03, 0., 2.86926587e+03,
          2.70968628e+02, 1.12064941e+03, 1.66563418e+04, 1126.,
          2.82842684e+00, 2.23606796e+01, 0., 792., 0., 9.49165222e+02,
          1.82569629e+03 ]
      - [ 1.13745732e+04, 1.86472900e+03, 0., 0., 1576., 0.,
          6.40410034e+02, 5.94487988e+03, 1.55875684e+03, 7.07106781e+01,
          0., 0., 138., 0., 7.07106781e+01, 3.40494092e+03,
          6.30172461e+03, 1.27279224e+01, 0., 0., 782., 0., 0.,
          8.88187891e+03, 4.31945703e+03, 1.30016919e+03, 0.,
          7.87508728e+02, 2214., 7.44043030e+02, 3.49588318e+02,
          6.68528223e+03, 7.22560791e+03, 9.42989197e+02, 0.,
          3.41760139e+01, 1498., 1.63082794e+02, 0., 4.65679980e+03,
          6.01870752e+03, 3.55113892e+03, 5.04610889e+03, 2.19334082e+03,
          494., 0., 8.38086060e+02, 3.94581885e+03, 5.38876270e+03,
          4.93092139e+03, 1.17762720e+03, 0., 854., 0., 1.65627213e+02,
          1.06898037e+04, 5.70480615e+03, 1.54594312e+03, 8.97367249e+02,
          9.83236511e+02, 3.34168213e+03, 6.10470337e+02, 1.58534375e+03,
          5.51418799e+03 ]
      - [ 1.16216650e+03, 2.66744873e+03, 4.53892969e+03, 6.52156494e+03,
          4.36896338e+03, 2.18233826e+02, 0., 0., 0., 0., 1.72046509e+01,
          4.27070801e+03, 2.99376660e+03, 1.25260242e+03, 1.38092883e+03,
          2.46738770e+03, 6.12676807e+03, 1.41421354e+00, 0., 0., 0., 0.,
          0., 0., 0., 1.55563488e+01, 6.41404724e+01, 1.53889014e+03,
          3.73312866e+03, 2.92984650e+02, 2.34698828e+03, 5.72115039e+03,
          122., 0., 0., 1.30907886e+03, 1.31660413e+03, 8.41114746e+02,
          3.64072437e+03, 3.74435547e+03, 9.75892773e+03, 5.86181396e+02,
          1.48384750e+02, 3.33430664e+02, 5.68940430e+02, 0., 0., 0., 0.,
          0., 0., 0., 0., 0., 2.50796356e+02, 4.04166357e+03,
          8.27461719e+03, 8.90905334e+02, 1.42238159e+03, 1.79861987e+03,
          5.14766748e+03, 3.05286751e+01, 1.41421356e+01, 0. ]
      - [ 7.52353906e+03, 3.06749951e+03, 0., 0., 9.10054932e+01, 0., 0.,
          0., 2., 0., 0., 0., 3.41673615e+02, 1.25927429e+03,
          4.18285254e+03, 6.02477148e+03, 6.16998730e+03, 0., 0., 0., 0.,
          0., 0., 0., 0., 0., 0., 0., 1.86395422e+03, 7.17754395e+02,
          1.19334143e+03, 4.70714307e+03, 66., 0., 6.76017761e+01, 0.,
          7.13098267e+02, 5.41294746e+01, 4.64783905e+02, 8.12343896e+03,
          2.29671240e+03, 2.96389551e+03, 5.63509082e+03, 2.10536694e+03,
          1494., 0., 0., 0., 0., 0., 0., 0., 0., 0., 2.09541275e+02,
          3.98133130e+03, 7.05439990e+03, 1.59267908e+03, 1.04287158e+03,
          3.18938873e+02, 6.04834375e+03, 1.04278473e+02, 0., 0. ]
      - [ 5.70063232e+03, 2.39260547e+03, 3.43052271e+03, 5.53882715e+03,
          7.70081863e+01, 1.33281647e+02, 0., 0., 0., 0., 0., 0.,
          2.57701294e+03, 1.17455640e+03, 6.64085352e+03, 3.86101074e+03,
          4.58080273e+03, 6.50695343e+01, 0., 0., 0., 0., 0., 0., 0., 0.,
          0., 0., 0., 1.44823315e+03, 4.31349609e+03, 7.83647021e+03,
          426., 0., 0., 0., 0., 0., 5.64056543e+03, 6.76700781e+03,
          5.46408203e+03, 2.87261841e+03, 6.60733826e+02, 3.93574780e+03,
          5.49250195e+03, 0., 0., 0., 904., 0., 0., 0., 0., 0., 0.,
          8.95356738e+03, 1.03023545e+04, 0., 0., 6.93987061e+02,
          9.90523071e+02, 1.30556848e+03, 8.05868530e+02, 0. ]
      - [ 4.14649658e+03, 2.16143042e+03, 1.77304883e+03, 7.64403955e+03,
          0., 0., 0., 0., 0., 6.77862793e+02, 1.56533374e+03,
          1.45452112e+03, 2.36714111e+03, 2.28238550e+03, 1.76909229e+03,
          2.29358936e+03, 9.12781250e+03, 9.98060059e+02, 0., 0., 0., 0.,
          0., 0., 0., 2.39002090e+02, 0., 1.51661682e+03, 9.80353699e+02,
          1.05204578e+03, 1.47935596e+03, 7.07415039e+02, 2.77713892e+03,
          9.24833801e+02, 2.78890656e+02, 2.49809863e+03, 0.,
          8.02122192e+01, 8.43800888e+01, 3.17807520e+03, 1.06654014e+04,
          1.22782788e+03, 4.48860010e+03, 1.56628076e+03, 1168., 0.,
          5.89133545e+02, 3.99943433e+03, 2.57100342e+02, 4.10121918e+01,
          0., 0., 0., 0., 0., 1.30782458e+03, 9.60892871e+03,
          1.56882117e+03, 8.50881882e+01, 6.83196826e+03, 0., 0., 0.,
          1.02313248e+02 ]
      - [ 4.14616406e+03, 1.19654651e+03, 1.49752725e+04, 0., 754., 0.,
          0., 0., 0., 2.05060974e+02, 6.27136108e+02, 5.17198633e+03,
          2.85177734e+03, 2.81595020e+03, 1.69546155e+03, 2.70839307e+03,
          1684., 0., 0., 0., 0., 0., 0., 0., 0., 0., 0., 0., 0., 0.,
          5.82440857e+02, 1.77536816e+04, 192., 0., 0., 0., 0., 0.,
          7.13453308e+02, 1.62169863e+04, 2.73713062e+03, 8.10332764e+02,
          1.76708801e+02, 4.17020386e+02, 9.72019287e+02, 0., 0., 0., 0.,
          0., 0., 0., 0., 0., 7.59882019e+02, 9.69726758e+03,
          5.61963965e+03, 1.97367859e+03, 4.56230127e+03, 0., 0.,
          4.16173058e+01, 3.95979805e+01, 0. ]
      - [ 5.01877295e+03, 4.57411572e+03, 5.23025781e+03, 1.78238452e+03,
          8.54897217e+02, 2.12174454e+02, 0., 0., 304., 0., 0., 0.,
          4.57092627e+03, 2.99679761e+03, 3.37329004e+03, 3.33244824e+03,
          1.17574932e+04, 3.25700879e+03, 0., 0., 0., 0., 0., 0., 0.,
          4.38406219e+01, 0., 0., 2.45439362e+02, 1.43820459e+03,
          1.87578296e+03, 3.95108521e+03, 14., 7.07106781e+00, 0., 0.,
          2.58212793e+03, 2.41724072e+03, 4.16851410e+02, 4.52071045e+03,
          4.37052539e+03, 5.43160303e+03, 5.52074316e+03, 1.64792920e+03,
          946., 0., 4.24264050e+00, 0., 2.44924221e+01, 1.41421356e+01,
          0., 0., 0., 4.74353455e+02, 2.95387036e+03, 3.38041284e+03,
          1.41511152e+04, 1.83211075e+02, 0., 0., 0., 0., 2.65452538e+01,
          0. ]
