%YAML:1.0
---
opencv_ml_svm:
   format: 3
   svmType: C_SVC
   kernel:
      type: LINEAR
   C: 2.6699999999999999e+00
   term_criteria: { epsilon:1.1920928955078125e-07, iterations:1000 }
   var_count: 64
   class_count: 8
   class_labels: !!opencv-matrix
      rows: 8
      cols: 1
      dt: i
      data: [ 1, 2, 3, 4, 5, 6, 7, 8 ]
   sv_total: 28
   support_vectors:
      - [ 4.29187139e-06, 8.70495114e-06, 1.16296242e-05, 1.08966515e-05,
          -5.80535406e-08, -3.80302339e-07, -1.27945714e-06,
          -2.17158913e-07, -1.58046021e-06, -5.70081454e-07,
          -2.19131789e-06, 7.39226743e-06, -6.32717365e-06,
          -6.32936508e-06, -3.47233731e-06, 9.76844512e-06,
          1.96665042e-05, -2.50285011e-05, -2.14161155e-05,
          -2.38595276e-05, -7.40292626e-06, -1.17284253e-05,
          -1.21998812e-06, 0., -2.60567981e-06, -4.44659662e-07,
          -1.67333792e-06, 0., -7.07070456e-07, -8.91769923e-06,
          -4.04092816e-06, 2.28627032e-05, -1.36608842e-05,
          -8.79992967e-06, -6.19777029e-06, 6.20041965e-06,
          9.01593558e-06, -1.46208167e-05, -9.05017259e-06,
          2.80979930e-05, 2.99065214e-05, 2.99213411e-06,
          -4.19564276e-06, -6.88400769e-06, -1.05194704e-05,
          -9.32676539e-06, -1.80827756e-05, -8.86494036e-06,
          1.02612357e-05, -8.47500905e-06, -9.76431420e-06,
          -3.67996404e-06, 2.42025813e-08, -2.14729039e-06,
          2.16359331e-06, 2.74851282e-05, 3.76772659e-05,
          -1.29631808e-05, -3.23923050e-05, -1.40464508e-05,
          -1.04079681e-05, -2.66874940e-06, -2.95459836e-06,
          1.57417726e-05 ]
      - [ 1.31434444e-05, 6.41400811e-06, 9.84433882e-06, 7.17099397e-07,
          -4.59787179e-06, -6.78426261e-07, -1.61363918e-08,
          -1.68237293e-07, -6.37291535e-08, 1.93096682e-07,
          -5.77845185e-07, 2.19517665e-06, -7.26812232e-06,
          2.89576633e-06, -9.13478345e-07, 1.72069012e-05,
          2.01946659e-05, -3.96045880e-06, -3.69357576e-06,
          -9.80542518e-06, -5.65584378e-06, -6.75243655e-07,
          -1.58467481e-06, -9.30309795e-07, -2.44972921e-06,
          -6.80635708e-07, -4.23017440e-07, -1.03595821e-05,
          -1.87204951e-05, -7.68533118e-06, -1.05003706e-09,
          2.37506283e-05, -7.74609452e-06, -2.25384356e-05,
          -1.47365845e-05, -4.54783367e-06, -1.78771290e-06,
          -1.64082849e-05, -1.04770261e-05, 2.80397708e-05,
          3.53052128e-05, -9.66524021e-06, -7.01504268e-06,
          -1.94933165e-07, -2.82230285e-05, -1.16203637e-05,
          -9.12448741e-06, -2.74507738e-06, -9.84628423e-06,
          -2.50514267e-06, -9.91429988e-06, -8.75985461e-06,
          -1.08039358e-05, -8.04957199e-06, -8.91395302e-06,
          4.79554619e-05, 5.27345510e-05, 7.46055866e-06,
          -2.06683012e-06, -1.18027137e-05, -1.99805054e-05,
          -2.04792086e-05, -1.72125601e-05, 9.32342391e-06 ]
      - [ -5.61581192e-06, -1.90079118e-05, 4.78252005e-05,
          2.96191974e-05, -2.70732071e-05, -4.54301971e-06,
          -5.54582266e-06, 0., -1.83369484e-05, -3.11352451e-05,
          -1.82520707e-05, -2.43670797e-06, -3.44789914e-05,
          -3.97072508e-05, -9.16550471e-06, 5.24960014e-05,
          2.65783983e-05, -4.97513502e-05, -2.41165344e-05,
          -2.22070939e-05, -1.96228102e-05, -8.42259851e-06,
          -7.56079362e-06, -2.91564356e-05, -3.11185031e-05,
          -7.58342503e-05, -9.40698665e-05, -7.23662088e-05,
          -6.45260225e-05, -5.28428973e-05, -3.82065664e-05,
          3.07128612e-05, -3.81274222e-05, -5.42076668e-05,
          -1.85334011e-05, -1.62178330e-05, -8.18015542e-06,
          -1.40119955e-05, -3.15119287e-05, 1.31895067e-05,
          3.63097279e-05, -5.34657647e-06, -1.01883033e-05,
          -4.61078207e-06, -2.24858159e-05, -4.24698737e-05,
          -1.81992455e-05, 1.23728096e-05, -1.97573336e-05,
          -1.10421352e-05, -5.30727539e-06, 0., -1.69392260e-05,
          -9.24359597e-07, 4.87475381e-06, 4.78573238e-05,
          2.16785775e-05, 2.13846033e-06, -1.26793193e-05,
          -3.86745296e-06, -4.10780267e-05, -4.50922707e-05,
          -8.64102331e-05, -4.88573969e-05 ]
      - [ -1.10214969e-05, -6.36264804e-06, -6.32999672e-06,
          6.10570396e-06, -1.84493056e-05, -9.17233228e-06,
          -5.87190652e-06, -1.75340101e-05, -1.60493855e-05,
          -6.95379640e-06, 4.75927709e-06, 1.44647856e-05,
          6.25840858e-06, 4.74862100e-06, -4.33955705e-07,
          5.27043267e-06, 2.41591842e-05, 4.74985512e-07,
          -3.40114326e-07, -1.44285821e-06, -3.69284521e-06,
          -5.36772575e-07, -4.02851725e-07, 0., -5.05356610e-08,
          -1.66050795e-05, -1.14674267e-05, -1.65958481e-05,
          -2.49420082e-05, -1.07326223e-05, -3.98919411e-07,
          1.56422666e-05, -1.97473310e-06, -8.80015068e-06,
          -7.56922009e-06, -2.89048614e-07, -1.12664111e-05,
          -4.30330101e-06, -4.59284138e-06, 2.26154443e-05,
          2.62443318e-05, -1.68362694e-05, -1.17930967e-05,
          -1.77386137e-05, -1.22084330e-05, -7.12814972e-06,
          -5.79891503e-06, 5.42085490e-06, -1.39551275e-05,
          -1.62576646e-06, -7.15913302e-07, -4.67427299e-06,
          -1.11103045e-05, -1.15397734e-05, -8.88301656e-06,
          3.20683757e-05, 4.20340184e-05, -1.93013102e-06,
          -2.41291837e-05, -1.01611504e-05, -2.31944668e-05,
          -1.25016577e-05, -1.09687098e-05, 5.20533945e-07 ]
      - [ 2.55577243e-06, -8.18032731e-06, -9.67524647e-06,
          4.87162254e-07, -1.03513175e-05, -7.39641837e-06,
          -4.94578535e-06, -9.07944923e-06, -1.45694357e-05,
          -1.22642969e-05, -9.31090563e-06, 2.68490498e-06,
          2.10722601e-06, 1.39803171e-06, 3.00358874e-06, 6.89286253e-06,
          1.68798451e-05, -2.19296089e-06, -3.15055831e-06,
          -3.60967783e-06, -4.56063935e-06, -3.38296877e-06,
          -1.30794706e-05, -1.39256636e-05, -1.48015015e-05,
          -1.15324037e-05, -1.39695658e-05, -1.25273846e-05,
          -1.16213778e-05, -4.87465195e-06, -9.12305404e-06,
          1.22502979e-05, 4.88886144e-07, -9.48430227e-07,
          -4.77232516e-06, -9.75503099e-06, -1.82993990e-05,
          -1.22316178e-05, 3.72066074e-06, 2.14089250e-05,
          2.52932605e-05, -1.99855799e-06, -7.16153363e-06,
          -2.30980459e-05, -2.10996459e-05, -6.02787509e-07,
          1.08318477e-06, 4.83441590e-06, -1.09562552e-05,
          -7.75421267e-06, -3.36558605e-06, -2.85012311e-06,
          -3.11362055e-06, -3.58377406e-06, 7.97020405e-08,
          2.84521702e-05, 3.47534442e-05, 7.71833299e-07,
          -2.32739785e-06, -8.37370044e-06, -1.86172110e-05,
          -1.54013542e-05, -1.21138319e-05, -5.36511152e-06 ]
      - [ 2.04301396e-05, 6.01142256e-06, 2.84913403e-05, 9.96875042e-06,
          9.41871633e-07, -3.22076303e-08, -4.23732672e-06, 0.,
          -1.32145360e-05, -7.35176945e-06, -2.58508408e-05,
          2.32913317e-05, -2.95045356e-05, -3.00616430e-05,
          -7.24874781e-06, 7.82740153e-06, 2.12036703e-05,
          -5.83958608e-05, -1.11153768e-05, 0., -1.00709457e-07, 0., 0.,
          -2.65438569e-08, -5.50308005e-06, -3.60874037e-06,
          -7.38064773e-06, -3.97358781e-06, -2.28341742e-05,
          -6.22123616e-06, -2.02575593e-05, 6.49070944e-06,
          -1.53944911e-05, -9.61086971e-06, -2.83980239e-06,
          1.94050116e-07, 2.35383795e-05, 3.57789554e-06,
          -2.87928015e-06, 5.47588970e-05, 1.94676904e-05,
          -7.01923054e-05, -3.46455636e-05, -3.39207486e-06,
          -1.04011042e-05, -1.10267338e-05, -5.48080288e-06,
          -5.82638177e-06, 3.32095515e-05, 1.46514674e-06,
          -3.78669185e-08, -1.66094285e-08, -2.58460545e-06,
          -1.53396069e-08, 5.09012580e-06, 5.17085173e-05,
          4.65057019e-05, -5.94527883e-05, -1.13281058e-05,
          -6.22892821e-06, -1.36240842e-05, -4.67094310e-07,
          5.98324732e-06, 2.82808633e-05 ]
      - [ -7.26584585e-06, -6.09316612e-06, 1.06959333e-05,
          8.09800804e-06, -9.77077525e-06, -1.16771253e-05,
          -2.92012846e-05, -1.76777412e-05, -2.65345134e-05,
          -1.60797626e-05, -1.23349571e-06, 2.06696350e-05,
          6.08125902e-07, -3.76369826e-06, -1.85727567e-05,
          -6.43786188e-06, -1.26761654e-06, -3.27019334e-05,
          -6.60048454e-06, -6.32101455e-06, -6.56159727e-06,
          -5.19166042e-06, -2.08652673e-05, -1.36633162e-05,
          -3.61465427e-05, -2.82502224e-05, -1.03816465e-05,
          -8.64677804e-06, -9.59873432e-06, -6.22447305e-06,
          -1.34002448e-05, 5.96934569e-06, -3.17522608e-05,
          -2.31620888e-05, -9.19335889e-06, -3.70366251e-06,
          -5.42070850e-08, -7.93406161e-06, -1.76380272e-05,
          1.97670051e-05, 7.40128417e-06, -2.03755135e-05,
          -6.45173895e-06, -3.93557457e-06, -9.08717993e-06,
          -8.29989040e-06, -1.94940003e-05, -7.44786394e-06,
          -1.93185806e-05, -9.03639102e-06, -7.78820868e-06,
          -5.89902402e-06, -1.42977860e-05, -4.72777765e-06,
          -2.11173719e-05, 1.33183557e-05, 2.53864528e-05,
          -8.71379871e-06, -2.53571989e-06, -7.28712575e-06,
          -1.27199828e-05, -1.40663433e-05, -1.91589061e-05,
          1.34413881e-07 ]
      - [ 1.59261599e-05, -1.43675225e-05, -9.27448946e-06,
          -5.27764096e-05, -1.51778777e-05, 6.48229934e-06,
          1.11583904e-06, -4.35575771e-07, 3.67609891e-06,
          2.33204219e-06, -5.34852506e-06, 1.33090134e-06,
          -2.26688062e-05, 9.77890704e-06, 1.71899728e-06,
          -4.16924058e-06, 1.91632280e-05, 4.57039132e-05,
          5.21530819e-05, 3.33567477e-05, 6.16535908e-06, 3.70034249e-05,
          1.17373565e-05, -4.42450343e-08, 1.10038072e-05,
          6.00749217e-06, 1.73053540e-05, -7.36306765e-06,
          -3.02320404e-05, 3.33013486e-05, 1.22235124e-05,
          -7.13153213e-06, -2.35427478e-06, 4.91092214e-06,
          -2.19853632e-06, -2.10377366e-05, -1.17213876e-05,
          5.56821851e-06, -1.06785474e-05, -4.96374778e-05,
          -1.87961978e-05, -1.90730516e-05, -2.21616538e-05,
          4.91971332e-06, -1.83054034e-08, 1.10432393e-05,
          2.76025276e-06, 2.54284969e-05, -5.61546258e-05,
          -1.14959412e-05, -8.03927469e-06, -1.15178882e-05,
          2.20176912e-06, -1.93469186e-05, -1.88082158e-05,
          1.34869276e-06, 1.34575603e-05, 2.97776714e-05, 6.60709411e-05,
          1.97981462e-05, -4.11484980e-05, -2.72049128e-05,
          -3.88153894e-05, -3.94555427e-05 ]
      - [ 2.49012664e-05, -2.55261784e-05, -3.38069258e-05,
          -8.69840187e-06, -2.38539951e-06, 1.31687409e-06,
          -3.29987574e-06, -2.42113197e-06, -6.52608014e-06,
          -5.57324711e-06, 1.68099132e-06, 1.02462518e-05,
          3.20233848e-05, 2.10806465e-05, 8.22963648e-06,
          -1.20487528e-06, 1.91024046e-05, 1.57049453e-05,
          3.42645071e-05, 3.40421102e-05, -4.59735111e-06,
          1.87895839e-05, 4.34215781e-06, -8.64404501e-06,
          -2.16699409e-05, -2.71356330e-05, -3.26276495e-05,
          -4.58227987e-05, -4.10744869e-05, 8.80747757e-06,
          -7.94724565e-06, -1.17666423e-05, -2.68637450e-05,
          -6.64375148e-06, 5.51801895e-06, -3.68500287e-06,
          1.05400668e-05, 1.24229500e-05, -1.19317319e-05,
          -2.97001516e-05, -1.79960480e-05, -7.11789198e-06,
          -1.75226614e-05, 4.54273186e-06, 3.19724422e-05,
          2.03874461e-05, -2.85142664e-06, -1.00085445e-05,
          -6.22022926e-05, -6.98759686e-06, -5.96030259e-06,
          -1.41749524e-05, 1.01580499e-05, 7.04286185e-06,
          4.58398517e-06, -8.72836426e-06, -9.68299537e-06,
          1.98577072e-06, 6.12633448e-05, 3.29843897e-05,
          -1.92917523e-05, -2.02845404e-05, -2.38622797e-05,
          -6.06263857e-05 ]
      - [ -1.81075447e-05, -1.91973031e-05, -2.17231063e-05,
          -5.91192338e-06, -2.41392700e-05, -1.15483108e-05,
          -1.36827821e-05, -2.67797986e-05, -1.92370881e-05,
          -9.93883350e-06, -7.54313135e-07, 3.02341250e-05,
          1.49625639e-05, 1.24862199e-05, 8.99456438e-07,
          -8.27292024e-06, 4.95582117e-06, 4.26869046e-05,
          4.23347956e-05, 2.96095059e-05, 5.75406375e-06, 1.74071156e-05,
          2.49476602e-06, 3.22970209e-07, 4.01286070e-06,
          -1.48034351e-05, -1.01751584e-05, -2.34483887e-05,
          -2.93329576e-05, 1.88883587e-05, 5.85354701e-06,
          -1.59275423e-05, 6.26470819e-06, 1.84976434e-05,
          1.99902934e-05, -2.61137347e-06, -8.13813404e-06,
          3.23033637e-05, -4.15578143e-06, -1.51939312e-05,
          -7.92308310e-06, -1.74855231e-05, -1.13409751e-05,
          -2.67681917e-05, -3.05112530e-06, 1.03460552e-05,
          9.51093352e-06, 2.53639992e-05, -3.22136475e-05,
          1.51044560e-06, 2.75576281e-06, 7.45436091e-06,
          -7.32060380e-06, -8.56696170e-06, -2.47977027e-06,
          4.41924203e-06, 6.83996745e-07, 5.55162751e-06, 1.36494791e-05,
          8.80401240e-06, -2.76411720e-05, -1.92723364e-05,
          -8.80869811e-06, -1.88528211e-05 ]
      - [ -2.11859196e-06, -2.17748875e-05, -2.18566129e-05,
          -1.45909753e-05, -1.52450648e-05, -3.31912565e-06,
          -8.53439178e-06, -1.59186166e-05, -1.30015442e-05,
          -1.77291022e-05, -2.50673020e-05, 1.49798434e-05,
          6.26114070e-06, 6.96901452e-06, 3.52096072e-06, 3.90452351e-06,
          1.81129178e-06, 2.83015488e-05, 2.61751666e-05, 1.85507088e-05,
          3.12367183e-06, 1.90380285e-06, -5.93668210e-06,
          -2.61930400e-05, -1.49734151e-05, -2.04468270e-05,
          -1.62692759e-05, -1.78175924e-05, -1.33880794e-05,
          2.06044115e-05, -7.30301008e-06, -1.20658860e-05,
          1.46675629e-05, 2.32074472e-05, 1.27301100e-05,
          -2.33232986e-05, -1.78933260e-05, 1.26221585e-05,
          -4.98677899e-08, -1.49070058e-06, -6.13278371e-06,
          -1.08957317e-06, -1.20506329e-05, -3.65430969e-05,
          -1.56038714e-05, 1.50918722e-05, 1.27218591e-05,
          1.97954196e-05, -1.99762599e-05, -6.93383981e-06,
          1.57606155e-06, 8.13055613e-06, 9.52513892e-06,
          -3.28215219e-06, 4.52782797e-06, 7.66005724e-06,
          1.08492086e-05, 1.08943887e-05, 3.31155788e-05, 1.32614332e-05,
          -2.42783353e-05, -1.99393380e-05, -2.06870372e-05,
          -1.61334319e-05 ]
      - [ 2.25950625e-05, -1.28411921e-06, -1.09361117e-05,
          -7.81060953e-06, -8.13995030e-06, 2.69277575e-06,
          2.61428863e-06, 9.82195388e-07, -1.41501118e-06,
          -4.84004295e-06, -2.47281514e-06, -3.82436265e-05,
          -7.60901166e-05, -1.75278075e-07, 1.19828055e-05,
          -2.18053378e-06, -4.02672194e-05, 5.75705326e-06,
          7.97504545e-05, 7.26380385e-05, 7.82256120e-06, 2.72328143e-05,
          6.04060597e-06, -5.75947752e-07, 1.31066690e-05,
          4.80268409e-06, 1.39873882e-05, 3.03739444e-06,
          -4.25144681e-05, 1.29582731e-05, 6.96928510e-06,
          -7.92624087e-06, 3.24146713e-05, -3.21341286e-05,
          -1.95226289e-06, -4.57178885e-06, 1.70735402e-05,
          3.37002602e-05, 1.79999788e-05, -4.95457130e-07,
          -8.09701305e-06, -4.20775505e-05, -1.10332130e-05,
          1.58039184e-05, -1.44876685e-05, 1.60980981e-05,
          1.93116084e-05, 2.80270870e-05, -6.33796117e-06,
          6.71806504e-07, 4.44604775e-05, 2.07419835e-05, 2.52453665e-05,
          6.81154461e-06, 1.68764257e-06, 1.05696927e-05,
          -4.02534424e-05, -3.87527361e-05, 2.89439158e-05,
          4.34025314e-05, -4.72097872e-06, -1.17618420e-05,
          -5.08297899e-06, 7.12424526e-06 ]
      - [ -1.29608643e-05, -3.18505154e-05, -7.59492059e-06,
          -2.71665886e-06, -2.26354750e-05, -7.04188551e-06,
          -2.03092768e-05, -1.61338921e-05, -2.86212344e-05,
          -2.22809904e-05, -1.31949889e-06, 3.15516590e-05,
          8.40498979e-06, -1.26715952e-06, -2.10546768e-05,
          -3.64976313e-06, -3.61887869e-05, -8.13237057e-06,
          2.75933762e-05, 2.62067952e-05, -8.28024531e-06,
          4.30512266e-08, -2.46501550e-05, -1.44488813e-05,
          -3.52159223e-05, -2.42216156e-05, -1.34217898e-05,
          -8.93094966e-06, -5.77578112e-06, 1.47882083e-05,
          -1.48540239e-05, -1.76403992e-05, -8.10712390e-06,
          -4.28154135e-06, 5.05970320e-07, -1.45512313e-05,
          -1.43201851e-05, 4.44370016e-06, -8.08705681e-06,
          -8.00860471e-06, -2.50765261e-05, -2.45529209e-05,
          -1.09600351e-05, -1.10767132e-05, -4.72244119e-06,
          5.65214668e-06, -9.90317767e-06, 1.19431752e-05,
          -2.14713436e-05, -1.11924555e-05, 5.99684836e-06,
          -1.26697284e-06, -2.32944949e-05, -1.34252086e-05,
          -2.78103289e-05, -9.86460236e-07, -1.22127321e-05,
          4.41360135e-06, 2.86480772e-05, 1.40788934e-05,
          -1.37433681e-05, -1.31588531e-05, -2.94846104e-05,
          -1.30792032e-05 ]
      - [ 1.52631219e-06, -2.07959711e-05, -3.69527952e-05,
          6.23983578e-05, 1.75293662e-05, 4.41122161e-08,
          -9.55474297e-06, -5.03359570e-06, -2.20605689e-05,
          -1.74348643e-05, -2.92522709e-05, 3.34299730e-05,
          6.86915519e-05, 1.59378087e-05, 1.91626586e-05,
          -3.21998687e-06, -7.54225721e-06, -3.21475054e-05,
          -4.07559055e-05, -2.03143509e-06, -2.37792974e-05,
          -4.08324413e-05, -1.40768370e-05, -2.86238301e-05,
          -3.97379845e-05, -3.38055579e-05, -7.86126184e-05,
          -7.31182881e-05, -4.29258980e-05, -8.30819681e-06,
          -2.96328126e-05, -1.96968995e-05, -4.10366556e-05,
          9.58567853e-06, 1.72212567e-05, 8.67293784e-05,
          -7.25414839e-06, 5.40511828e-05, -1.45744489e-05,
          -1.51718386e-05, 6.12604083e-07, 3.57980934e-05,
          2.02668216e-05, -5.00514579e-06, 5.93593431e-05,
          1.02519352e-05, 6.00824114e-06, -5.63014037e-05,
          -5.29733734e-06, -1.33261992e-05, -1.37823472e-05,
          -2.38429802e-05, 4.09040695e-05, 3.56441342e-05,
          5.06331344e-05, -8.50530159e-06, -5.83275869e-05,
          -2.24206087e-05, -5.29057252e-06, 1.88296799e-05,
          8.32687874e-06, 3.45638946e-05, 5.99497207e-06,
          -3.77343094e-05 ]
      - [ -4.45281148e-05, -1.19438237e-05, -3.75297859e-05,
          1.23911304e-05, -3.88608350e-05, -2.43456579e-05,
          -5.06188080e-05, -7.12459150e-05, -5.53573191e-05,
          -2.31012527e-05, 7.50044683e-06, 5.69657423e-05,
          5.12309925e-05, 2.02000647e-05, 8.26106316e-07,
          -3.11374206e-05, -2.59508624e-06, 7.42040265e-06,
          1.06028519e-05, 2.00298473e-05, 1.09483190e-05,
          -3.79388234e-06, 4.27370594e-07, -4.36311183e-07,
          5.40699057e-06, -3.44714936e-05, -3.48069225e-05,
          -5.26737022e-05, -4.43154095e-05, 8.15411931e-06,
          -4.65219841e-07, -1.46140264e-05, 1.66015216e-05,
          3.47944260e-05, 3.48826907e-05, 7.69430790e-06,
          -9.82389429e-06, 2.84092584e-05, 3.35414711e-06,
          1.62961733e-05, -2.09536279e-06, -2.00272480e-05,
          9.12198084e-06, -3.69338159e-05, -2.53355097e-06,
          3.49449219e-05, 2.75099355e-05, 3.77088618e-05, 1.02021761e-06,
          4.07545631e-05, 8.55535836e-06, 1.74977122e-05,
          -5.06473725e-07, 4.73630053e-06, 7.70433246e-07,
          2.06177970e-06, -2.09488917e-05, -4.69065435e-06,
          -4.46401245e-05, -2.22168710e-05, -3.26864720e-05,
          2.58531963e-06, -1.23035579e-06, 1.64606427e-05 ]
      - [ -3.71464339e-05, -2.24418272e-05, -3.09612624e-05,
          1.76797130e-05, -1.10223400e-05, -2.49661007e-05,
          -1.86679226e-05, -2.61116820e-05, -3.96751966e-05,
          -3.74618139e-05, -3.47851674e-05, 1.70831790e-05,
          2.08849160e-05, 4.66582424e-06, 7.83462292e-06,
          -7.12865949e-06, -1.16193842e-05, -7.21183960e-06,
          -4.82177620e-06, 7.31515274e-06, -2.66100551e-06,
          -1.11349646e-05, -1.56144015e-05, -5.13034975e-05,
          -3.90249515e-05, -4.68084290e-05, -4.09603090e-05,
          -1.41892806e-05, 1.54895906e-06, 2.10997860e-06,
          -2.63869260e-05, 1.60583909e-06, 1.93021297e-05,
          3.22137566e-05, 1.69338909e-05, -1.52146968e-05,
          -1.96494839e-05, 4.67025211e-06, 1.84297187e-05,
          2.87462080e-05, -1.53707754e-06, 5.48092294e-06,
          -1.17033949e-06, -6.68407738e-05, -1.61111966e-05,
          2.70462297e-05, 3.12942502e-05, 3.21448460e-05,
          -1.04917335e-05, -2.27715782e-06, 1.04567537e-08,
          4.31890840e-06, 2.56458898e-05, 2.96779908e-05, 7.83632731e-06,
          1.29442087e-05, -3.82702501e-06, 4.40704116e-06,
          3.37757820e-06, -5.13001078e-06, -1.49116349e-05,
          -5.86293027e-06, -6.63573883e-06, 4.84754401e-06 ]
      - [ 1.15869962e-05, -8.20276455e-07, -1.83164284e-05,
          2.44842431e-05, -6.19393250e-05, -1.57539296e-06,
          -3.52108145e-06, 2.30080644e-07, -1.11365443e-05,
          -7.23037147e-06, -1.70733183e-05, -4.25702165e-05,
          -5.46078663e-05, 1.93254691e-05, -1.91090226e-06,
          -1.58369421e-05, -3.62681167e-05, -3.19377359e-05,
          6.55986696e-06, 3.07766459e-05, -2.11554689e-05,
          -6.52836547e-07, -6.86766862e-06, -6.32513320e-07,
          -3.07683104e-06, -7.88669877e-06, -2.07729026e-05,
          1.72615873e-05, -1.94089125e-06, -5.19188825e-06,
          -9.59403042e-06, 6.41375664e-06, -2.08642978e-05,
          -3.71565948e-05, 3.38336322e-05, 3.87712826e-05,
          2.60022207e-05, 2.58160817e-05, 1.14672675e-05, 4.29684806e-05,
          -8.60278942e-06, -4.32199267e-05, 2.97058996e-05,
          -1.19905671e-05, 3.62639662e-06, 3.64348707e-05,
          2.62970680e-05, 2.24674714e-05, 9.23716434e-05, 3.92695001e-05,
          5.18432753e-05, 3.54815347e-05, 6.85500709e-05, 7.13270783e-05,
          1.04807414e-05, 5.84542613e-06, -7.60118337e-06,
          -5.73050165e-05, -2.29263769e-05, -3.27033558e-05,
          -9.47105309e-06, 2.67197424e-06, 1.84520213e-05,
          8.45558316e-05 ]
      - [ -1.53207002e-05, -1.87585465e-05, -5.47832133e-06,
          2.60263860e-05, -2.04570115e-05, -2.73001206e-05,
          -2.72930138e-05, -1.54554309e-05, -2.98091727e-05,
          -2.86405193e-05, -2.95653354e-06, 2.93228823e-05,
          1.76141693e-05, -3.00316242e-06, -3.45939807e-05,
          -1.39970425e-05, -4.84299853e-05, -4.94048581e-05,
          -1.53737110e-05, 8.57221676e-06, 2.83310601e-06,
          -2.12505383e-05, -3.66893328e-05, -8.42302052e-06,
          -3.54109252e-05, -2.86322502e-05, -2.12444284e-05,
          -1.35567052e-06, 1.42474964e-05, 3.98891825e-06,
          -2.79925080e-05, -2.35373027e-05, -2.26073416e-06,
          -1.88679778e-07, -8.25740699e-06, -8.90953743e-07,
          -2.03730597e-05, 5.44821705e-06, -1.50376436e-05,
          1.67727412e-05, -1.78913851e-05, -6.39879363e-06,
          9.69180019e-06, -1.23905820e-05, -1.08323785e-08,
          1.38857922e-05, -8.05586569e-06, 7.07889239e-06,
          -3.86861348e-06, -2.26932320e-06, -2.48373408e-06,
          2.29363923e-06, -1.46325756e-05, -1.79563801e-06,
          -2.89700620e-05, -5.41817963e-06, -2.22638573e-05,
          -8.49918160e-06, -1.09870916e-05, 1.98613156e-06,
          -1.00063880e-05, 1.21351077e-05, -1.50610858e-05,
          6.03869603e-06 ]
      - [ -5.46192277e-05, 8.95384073e-06, 2.98388159e-06,
          1.11742693e-05, -3.78473560e-05, -3.81756581e-05,
          -2.93873272e-05, -6.11076684e-05, -4.41523589e-05,
          -9.42191855e-06, 1.16410984e-05, 2.08958409e-05,
          -1.23794998e-05, -3.34609581e-06, -1.48424542e-05,
          -1.85845711e-05, 2.68473559e-06, 3.88148255e-05,
          3.55391130e-05, 2.51983165e-05, 2.40394984e-05, 1.01185742e-05,
          8.33258946e-06, 1.26825753e-05, 2.10167691e-05, 9.89496129e-06,
          3.08474191e-05, 3.84650866e-06, -2.31820068e-05,
          1.04368182e-05, 2.89964228e-05, -7.73741067e-06,
          5.73769321e-05, 1.31603356e-05, 1.39102085e-05,
          -1.49515863e-05, -6.10243842e-06, 4.15381965e-06,
          1.25031802e-05, 2.03504751e-05, 7.86731107e-06,
          -4.74972949e-05, -2.15893397e-05, -2.66789939e-05,
          -2.33539595e-05, -1.32415926e-05, -1.38057396e-06,
          5.10465688e-05, 1.98022391e-07, 2.55929863e-05, 1.54779882e-05,
          1.78200698e-05, -1.00023472e-05, -2.95943901e-05,
          -3.44186483e-05, 4.74305989e-06, 7.93225809e-06,
          1.45554141e-05, -7.84627482e-05, -1.19816923e-05,
          -3.79494122e-05, -1.22652509e-05, 1.94437471e-05,
          2.35665120e-05 ]
      - [ -1.93081705e-05, 2.29510397e-06, -1.35219088e-05,
          -3.70173912e-05, -1.21620396e-05, -1.78893370e-05,
          -1.63204550e-05, -2.68270069e-05, -4.61668133e-05,
          -5.09948950e-05, -5.42521593e-05, -8.27903477e-06,
          -1.39280837e-05, -7.03873320e-06, -2.46993136e-06,
          -1.03560960e-05, 3.36285962e-06, 1.47933260e-05,
          2.23294101e-05, 1.22291585e-05, 6.33905393e-06,
          -1.05998306e-05, -1.04991350e-05, -2.25938711e-05,
          -1.22864840e-05, 7.19992340e-06, -1.43351974e-06,
          -7.10211816e-06, 1.42585141e-05, 6.91728155e-06,
          -1.70154381e-05, -1.33354079e-05, 5.45240546e-05,
          2.67486521e-05, 1.14441909e-05, -3.61824059e-05,
          -2.48196538e-05, -1.45096737e-05, 1.12086400e-05,
          2.77944891e-05, 6.76090622e-06, 1.22570827e-05,
          -9.05780416e-06, -6.31878793e-05, -4.01306970e-05,
          -6.01397687e-07, 1.61485932e-05, 4.66469246e-05,
          1.22113579e-05, -4.15310888e-06, 2.47222533e-06,
          1.82487711e-05, -3.01511272e-06, -4.31227272e-06,
          -1.80323707e-06, 9.52355640e-06, 1.39247240e-05,
          1.06020871e-05, 4.18063291e-06, -1.73911358e-05,
          -2.61228033e-05, -2.33065221e-05, -1.28017045e-05,
          2.77502495e-05 ]
      - [ -5.05666640e-06, 1.62246288e-05, 7.49087303e-06,
          -1.52528801e-05, -2.17526667e-05, 4.56863654e-06,
          6.22416849e-07, 1.56328679e-06, -5.01602813e-07,
          4.06489931e-07, -1.02573958e-05, -3.62439605e-05,
          -7.27992665e-05, -1.10015862e-05, -8.18259559e-06,
          -8.09956327e-06, -4.46246449e-05, -7.77146670e-06,
          1.82332024e-05, 1.46101256e-05, -4.26199267e-06,
          1.30261324e-05, 6.93816719e-06, 1.13042224e-05, 1.07382129e-05,
          3.35087534e-05, 2.70993478e-05, 3.20301515e-05, 7.35403137e-06,
          5.91615208e-06, 9.49204059e-06, 1.14489239e-05, 1.66526861e-05,
          -3.55877000e-06, 1.06710950e-05, 2.29459283e-06,
          1.09469538e-05, 1.08029217e-05, 6.27273539e-06, 2.05509459e-05,
          -1.45954107e-06, -2.77215477e-05, -8.32342607e-07,
          -8.52262201e-06, -1.75946607e-05, -2.43092654e-06,
          1.89763996e-05, 3.48017602e-05, 5.25462747e-05, 1.48518066e-05,
          1.80175830e-05, 1.56517071e-05, 7.77256173e-06,
          -5.06513871e-08, -2.82688029e-06, 1.82750955e-05,
          5.61495426e-06, -2.52563241e-05, -5.52848951e-06,
          -5.94895300e-06, -1.35023756e-05, -4.84914881e-06,
          1.36863637e-05, 7.72058338e-05 ]
      - [ -2.93651919e-05, -1.01208127e-06, 1.94052900e-05,
          -4.37036124e-06, -3.40963124e-05, -3.00935662e-05,
          -4.38293973e-05, -2.45888186e-05, -3.03173929e-05,
          -2.00968188e-05, -4.87242141e-06, 5.40164501e-06,
          -2.48114284e-05, -7.77188870e-06, -5.37544001e-05,
          -1.75202185e-05, -5.15000756e-05, -3.85277090e-05,
          -1.18749567e-05, 1.52381162e-05, -3.19032256e-06,
          4.95021311e-07, -3.48485555e-05, -7.76068009e-06,
          -3.01185137e-05, -6.52913002e-07, 1.37786074e-05,
          1.36791687e-05, 2.74623744e-05, 2.31251288e-05,
          -2.58267210e-05, -9.65801610e-06, 7.38723475e-06,
          2.87343056e-07, -1.23913615e-05, -1.92705702e-05,
          -2.32191360e-05, -8.74172474e-06, -1.05216968e-05,
          2.01516432e-05, -1.18243606e-05, -2.80564091e-05,
          -1.22843649e-05, -1.62251381e-05, -2.70395340e-05,
          9.76496963e-08, -4.17058209e-06, 2.27767978e-05,
          2.21776718e-05, -1.76251451e-05, -2.01242619e-06,
          -3.70448902e-06, -3.34141878e-05, -2.03065410e-05,
          -4.75616798e-05, 5.98392205e-07, -2.18082259e-05,
          -8.45265549e-06, -7.04540389e-06, -3.85047406e-06,
          -1.93006599e-05, -5.43350734e-06, -4.91497849e-06,
          4.03528247e-05 ]
      - [ 3.99255769e-05, -1.29201544e-05, -3.21333173e-05,
          4.45748265e-06, 1.16691099e-05, 1.21377152e-05, 2.16750595e-05,
          2.66839234e-05, -3.06078618e-05, -2.77737763e-05,
          -7.49014071e-05, -6.28891794e-05, -2.36530286e-05,
          -8.04334468e-06, -8.20481455e-06, 5.67744719e-05,
          1.04062046e-05, -1.48628624e-05, -6.35821489e-05,
          -2.15593482e-05, -2.03130730e-05, -2.48158922e-05,
          -6.59910729e-05, -1.02735423e-04, -9.36870856e-05,
          -6.94767150e-05, -8.90176088e-05, 9.81061021e-06,
          3.71967726e-05, -1.29684859e-05, -1.47704422e-05,
          2.27678793e-05, 1.07011801e-05, 1.82433678e-06,
          -1.80404113e-05, -1.75033183e-05, -2.60469533e-05,
          -4.16934517e-06, 1.88810573e-05, 1.17115369e-05,
          -1.35345008e-05, -1.07576261e-06, -1.66930495e-05,
          -1.65278398e-05, -2.21737737e-05, -9.05626894e-06,
          2.86871341e-06, -1.64924671e-07, -6.34510627e-07,
          -2.22975686e-05, -3.56170094e-05, 1.68302649e-05,
          4.61707823e-05, 7.56146474e-05, 1.12262487e-05, 5.69309123e-06,
          -1.35536111e-05, 2.83121972e-05, 4.99465350e-05,
          7.24174424e-06, -1.11905056e-05, -7.66594621e-06,
          -4.15031245e-05, -2.28756217e-05 ]
      - [ 1.01435890e-05, 1.39741169e-05, 7.02865646e-06,
          -1.74973070e-06, -1.72937289e-05, 1.58164567e-05,
          1.91575382e-05, 3.87746550e-05, 2.22764556e-05, 2.85972578e-06,
          -6.49429785e-06, -7.18539814e-05, -5.36084008e-05,
          -6.82266773e-07, 1.13835154e-06, 3.17463696e-06,
          -2.71454192e-05, -2.44316525e-05, -3.56176201e-06,
          2.89472609e-06, -5.61769457e-06, 2.51344613e-06,
          -5.97302630e-07, 5.92298521e-09, -2.33006472e-06,
          1.50770393e-05, 8.03573494e-06, 2.81208268e-05, 1.69035629e-05,
          2.65022186e-06, -9.62487229e-06, 3.62576884e-06,
          -2.96330636e-05, -2.60758225e-05, -6.52468907e-06,
          1.71659849e-05, 3.00045285e-05, 1.40731927e-05, 1.16226784e-05,
          -5.33653611e-06, -1.71458778e-05, -1.21061330e-05,
          5.82072289e-06, 1.78975697e-05, 1.59831586e-06,
          -1.27126268e-05, -5.25040878e-06, -1.22399415e-05,
          4.17960728e-05, 9.93651520e-06, 2.15304090e-06, 1.14966078e-05,
          2.36878295e-05, 2.62148897e-05, 3.04743139e-06, 3.35647132e-06,
          5.69365011e-06, -2.33842129e-05, 2.53065173e-05,
          1.44796968e-06, 3.75145441e-06, -1.91153958e-06,
          6.75328874e-06, 2.80352724e-05 ]
      - [ 1.49992402e-05, -7.91933235e-06, 1.18528942e-05,
          -2.59481840e-06, -6.63579840e-06, -5.99226678e-06,
          -7.68299651e-06, 4.16622152e-06, -2.80763197e-06,
          -3.05342801e-05, -6.13480506e-06, -1.08289869e-05,
          -1.06262642e-05, -9.74435443e-06, -3.38631507e-05,
          -3.09195428e-07, -5.23167582e-05, -6.83516992e-05,
          -3.08406452e-05, 1.30666024e-06, -1.70777075e-05,
          -1.67270318e-05, -3.97139556e-05, -2.44991224e-05,
          -4.80057679e-05, -9.66359585e-06, -6.46591786e-07,
          1.75453733e-05, 3.44631153e-05, 4.22335279e-06,
          -3.66557360e-05, -2.21080904e-06, -3.73931143e-05,
          -2.65965027e-05, -1.73885455e-05, -1.42824965e-05,
          -1.54642166e-05, -2.29896268e-05, -1.24501494e-05,
          1.66161681e-05, -1.07182404e-05, -1.38089008e-05,
          -1.14067632e-06, 1.86146590e-05, -8.08467576e-06,
          -5.21607762e-06, -1.95654593e-05, -1.52943339e-05,
          -3.68886418e-07, -1.32464947e-05, -1.26317054e-05,
          1.46249045e-06, -1.73243970e-05, -4.76490823e-06,
          -3.37262645e-05, -8.61970148e-06, -2.17019078e-05,
          -5.56803434e-06, 2.35808675e-05, -6.37631842e-07,
          3.82456165e-06, 1.39471094e-05, -1.88156318e-05,
          5.39876237e-06 ]
      - [ 8.56751831e-06, 2.27689598e-05, 1.83689208e-05,
          -6.77693137e-08, -2.12179075e-05, 1.27887333e-05,
          5.79046446e-06, 1.10225092e-05, 2.23186071e-05, 1.75916102e-05,
          1.65095225e-05, -3.12525226e-05, -4.20705001e-05,
          3.42699900e-06, -7.03288288e-06, -6.07166703e-06,
          -8.75199476e-06, -7.92550600e-06, 1.32971045e-05,
          1.01357264e-05, -1.85403296e-05, 9.09841219e-06,
          7.01758472e-06, 2.41218204e-05, 1.96457950e-05, 2.48717643e-05,
          2.10306589e-05, 1.64485755e-05, -9.03628461e-06,
          9.25582011e-09, 7.77704554e-06, -6.10880420e-07,
          -2.36714532e-05, -3.60759695e-05, -6.75515639e-06,
          2.39197852e-05, 3.63086874e-05, 1.40489965e-05, 8.98104815e-07,
          -9.36047763e-06, -1.27811381e-05, -2.59504759e-05,
          9.36878769e-06, 3.76776334e-05, 1.57850936e-05,
          -1.12351172e-05, -1.11750160e-05, -7.44208182e-06,
          2.39181700e-05, 8.80011066e-06, 1.00674188e-05, 1.37388606e-05,
          1.63686927e-05, 8.70048825e-06, -5.13351688e-06,
          -4.59939110e-06, -1.06630205e-05, -1.95144930e-05,
          1.04352841e-06, 3.90786482e-07, 2.46305035e-06, 2.21924506e-06,
          9.29419093e-06, 1.70123330e-05 ]
      - [ -6.32248748e-06, 2.56838939e-06, 2.97260794e-05,
          2.56421135e-05, -6.67146924e-06, -5.41882901e-06,
          -4.55937989e-05, 2.71018348e-06, 1.16828742e-05,
          -1.08239547e-05, 2.93128378e-05, 1.24712788e-05,
          -7.39837196e-06, -1.78489699e-05, -4.37043418e-05,
          -3.04425544e-06, -4.18148265e-05, -5.48693133e-05,
          -1.49693906e-05, -1.75979003e-05, -9.48657771e-07,
          2.37145105e-06, -3.62340688e-06, 1.05776444e-05,
          -1.01198002e-05, 4.67913242e-06, 7.41496297e-06,
          1.92008406e-06, 2.18618206e-05, 7.01396903e-06,
          -4.10441544e-06, 1.19230117e-05, -3.26874724e-05,
          -4.17069859e-05, -1.81203704e-05, 2.66093157e-05,
          6.62882348e-06, 9.05594607e-06, -2.65982653e-05,
          -7.23789799e-06, -1.40368511e-05, -3.16309197e-05,
          -7.01051249e-06, 5.03688025e-05, 1.81366261e-06,
          -2.35330699e-05, -4.25874896e-05, -3.19671490e-05,
          8.44369424e-06, 7.66380799e-06, 2.99310159e-07,
          -8.15080330e-06, -4.06139152e-05, -2.69971260e-05,
          -6.49335270e-05, -2.14054780e-05, -1.91242689e-05,
          -1.11768823e-05, -9.33503179e-06, -1.04547744e-05,
          9.10630547e-07, 2.66426432e-05, -6.05568266e-06,
          1.77151378e-05 ]
      - [ -1.74347497e-05, -2.10058115e-05, 7.95525375e-06,
          1.51625400e-05, -1.70356143e-05, -1.60525633e-05,
          -3.12150951e-05, -2.03891377e-05, -4.68697508e-05,
          -1.12160878e-05, -2.83447520e-07, 3.51985436e-05,
          2.67105243e-05, -2.17029628e-06, -1.85875579e-05,
          4.08628512e-06, -5.46162482e-06, -2.10172711e-05,
          -1.18356875e-05, -3.48473691e-06, -1.48993549e-05,
          -1.61934349e-05, -3.52001043e-05, -2.53901744e-05,
          -4.53859975e-05, -3.60040613e-05, -2.95124537e-05,
          -1.27102539e-05, 9.28117151e-06, 2.43678551e-06,
          -1.75191562e-05, 4.18576434e-07, -9.81570702e-06,
          -8.43688940e-06, -2.47720777e-06, -1.01509195e-05,
          -2.42697315e-05, -1.56598817e-05, -2.14151023e-05,
          -4.73898672e-06, -1.66773061e-05, 5.34668470e-06,
          9.18611113e-06, -2.65829635e-06, 5.29232921e-06,
          5.72381502e-08, -1.05159843e-05, 8.31482703e-06,
          -4.21987825e-05, -2.06798541e-05, -1.76713093e-05,
          -2.33990249e-05, -2.29153939e-05, -1.59178398e-05,
          -4.31785993e-05, -6.96776942e-06, -1.59472435e-07,
          2.99674502e-05, -6.53837833e-06, -5.95236497e-06,
          -8.57901432e-06, -8.12504095e-06, -2.54761562e-05,
          -2.14793527e-05 ]
   uncompressed_sv_total: 286
   uncompressed_support_vectors:
      - [ 2.07152115e+02, 7.28704346e+02, 1.29631531e+03, 1.22785283e+04,
          198., 0., 0., 1.10887329e+02, 0., 0., 0., 4.96322852e+03,
          3.10794043e+03, 2.96980859e+03, 2.15904370e+03, 6.03131494e+03,
          1418., 0., 0., 0., 0., 0., 0., 0., 0., 0., 0., 0., 0., 0.,
          2.82842708e+00, 1.43544404e+04, 0., 1.69705620e+01,
          8.94427204e+00, 6.11971924e+03, 2.71679663e+03, 0.,
          1.38626868e+03, 1.08799434e+04, 0., 0., 0., 0., 0., 0.,
          2.25840790e+02, 5.12428528e+02, 604., 0., 0., 0., 0., 0.,
          3.84852829e+01, 1.77098730e+04, 2.62914575e+03, 0., 0.,
          1.47800034e+02, 0., 0., 0., 4.00810864e+03 ]
      - [ 7.95525269e+02, 1.40602502e+03, 8.93426025e+02, 1.90378571e+02,
          0., 0., 0., 0., 0., 0., 0., 0., 0., 0., 8.60232544e+00,
          7.70948828e+03, 1822., 0., 0., 0., 0., 0., 0., 0., 0., 0., 0.,
          0., 0., 0., 1.41421354e+00, 1.68638887e+04, 112., 0., 0.,
          6.07285205e+03, 4.17503223e+03, 7.41049255e+02, 1.67213892e+03,
          6.76061377e+03, 2.10037354e+03, 8.51469345e+01, 0., 0., 0., 0.,
          0., 3.33013519e+02, 214., 0., 0., 0., 30., 0., 4.20517273e+02,
          1.01090635e+04, 9.89728516e+03, 6.40624390e+02, 1.16619034e+01,
          2.03960781e+01, 42., 0., 0., 1.49512598e+03 ]
      - [ 8.36238574e+03, 9.46029358e+02, 1.46787891e+03, 8.50718506e+02,
          0., 0., 0., 0., 0., 0., 0., 0., 0., 0., 0., 0., 20400., 0., 0.,
          0., 0., 0., 0., 0., 0., 0., 0., 0., 0., 0., 0., 0., 0., 0., 0.,
          0., 1.00478652e+04, 6.08961426e+02, 1.15466382e+03,
          4.71179382e+02, 8160., 0., 0., 0., 0., 0., 0., 0., 0., 0., 0.,
          0., 0., 0., 9.20573853e+02, 3.37108325e+03, 1.59974326e+04,
          5.33854431e+02, 0., 0., 0., 0., 0., 0. ]
      - [ 8.60673828e+03, 1.53401733e+03, 8.29058472e+02, 2.62545227e+02,
          0., 0., 0., 0., 0., 0., 0., 0., 0., 0., 0., 0., 1.44515410e+04,
          3.91834473e+02, 0., 0., 0., 0., 0., 0., 0., 0., 0., 0., 0., 0.,
          2.59696851e+03, 8.26630859e+02, 3.33028015e+02, 0., 0.,
          1.99521924e+03, 9.33235547e+03, 2.08720825e+02, 1.55124268e+03,
          1.85332007e+03, 7.43342090e+03, 0., 0., 0., 6., 0., 0., 0.,
          1.66016370e+03, 0., 0., 0., 0., 0., 0., 0., 2.03912188e+04,
          1.31240578e+01, 0., 0., 0., 0., 3.49834259e+02, 7.45214050e+02 ]
      - [ 2.00005518e+03, 9.46659973e+02, 1.64578821e+03, 2.05427783e+03,
          1.19872051e+04, 0., 0., 0., 0., 0., 1.83387488e+03,
          2.51538037e+03, 5.04848340e+03, 1.92891199e+03, 3.08136548e+03,
          5.06209521e+03, 2.03764707e+04, 1.86010761e+01, 0., 0., 0., 0.,
          0., 0., 0., 0., 0., 0., 0., 0., 0., 0., 0., 4.33820229e+01, 0.,
          0., 8.17357910e+03, 7.87856567e+02, 1.33393958e+03,
          7.11202759e+02, 1.01971416e+04, 7.21110249e+00, 0., 0., 0., 0.,
          2.97338181e+01, 4.98196754e+01, 8., 1.41421356e+01, 0., 0., 0.,
          0., 0., 0., 2.04122461e+04, 1.41421354e+00, 0., 0., 0., 0.,
          5.65685415e+00, 0. ]
      - [ 6.35211523e+03, 2.14884521e+03, 6.19143604e+03, 4.39399268e+03,
          442., 0., 0., 0., 0., 1.10308655e+02, 1.51283215e+03,
          6.99143701e+03, 2.52911255e+03, 3.03293408e+03, 8.56752014e+02,
          4.93888721e+03, 3.68564502e+03, 7.50317261e+02, 0., 0., 0., 0.,
          0., 0., 0., 0., 0., 0., 0., 2.95042358e+02, 2.12004321e+03,
          1.31355884e+03, 5.78047241e+02, 0., 1.32060593e+02, 0.,
          1.50226135e+02, 0., 2.52420288e+02, 1.75372681e+03,
          1.83588613e+04, 1.41421354e+00, 0., 0., 0., 0., 4.68358337e+02,
          8.54223999e+02, 3.79371387e+03, 1.12643347e+03, 0., 0., 0., 0.,
          3.46698723e+01, 4.24683936e+03, 1.28152109e+04, 2.85009186e+02,
          0., 2.28280533e+02, 1.96577661e+03, 2.39774414e+03,
          1.82132751e+03, 1.99317932e+03 ]
      - [ 4.11390283e+03, 1.48741199e+03, 4.40742529e+03, 6.65826758e+03,
          4., 0., 0., 0., 0., 9.89949512e+00, 4.06795288e+02,
          8.05930713e+03, 1.88229285e+03, 1.92223462e+03, 3.39947119e+03,
          2.47504590e+03, 1.54905566e+03, 0., 0., 0., 0., 0., 0., 0., 0.,
          0., 0., 0., 0., 0., 5.66480347e+02, 1.53964270e+03,
          3.94506543e+03, 1.48060791e+02, 1.96163193e+02, 0.,
          4.45482300e+02, 7.75241928e+01, 7.96602600e+02, 7.48425195e+03,
          1.22331484e+04, 26., 0., 0., 0., 0., 1.18932678e+03,
          1.25493848e+03, 9.49898242e+03, 1.01980392e+02, 0., 0., 0., 0.,
          6.91425858e+01, 8.20794824e+03, 1.22970615e+04, 0., 0., 0., 0.,
          0., 1.98139819e+03, 5.59981006e+03 ]
      - [ 5.67974170e+03, 9.18882422e+03, 1.76860913e+03, 1.54988623e+03,
          314., 0., 0., 0., 0., 0., 0., 6.48562744e+03, 4.05938550e+03,
          1.49929333e+03, 1.48852954e+03, 1.61621387e+03, 7.80781738e+03,
          2.82842708e+00, 0., 0., 0., 0., 0., 0., 0., 0., 0., 0., 0., 0.,
          6.47897888e+02, 5.02220654e+03, 9.58361450e+02, 8.34385986e+01,
          0., 0., 0., 0., 3.80314758e+02, 1.20438154e+04, 7.98026367e+03,
          4.54986908e+02, 0., 0., 0., 0., 1.47434937e+02, 8.75447388e+02,
          4.31820850e+03, 4.38742752e+01, 0., 0., 0., 0., 2.28902612e+03,
          4.22730176e+03, 9.91305859e+03, 5.49206543e+03, 0., 0., 74.,
          0., 4.96375084e+01, 2.70399268e+03 ]
      - [ 5.29385498e+03, 1.55610950e+03, 3.94202271e+03, 4.29637451e+03,
          446., 0., 0., 0., 0., 2.82842708e+00, 2.02628955e+03,
          6.35989355e+03, 4.01117773e+03, 1.45238135e+03, 2.36462061e+03,
          3.99451929e+03, 5.61937939e+03, 30., 0., 0., 0., 0., 0., 0.,
          0., 0., 0., 0., 0., 0., 1.21231064e+02, 3.85141528e+03,
          7.01276917e+02, 4.24264050e+00, 0., 0., 0., 0., 1.06208443e+02,
          9.40891309e+03, 8.77507324e+03, 2.81156812e+03, 0., 0., 0., 0.,
          3.66898010e+02, 2.70384448e+03, 6.18478076e+03, 2.68328152e+01,
          0., 0., 0., 0., 3.38175598e+02, 9.91637109e+03, 7.59621973e+03,
          2.90029565e+03, 6.41045898e+02, 0., 0., 0., 3.61028625e+02,
          4.33719385e+03 ]
      - [ 4.97644824e+03, 2.25063379e+03, 6.60756592e+03, 2.02643188e+03,
          124., 0., 0., 0., 0., 1.97989902e+01, 2.76726563e+03,
          4.75150684e+03, 3.08678833e+03, 2.74927002e+03, 2.05378687e+03,
          3.03943994e+03, 250., 0., 0., 0., 0., 0., 0., 0., 0., 0., 0.,
          0., 0., 0., 4.59040451e+01, 5.79902197e+03, 2.08253223e+03,
          4.94974747e+01, 0., 0., 0., 0., 8.80270615e+01, 1.35502734e+04,
          6.62817236e+03, 2.99845947e+02, 0., 0., 0., 0., 5.14027649e+02,
          2.58949927e+03, 1748., 0., 0., 0., 0., 0., 8.24314651e+01,
          1.02628379e+04, 8.83123438e+03, 9.38833557e+02, 1.16191931e+03,
          0., 0., 0., 3.31159134e+01, 1.25162100e+04 ]
      - [ 3.39565918e+03, 1.24818982e+03, 3.55195093e+03, 3.21024121e+03,
          0., 0., 0., 0., 0., 1.18793945e+02, 2.70475488e+03,
          3.83819653e+03, 2.80936646e+03, 3.30999219e+03, 1.97166040e+03,
          5.91697656e+03, 1.55477014e+03, 0., 0., 0., 0., 0., 0., 0., 0.,
          0., 0., 0., 0., 0., 0., 2.43600317e+03, 1.01851520e+03,
          1.57109741e+02, 0., 0., 0., 0., 6.82421875e+01, 1.43102695e+04,
          6.12549170e+03, 0., 0., 0., 0., 0., 2.91652539e+03,
          2.06021387e+03, 6.65591943e+03, 3.56354065e+01, 0., 0., 0., 0.,
          0., 1.01786289e+04, 8.71690039e+03, 9.91100647e+02,
          1.25595251e+03, 0., 0., 0., 3.06623306e+01, 9.77515332e+03 ]
      - [ 3.75041333e+03, 8.73378540e+02, 4.09007031e+03, 6.09808398e+03,
          134., 0., 0., 0., 0., 1.97989902e+01, 1.11329895e+03,
          8.15098193e+03, 2.99800391e+03, 5.73428284e+02, 1.52820935e+03,
          3.82390283e+03, 4.34398071e+02, 1.41421354e+00, 0., 0., 0., 0.,
          0., 0., 0., 0., 0., 0., 0., 0., 2.82842708e+00, 2.67985498e+03,
          3.28456714e+03, 1.13137083e+01, 8.94986038e+01, 0., 0., 0.,
          4.10121918e+01, 1.43178965e+04, 6.11752197e+03, 7.61577320e+00,
          0., 0., 0., 7.59514954e+02, 1.22669336e+03, 3.75331860e+03,
          3.49251074e+03, 2.82842708e+00, 0., 0., 2., 0., 8.77595291e+01,
          1.32249307e+04, 4.71463037e+03, 2.41786206e+03, 0.,
          1.46142725e+03, 2., 0., 2.82842708e+00, 1.35846328e+04 ]
      - [ 4.73270752e+03, 3.58246924e+03, 2.83909009e+03, 5.35913135e+03,
          20., 0., 0., 0., 0., 1.41421356e+01, 3.36154709e+01,
          7.10622656e+03, 2.72555347e+03, 2.43828906e+03, 1.43152173e+03,
          3.75077759e+03, 4.39403320e+03, 5.65685415e+00, 0., 0., 0., 0.,
          0., 0., 0., 0., 0., 0., 0., 0., 3.95979805e+01, 1.11140381e+03,
          1.11313123e+03, 5.65685415e+00, 1.13278419e+02, 0., 0., 0.,
          3.15694641e+02, 1.21264473e+04, 8.16192725e+03, 0., 0., 0., 0.,
          0., 8.25107910e+02, 2.87559082e+03, 1.12740859e+04, 0., 0., 0.,
          0., 0., 1.92838791e+02, 1.01126768e+04, 9.11718750e+03, 0.,
          1.12063049e+03, 1.16197119e+03, 0., 0., 0., 3.57953906e+03 ]
      - [ 3.00679761e+03, 1.69833960e+03, 2.66154810e+03, 3.72562354e+03,
          824., 0., 0., 0., 0., 0., 2.82396057e+02, 4.31304785e+03,
          4.40451709e+03, 2.10850293e+03, 6.22957178e+03, 4.17612891e+03,
          3.88669995e+03, 6.80235138e+01, 0., 0., 0., 0., 0., 0., 0., 0.,
          0., 0., 0., 0., 2.15563889e+02, 6.22973975e+03, 0., 0., 0., 0.,
          2.15772598e+02, 4.94163055e+02, 3.81154590e+03, 5.92450635e+03,
          1.11079414e+04, 1.40017532e+02, 0., 0., 0., 0., 3.19767242e+02,
          1.05463000e+03, 4.28223975e+03, 1.29251694e+02, 0., 0., 0., 0.,
          8.06601639e+01, 1.02416543e+04, 1.02437852e+04, 1.27989830e+02,
          0., 0., 0., 0., 3.71622772e+02, 5.61917285e+03 ]
      - [ 2.83320020e+03, 8.56420703e+03, 3.64960205e+03, 0., 166., 0.,
          0., 0., 0., 2.68700581e+01, 2.92266016e+03, 2.94748267e+03,
          2.68933936e+03, 1.62761584e+03, 1.53137329e+03, 8.39980371e+03,
          5.22329004e+03, 0., 0., 0., 0., 0., 0., 0., 0., 0., 0., 0., 0.,
          0., 1.16597748e+02, 1.15869844e+04, 34., 2.40416298e+01, 0.,
          0., 0., 0., 2.74098877e+02, 1.22083467e+04, 8.17255566e+03,
          1.41421354e+00, 0., 0., 0., 0., 9.89949512e+00, 0., 902.,
          9.89949512e+00, 0., 0., 0., 0., 1.06500443e+02, 1.02005635e+04,
          6.06154346e+03, 5.11358301e+03, 0., 0., 0., 3.96232262e+01,
          1.40925125e+02, 2.67738428e+03 ]
      - [ 3.53918237e+03, 3.22190942e+03, 8.21273633e+03, 3.34249194e+03,
          0., 0., 0., 0., 0., 2.82842708e+00, 2.42161768e+03,
          4.09912109e+03, 4.63668018e+03, 2.45192944e+03, 1.01345636e+03,
          1.77616248e+03, 3.45036572e+03, 1.57304459e+01, 0., 0., 0., 0.,
          0., 0., 0., 0., 0., 0., 0., 0., 3.68700562e+01, 3.06764941e+03,
          3.26006152e+03, 3.53553391e+01, 7.02880737e+02, 0., 0.,
          5.41518127e+02, 9.40359741e+02, 1.10215996e+04, 8.33246582e+03,
          9.89949512e+00, 0., 0., 0., 7.68679749e+02, 1.20466101e+03,
          1.44570300e+03, 6.46429639e+03, 4.88715607e+02, 0., 0., 0., 0.,
          2.42966690e+01, 6.22099414e+03, 1.43711123e+04, 2.82842712e+01,
          0., 0., 0., 0., 1.42204618e+01, 7.21089404e+03 ]
      - [ 4.27907764e+03, 8.87756152e+03, 8.87489441e+02, 0., 238., 0.,
          0., 0., 0., 1.27279224e+01, 3.49834985e+03, 1.80133252e+03,
          2.64117017e+03, 2.21170166e+03, 8.70417053e+02, 7.24586963e+03,
          8.96855859e+03, 1.27279224e+01, 0., 0., 0., 0., 0., 0., 0., 0.,
          0., 0., 0., 0., 1.62347314e+03, 5.04382275e+03, 2.95187653e+02,
          7.07106781e+00, 0., 0., 0., 0., 4.83405418e+01, 1.22136113e+04,
          8.16790527e+03, 5.23804512e+01, 0., 0., 0., 0., 2.83214607e+01,
          6.33823486e+02, 2.91767017e+03, 2.68700581e+01, 0., 0., 0., 0.,
          9.89949417e+00, 6.16863721e+03, 1.06793242e+04, 3.92040137e+03,
          5.16205383e+02, 0., 0., 3.39705772e+01, 4.27307068e+02,
          1.76568713e+03 ]
      - [ 2.84933838e+03, 1.47611536e+03, 6.95256201e+03, 9.95703735e+02,
          274., 0., 0., 0., 0., 1.83847752e+01, 1.15801552e+02,
          8.19322656e+03, 2.49347754e+03, 2.13620337e+03, 2.52236597e+03,
          3.30693335e+03, 8.08975952e+02, 6.53911285e+01, 0., 0., 0., 0.,
          0., 0., 0., 0., 0., 0., 0., 0., 7.87146759e+01, 6.66167358e+02,
          24., 0., 0., 0., 9.05459473e+02, 9.17194214e+01,
          4.53896912e+02, 9.75674023e+03, 9.84116016e+03, 4.82318146e+02,
          0., 0., 0., 6.81175461e+01, 7.10279602e+02, 6.38868262e+03,
          9.43671973e+03, 3.53553391e+01, 0., 0., 0., 0., 4.75218628e+02,
          7.93700049e+03, 1.17414814e+04, 7.37460205e+02, 0., 0., 0., 0.,
          4.42134827e+02, 9.27181348e+03 ]
      - [ 3.40332422e+03, 1.78291553e+03, 1.22945947e+03, 7.05510352e+03,
          28., 0., 0., 0., 0., 2.82842708e+00, 1.81624353e+03,
          1.04053271e+04, 7.21185364e+02, 1.44841199e+03, 0.,
          7.04943909e+02, 9.22513062e+02, 3.27572290e+03, 8.88505664e+03,
          4.29086475e+03, 590., 0., 0., 0., 978., 1.29152710e+03,
          5.92616992e+03, 1.29922217e+03, 2.55253638e+03, 2.68477588e+03,
          2.97069031e+02, 0., 3.95478711e+03, 3.14138232e+03,
          2.51159009e+03, 8.97190186e+02, 3.51170361e+03, 1.03987109e+03,
          1.46529053e+02, 3.87577808e+03, 1374., 0., 1.51611343e+02,
          3.95490063e+03, 6.34369434e+03, 2.57299072e+02, 1.25016016e+03,
          2.98596069e+03, 960., 2.27385425e+03, 8.29506055e+03,
          2.03826538e+02, 2.90174658e+03, 1.33753510e+02, 0., 0., 614.,
          1.61146045e+03, 1.16442051e+04, 5.32929150e+03, 2012., 0., 0.,
          0. ]
      - [ 1682., 1.85038855e+03, 3.06329346e+03, 2.52533374e+03,
          9.97815063e+02, 0., 0., 0., 50., 3.66281311e+02,
          7.43231323e+02, 9.78161328e+03, 3.13293848e+03, 2.57402405e+02,
          1.39779028e+03, 9.20279297e+02, 3.26275220e+03, 3.30893970e+03,
          4.78965332e+03, 5.86000830e+03, 5.65888867e+03, 0.,
          1.28902808e+03, 0., 2.14300195e+03, 1.32160864e+03,
          3.77107617e+03, 2.53402100e+03, 4.38318359e+02, 3.86339233e+02,
          1.14947803e+03, 3.89974365e+02, 5.50020313e+03, 5.85691943e+03,
          1.11590723e+03, 3.22552307e+02, 3.49722290e+03, 0.,
          1.86676193e+02, 0., 1004., 3.01227478e+02, 0., 0.,
          8.01217090e+03, 4.39751953e+03, 8.89604309e+02, 2.84604988e+01,
          1122., 1.32354919e+03, 3.26964771e+03, 3.73791357e+03,
          7.13038086e+03, 2.97378540e+02, 0., 0., 918., 4.75940137e+03,
          5.14250000e+03, 6.92129150e+03, 3654., 0., 0., 0. ]
      - [ 6.07769385e+03, 1.81019333e+02, 4.93420715e+02, 0.,
          8.85440002e+02, 2.82357007e+03, 0., 0., 1934., 4.69518921e+02,
          4.49827783e+03, 4.87798926e+03, 1.01137592e+03, 1.75669104e+03,
          1.28140381e+03, 4.88403534e+02, 762., 2.67907983e+03,
          1.27190029e+04, 4.17851654e+02, 0., 0., 0., 4.45277435e+02,
          5.77146423e+02, 2.90498962e+02, 2.19069409e+03, 7.49383057e+02,
          6.17259229e+03, 3.60336084e+03, 6.84745422e+02, 1.91826160e+03,
          3.48175684e+03, 6.18981445e+03, 4.93427002e+03, 7.28965332e+02,
          7.28075977e+03, 2.78644653e+03, 4.94974747e+01, 9.45490173e+02,
          72., 5.21009216e+02, 5.09739136e+02, 8.53972107e+02, 442.,
          5.54616966e+01, 0., 1.01980391e+01, 1278., 5.03716217e+02,
          1.48142773e+03, 8.83660742e+03, 7.15946924e+03, 5.79078552e+02,
          1.07517426e+02, 0., 912., 8.63054504e+02, 1.47032871e+04,
          3.40751147e+03, 2174., 1.30811487e+03, 3.80188721e+02, 0. ]
      - [ 4.81523828e+03, 1.92525159e+03, 2.15410791e+03, 0.,
          1.90418066e+03, 2.47192261e+03, 2.54558449e+01, 0., 1636.,
          3.81691559e+02, 2.82846252e+02, 8.01875146e+03, 8.53774963e+02,
          6.76301697e+02, 1.20771289e+03, 3.07969946e+03, 8.17540649e+02,
          7.28619043e+03, 7.29166797e+03, 8.58070679e+02, 0., 0., 0., 0.,
          0., 0., 0., 0., 6.42474561e+03, 6.74235498e+03, 1.53776001e+03,
          5.41350159e+02, 8.00248230e+02, 1.60633032e+03, 5.80726465e+03,
          2.95006445e+03, 9.48541797e+03, 6.99319824e+03, 1.54149277e+02,
          0., 140., 3.62982208e+02, 0., 1.90625952e+03, 2.38210669e+03,
          5.00015991e+02, 1.54399683e+03, 7.20943848e+02, 1244.,
          3.04069183e+02, 3.89505066e+02, 4.87706738e+03, 3.99711035e+03,
          1.19662939e+03, 1.31688818e+03, 8.83624390e+02, 3.04473145e+03,
          3.34066943e+03, 5.01004248e+03, 3.53215942e+03, 3.51231079e+03,
          7.61155762e+02, 1.88090408e+02, 0. ]
      - [ 2076., 2.26047461e+03, 0., 0., 0., 0., 0., 0., 20., 0.,
          1.59284021e+03, 2.80792407e+03, 3.32991675e+03, 1.17809802e+03,
          7.93248962e+02, 4.30780701e+02, 3.64553442e+03, 9.57884668e+03,
          5.29439307e+03, 1.79693469e+03, 0., 0., 1.04406104e+03,
          2.49838843e+03, 3.18487109e+03, 0., 8.79317932e+02,
          4.31974548e+02, 0., 2.13739038e+03, 1.12474536e+03, 0., 290.,
          7.26839209e+03, 0., 2.05912598e+02, 1968., 5.14570801e+03,
          1.38592926e+02, 0., 1968., 1.42835571e+02, 5.09901962e+01, 0.,
          7.69945435e+02, 7.17599805e+03, 1.55053992e+03, 4.43371729e+03,
          4., 1.54070105e+03, 3.97855396e+03, 9.20019592e+02,
          1.70985669e+03, 4.35983948e+02, 1.69866989e+02, 1.26649124e+02,
          1094., 6.17545752e+03, 7.05705908e+03, 4.70934619e+03,
          3.80376563e+03, 0., 0., 0. ]
      - [ 3.01896924e+03, 8.72249939e+02, 2.69788525e+03, 1.70746167e+03,
          1.54541138e+03, 5.90474365e+02, 1.38818469e+03, 3.37170593e+02,
          796., 3.05865997e+02, 3.15482788e+03, 3.58691431e+03,
          5.72179004e+03, 1.14564148e+03, 4.00941772e+03, 7.80973755e+02,
          2.87911499e+03, 4.24555078e+03, 7.36473584e+03, 3.76298999e+03,
          0., 0., 0., 0., 0., 0., 0., 0., 0., 0., 4.86291748e+03,
          9.59537537e+02, 1.02277716e+03, 2.04499780e+03, 2.54335889e+03,
          0., 2040., 0., 1.39493232e+04, 0., 2040., 1.83847771e+01, 0.,
          6.90440430e+02, 3.46117578e+03, 2.04755151e+03, 1.98549927e+03,
          4.86366309e+03, 0., 2.31216333e+03, 3.10347070e+03,
          6.54198730e+02, 0., 0., 1.41421354e+00, 4.14168457e+03,
          4.43126758e+03, 3.68724780e+03, 3.80993604e+03, 3.81155420e+03,
          2040., 0., 0., 0. ]
      - [ 5.61612549e+03, 1.06433105e+03, 1.19797217e+03, 2.33545532e+03,
          42., 0., 1.27279221e+02, 0., 180., 2.31931015e+02,
          3.45039478e+03, 5.02265820e+03, 3.78720776e+03, 1.67804919e+03,
          9.00638794e+02, 1.66880200e+03, 2.88121924e+03, 5.95731592e+03,
          7.29836035e+03, 2.62268701e+03, 0., 0., 3.28207520e+02,
          5.51552368e+02, 6.30731567e+02, 0., 2.30729279e+02, 0., 0., 0.,
          2.39115649e+03, 1.95913501e+03, 2.15723779e+03, 4.64215088e+03,
          3.12193481e+03, 8.50561462e+02, 2252., 0., 8.48921484e+03,
          4.24895605e+03, 2.12728125e+03, 0., 0., 3.69499927e+03,
          2.39595874e+03, 2.70472974e+03, 1.02830615e+03, 5.78316528e+02,
          0., 2.78958105e+03, 1.98811768e+03, 7.41691284e+02,
          7.20199951e+02, 1.33294763e+03, 1.09808325e+03, 1.48242798e+03,
          1928., 2.26307300e+03, 7.00903564e+03, 7.84917725e+03, 2124.,
          0., 0., 0. ]
      - [ 4.96077197e+03, 1.28037708e+03, 1.74004425e+02, 1.19516565e+03,
          0., 0., 0., 0., 0., 3.06376343e+02, 2.74825708e+03,
          3.63636450e+03, 2.51235767e+03, 3.32586450e+03, 1.78951013e+03,
          1.66332336e+03, 5.43167139e+03, 7.39376221e+03, 8.48037500e+03,
          2.85073145e+03, 338., 0., 0., 0., 1062., 3.00162811e+02,
          1.23284937e+03, 0., 0., 0., 0., 0., 8.66844336e+03,
          1.09156616e+03, 3.20845850e+03, 1.50332966e+01, 1664., 0.,
          5.12722229e+02, 7.08801172e+03, 1.96700928e+03, 5.37401161e+01,
          2.60911108e+03, 4.18942188e+03, 7.65177612e+02, 6.89750854e+02,
          8.88807861e+02, 2.04978043e+02, 0., 1.78986401e+03,
          3.11878149e+03, 0., 0., 0., 0., 2.71661549e+01, 4.25111230e+03,
          9.12113477e+03, 5.23116699e+03, 5.12875537e+03, 1862., 0., 0.,
          0. ]
      - [ 252., 5.02309326e+02, 9.71846008e+02, 0., 0., 0., 0., 0., 0.,
          0., 0., 4.41971100e+02, 2.91152893e+02, 2.72951843e+02,
          6.36396103e+01, 0., 2.66833286e+01, 4.63328906e+03,
          1.17667080e+04, 3.58281543e+03, 1818., 0., 0., 0., 1770.,
          7.21248932e+01, 2.15166772e+03, 7.94490527e+03, 48., 0., 0.,
          0., 2.84614526e+03, 1.13396887e+03, 3.71800098e+03,
          9.10569434e+03, 1494., 9.80312195e+02, 1.02692798e+03,
          8.24621105e+00, 7.73190674e+02, 2.25632492e+02, 8.06597824e+01,
          0., 386., 9.42083313e+02, 2.09248120e+03, 7.87288086e+03,
          1.56869370e+02, 1.96461255e+03, 9.75939331e+02, 1.10300720e+03,
          0., 0., 0., 5.06359558e+01, 2.32415552e+03, 2.71471680e+03,
          1.30471504e+04, 3.46935400e+03, 1654., 0., 0., 0. ]
      - [ 5.91793018e+03, 8.28339294e+02, 0., 0., 0., 0., 2.16910126e+02,
          0., 6.01001648e+02, 8.48528099e+00, 3.22490311e+01,
          3.48587109e+03, 2.41394629e+03, 0., 1.05912085e+03,
          1.67037378e+03, 4.79280225e+03, 5.60517236e+03, 1.75633911e+03,
          4.45129736e+03, 1.48539819e+03, 2.52101318e+03, 7.63675308e+01,
          0., 26., 1.83847771e+01, 0., 0., 0., 1.80801880e+03,
          1.16125781e+03, 9.30483780e+01, 2.45227051e+03, 2.69096558e+02,
          0., 2.08086517e+02, 1984., 3.98247754e+03, 1.59305652e+03,
          7.35445435e+02, 1984., 1.00409164e+02, 2.65001892e+02,
          4.23851379e+02, 544., 1.75026709e+03, 7.54215918e+03,
          2.27267603e+03, 2.25920630e+03, 2.79560718e+03, 1.98819604e+03,
          1.83410767e+03, 0., 0., 8.48528099e+00, 2.05858691e+03,
          5.75002344e+03, 3.85217358e+03, 9.19514648e+03, 1.80795679e+03,
          1.67617969e+03, 0., 6.95509521e+02, 1.47568237e+03 ]
      - [ 3.91396460e+03, 0., 0., 0., 0., 0., 0., 0., 0., 0., 0., 0.,
          3.33901489e+03, 3.14363525e+03, 1.06370483e+03, 3.97200195e+02,
          2.99474512e+03, 1.84220398e+03, 1.25913269e+03, 5.95547803e+03,
          2.65464014e+03, 4.47018604e+03, 6.68615234e+02, 0.,
          6.89416138e+02, 2.82842708e+00, 0., 0., 436., 3.57781348e+03,
          1.72589587e+03, 0., 1.21062402e+03, 3.44912231e+03,
          2.05299774e+02, 0., 2040., 5.37154004e+03, 3.90322937e+02, 0.,
          2040., 0., 1.13145920e+02, 0., 3.87946582e+03, 2.88666455e+03,
          2.45835303e+03, 5.45773682e+03, 8.41882202e+02, 1.13137083e+01,
          0., 0., 0., 1.32408105e+03, 4.27235504e+02, 1.70069946e+03,
          3.40559302e+03, 7.39860046e+02, 4.41960889e+03, 1.78335730e+03,
          2.66123828e+03, 2.13063452e+03, 1.90283240e+03, 2.02241040e+03 ]
      - [ 1768., 8.29845337e+02, 1.25369067e+03, 2.15020728e+03, 208.,
          0., 0., 0., 1.52990204e+02, 0., 4.55207666e+03, 6.17324268e+03,
          3.18410132e+03, 1.36255835e+03, 8.45114136e+02, 1.62516504e+03,
          2.70357178e+03, 6.93300928e+03, 6.96996338e+03, 4.35950195e+03,
          76., 0., 1.37884003e+02, 1.68787646e+03, 1.73661060e+03,
          7.70849670e+02, 1.31344946e+03, 7.00927979e+02, 76., 0.,
          8.48528099e+00, 4.16829395e+03, 4.85819873e+03, 2.22623779e+03,
          3.17702197e+03, 8.09041382e+02, 2030., 0., 2.03518372e+03,
          9.25359961e+03, 2298., 2.30587952e+02, 1.81459656e+03,
          1.66299683e+03, 0., 2.41911475e+03, 3.77293579e+03,
          4.30288672e+03, 0., 7.75697144e+02, 1.62959961e+03,
          2.62243579e+03, 0., 0., 0., 3.18201202e+02, 6.15003174e+02,
          3.17930127e+03, 1.00904160e+04, 6.16225586e+03, 2030., 0., 0.,
          0. ]
      - [ 9.63429321e+02, 1.76714343e+03, 4.34432422e+03, 1.00375928e+04,
          576., 0., 0., 0., 0., 7.63675308e+01, 2.84733350e+03,
          5.45132471e+03, 6.56878906e+03, 6.22795288e+02, 9.81451477e+02,
          0., 3.49202759e+03, 7.42384424e+03, 1.05080547e+04, 0., 64.,
          0., 0., 0., 2018., 4.19610303e+03, 2.05245825e+03, 0., 0., 0.,
          0., 0., 780., 2.26388403e+03, 0., 5.42183643e+03,
          5.03643311e+03, 6.50869336e+03, 4.33019409e+02, 2.24940454e+03,
          1.01053876e+03, 0., 0., 3.46346649e+02, 2.71540967e+03,
          2.65146387e+03, 3.29314453e+03, 2.04147754e+03, 0.,
          2.90374170e+03, 4.16660596e+03, 0., 0., 0., 0., 0., 0.,
          4.60567432e+03, 1.56784961e+04, 0., 1582., 0., 0., 0. ]
      - [ 2.88668921e+03, 1.49887866e+03, 4.73831207e+02, 0., 0., 0., 0.,
          0., 5.66309509e+02, 1.01508386e+03, 1.01551654e+03,
          1.95780487e+02, 6.48942505e+02, 1.25940137e+03, 2.01643152e+03,
          4.23578491e+02, 1806., 9.37492615e+02, 1.29722832e+04,
          2.77487280e+03, 9.79408081e+02, 0., 1.64433228e+03,
          1.52382007e+03, 1.15641589e+03, 3.11005493e+03, 5.90547180e+02,
          3.32174652e+02, 1.24094434e+03, 3.30339746e+03, 8.75039734e+02,
          8.73992859e+02, 650., 2.82601563e+03, 3.59806226e+03, 0.,
          5.51727393e+03, 2.03570190e+03, 7.35391083e+01, 0., 1800.,
          2.82842712e+01, 2.82846252e+02, 5.65703125e+02, 2.56855713e+03,
          4.71742725e+03, 1.16929797e+03, 6.09136328e+03, 2.01310059e+03,
          3.15540869e+03, 3.05868286e+02, 0., 0., 0., 7.30405396e+02, 0.,
          2.95307178e+03, 7.64221436e+03, 4.71803711e+03, 2.95577979e+03,
          3.94331885e+03, 2.27903488e+02, 0., 0. ]
      - [ 2018., 1.04358679e+03, 1.33398328e+03, 2.40125684e+03,
          5.22343750e+03, 0., 0., 0., 0., 0., 0., 4.28979492e+03,
          3.67620068e+03, 3.95036670e+03, 4.49157806e+02, 1.12695508e+03,
          2.90636157e+03, 3.95979805e+01, 3.72412292e+02, 1.08555505e+03,
          1.08890027e+03, 1.31590271e+02, 0., 0., 352., 0., 0.,
          3.06613062e+03, 5.75670557e+03, 1.58451514e+03, 9.92053040e+02,
          2.71330048e+02, 1.48262659e+03, 4.46356445e+03, 4.06552271e+03,
          1.86681909e+03, 3.59476563e+03, 2.79602856e+03, 1.23934875e+03,
          1.62651123e+03, 2.53671240e+03, 1.44341516e+03, 4.72795117e+03,
          2.07252783e+03, 4.55402881e+03, 6.27360254e+03, 4.08837830e+02,
          1.49669617e+02, 5.97627051e+03, 2.52990326e+02, 1.65239227e+02,
          1.19032776e+03, 8.19408984e+03, 1.38757898e+03, 6.40770508e+02,
          2.05601294e+03, 4.57443665e+02, 3.39411240e+01, 3.82099457e+01,
          1.22309448e+03, 5.03881885e+03, 2.02303796e+03, 3.95576904e+03,
          2.85387866e+03 ]
      - [ 1.96948682e+03, 1.88372559e+03, 2.62751685e+03, 5.29723242e+03,
          1.56474329e+03, 1.17686020e+02, 0., 0., 88., 0., 0.,
          4.74054883e+03, 7.06244141e+03, 3.82352264e+02, 8.16326172e+02,
          5.47468689e+02, 2.18520850e+03, 4.94974747e+01, 6.32468262e+02,
          1.34439795e+03, 454., 0., 0., 0., 0., 0., 0., 0.,
          7.86822705e+03, 7.13138794e+02, 1.78655127e+03, 9.48683262e+00,
          2.43815625e+03, 2.60917358e+03, 9.63860413e+02, 4.91343701e+03,
          3.47041748e+03, 1.52631067e+03, 3.81608545e+03, 6.39061829e+02,
          3.20139868e+03, 2.93326001e+03, 2.37181470e+03, 2.76377539e+03,
          5.07300977e+03, 2.21361133e+03, 2.83676147e+03, 1.70681860e+03,
          6.09890674e+03, 1.09569702e+03, 2.43823700e+02, 6.20544922e+02,
          6.67856299e+03, 4.11774951e+03, 4.07115784e+02, 2.46738724e+02,
          2.09659033e+03, 1.32014417e+03, 7.86577393e+02, 8.08811890e+02,
          5.66129297e+03, 2.22191162e+03, 2.76556006e+03, 2.51820605e+03 ]
      - [ 2.83007275e+03, 1.87301147e+03, 1.29319373e+03, 3.85948047e+03,
          3.87703735e+03, 0., 0., 3.54978882e+02, 22., 2.82842708e+00,
          1.30215503e+03, 3.35417529e+03, 3.62407471e+03, 3.56996753e+03,
          1.44577380e+03, 1.26294727e+03, 4.20067657e+02, 9.33380966e+01,
          0., 1.26701025e+03, 0., 110., 1.55563488e+01, 0., 154., 0., 0.,
          1.37563477e+03, 6.19313818e+03, 1.98921350e+03, 9.32193787e+02,
          1.39770801e+03, 1.45471130e+03, 1.87617004e+03, 4.68768994e+03,
          1.78395740e+03, 4.58329150e+03, 2.96669897e+03, 1.02131311e+03,
          1.84228186e+03, 2.57192041e+03, 2.12834741e+03, 3.25764478e+03,
          2.49340771e+03, 5.71453857e+03, 2.49045386e+03, 1.23310608e+03,
          2.06649585e+03, 3.81618262e+03, 4.57746143e+03, 0.,
          8.42246216e+02, 4.33929980e+03, 4.39262402e+03, 1.07278540e+03,
          7.55317383e+02, 8.33868835e+02, 1.10201404e+03, 0.,
          1.36162317e+03, 5.16136768e+03, 4.22379150e+03, 1.27415649e+03,
          2.31693115e+03 ]
      - [ 3.48896875e+03, 2.34512695e+03, 8.57982483e+02, 4.14645410e+03,
          3.86026660e+03, 0., 9.12509613e+01, 0., 0., 0., 2.90492676e+02,
          6.90861377e+03, 4.79478760e+03, 1.32708838e+03, 7.82535583e+02,
          0., 1094., 9.56474365e+02, 5.51089844e+02, 3.57513428e+03,
          3.09932324e+03, 1.42863086e+03, 6.78822479e+01, 0., 804., 0.,
          2.60768089e+01, 3.82456152e+03, 3.53566211e+03, 1.98689978e+03,
          1.01017273e+03, 1.78104309e+03, 1.92585278e+03, 9.77277771e+02,
          5.41163477e+03, 5.00953094e+02, 1448., 3.56660352e+03,
          1.10907532e+03, 1.40635278e+03, 3.50414160e+03, 3.62881689e+03,
          3.04803003e+03, 1.27205347e+03, 3.57676392e+03, 2.94223535e+03,
          1.88793652e+03, 3.95292725e+03, 3.14124902e+03, 2.54408887e+03,
          1.07157434e+03, 1.98832776e+03, 2.85882837e+03, 5.81714355e+03,
          1.45836389e+03, 1.45065506e+02, 780., 1.93747253e+02,
          7.90292358e+02, 8.80271362e+02, 5.82717090e+03, 2.43980078e+03,
          1.21740918e+03, 4.63923096e+03 ]
      - [ 2.83026465e+03, 9.85627380e+02, 3.71031152e+03, 7.20456787e+03,
          3.62837158e+03, 0., 0., 0., 0., 7.07106781e+00, 3.75038452e+02,
          4.13895850e+03, 7.68138232e+03, 8.47509583e+02, 3.10265930e+02,
          5.93877075e+02, 3.47391235e+03, 1.32509598e+02, 1.02596802e+03,
          2.01402551e+03, 1.86830981e+03, 8.39387085e+02, 1.30107651e+02,
          0., 1124., 0., 0., 0., 8.32292676e+03, 1.31418530e+03,
          3.11126984e+02, 7.13370850e+02, 1.80367456e+03, 3.00087207e+03,
          2.64329443e+03, 2.48141309e+03, 5.85396045e+03, 3.15627051e+03,
          3.49663770e+03, 0., 2.99810498e+03, 4.09817871e+03,
          2.05499561e+03, 2.23496973e+03, 4.60321338e+03, 2.98519922e+03,
          1.08970459e+03, 1.94934106e+03, 2.80835986e+03, 3.31693237e+03,
          2.26049414e+03, 8.46537659e+02, 5.70965918e+03, 3.30315137e+03,
          1.26764221e+03, 1.03422559e+03, 2.59953955e+03, 5.22926270e+02,
          1.52641394e+03, 2.79614014e+02, 4.08375439e+03, 3.90490967e+03,
          2.90050513e+03, 2.61152539e+03 ]
      - [ 2.74557031e+03, 1.30328516e+03, 2.23759814e+03, 1.44944375e+04,
          576., 0., 0., 0., 0., 5.65685415e+00, 7.23463898e+01,
          9.74149219e+03, 4.67511084e+03, 1.17933289e+03, 8.55357910e+02,
          0., 2.75405176e+03, 3.95979805e+01, 1.53064417e+03,
          1.30960205e+03, 2.63551245e+03, 2.71591614e+02, 6.68987061e+02,
          4.06767731e+02, 1742., 0., 0., 2.04355676e+03, 7.63238721e+03,
          1.16161951e+03, 1.20572119e+03, 1.22284595e+03, 2.09271680e+03,
          1.22549219e+03, 4.62007520e+03, 5.64598999e+02, 2.78748657e+03,
          4.15014258e+03, 3.77048706e+03, 3.37075781e+03, 3.13222852e+03,
          4.07430591e+03, 4.58462549e+03, 0., 2.33809473e+03,
          2.05407178e+03, 3.02652466e+03, 0., 3.91248730e+03,
          9.97086670e+02, 3.73339502e+03, 0., 2.20203174e+03,
          5.26779736e+03, 3.74829688e+03, 9.82594971e+02, 5.30955811e+03,
          1.51525378e+03, 8.51367126e+02, 6.23087036e+02, 2.77149438e+03,
          2.78452563e+03, 1.78021448e+03, 3.57822021e+03 ]
      - [ 2.75892407e+03, 1.91719409e+03, 1.45239563e+03, 2.89435010e+03,
          62., 0., 0., 0., 3.38076904e+02, 1.95161453e+02,
          2.77783691e+03, 0., 5.39551367e+03, 3.52249561e+03,
          7.27207092e+02, 0., 1.52010864e+03, 6.63046448e+02, 0., 0., 8.,
          0., 5.65685415e+00, 0., 8., 0., 0., 0., 2.04980615e+03,
          3.16670996e+03, 8.38013794e+02, 5.90518799e+02, 2.47520752e+03,
          4.30538574e+03, 5.19801880e+02, 5.60796973e+03, 3.19631860e+03,
          2.08428101e+03, 9.87180237e+02, 2.13976489e+03, 2.71464941e+03,
          8.32855347e+02, 4.42634814e+03, 1.63942114e+03, 7.93441406e+03,
          2.90079468e+03, 1.90015295e+03, 3.71214218e+01, 4.29389404e+03,
          7.63832474e+01, 9.89455139e+02, 5.04874237e+02, 2040.,
          8.30090527e+03, 5.69169434e+02, 0., 1.75314539e+03,
          6.01792908e+02, 2.74590607e+01, 1.13083667e+03, 5.27241992e+03,
          3.25023291e+03, 2.31349609e+03, 4.33753711e+03 ]
      - [ 3.65130762e+03, 1.82410120e+03, 1.39505005e+03, 4.60448242e+03,
          3.32351978e+03, 1.65051514e+02, 0., 0., 4.98625244e+02,
          2.60279938e+02, 0., 1.40335254e+03, 4.66985742e+03,
          2.80804492e+03, 1.76935193e+03, 2.09976196e+02, 994.,
          8.15612671e+02, 1.07488867e+03, 5.08534863e+03, 8.26189453e+03,
          1.44222046e+02, 2.82842712e+01, 0., 346., 0., 0.,
          1.98321375e+03, 5.71476025e+03, 1.27512024e+03, 1.40087268e+03,
          7.06644165e+02, 2.31777612e+03, 4.22783447e+03, 1.76310657e+03,
          2.53920410e+03, 5.50466064e+03, 3.46443115e+03, 1.64048767e+02,
          1.85637158e+03, 3.82638013e+03, 1.74186304e+03, 5.78219287e+03,
          2.95462341e+02, 4.05624487e+03, 3.34970459e+03, 2.04364111e+03,
          0., 2.31088647e+03, 1.36036694e+03, 1.06443481e+03,
          4.10252637e+03, 4.07215137e+03, 3.24634619e+03, 2.41882642e+03,
          8.32578003e+02, 2.94296460e+03, 1.18571545e+03, 1.98408423e+03,
          5.44033081e+02, 2.26597363e+03, 6.12617139e+03, 2.45765283e+03,
          4.07853320e+03 ]
      - [ 2.40741309e+03, 1.83120056e+03, 1.02972485e+03, 6.02964746e+03,
          1.50889526e+03, 0., 0., 0., 0., 4.97093445e+02, 1.05629541e+03,
          1.77245349e+03, 3.23643286e+03, 1.13126099e+03, 5.23804199e+02,
          4.65975037e+02, 2.44093408e+03, 3.77694885e+02, 8.58292480e+02,
          3.95338696e+03, 6.09383984e+03, 2.18449081e+02, 1.69705620e+01,
          0., 860., 0., 0., 0., 6.24920361e+03, 1.85171851e+03,
          1.09827710e+03, 4.57053619e+02, 2.60002515e+03, 9.62407410e+02,
          1.39999280e+03, 4.57586328e+03, 3.90693970e+03, 2.91656006e+03,
          1.24213599e+03, 2.40692090e+03, 4.16919189e+03, 4.33718555e+03,
          1.77968848e+03, 3.17370453e+02, 1.37083044e+03, 4.14942773e+03,
          3.05700342e+03, 3.91664673e+03, 7.59811401e+02, 5.53420947e+03,
          1.27723840e+03, 1.67140686e+03, 2022., 2.14196924e+03,
          6.14709766e+03, 2.23606796e+01, 1248., 8.59047668e+02,
          1.64823999e+03, 9.02096313e+02, 3.10315869e+03, 4.59679297e+03,
          3.04644775e+03, 2.06128418e+03 ]
      - [ 2.61634790e+03, 5.93969688e+01, 1.23500562e+03, 6.04270117e+03,
          1.82792603e+03, 0., 0., 0., 192., 0., 0., 0., 5.09265088e+03,
          1.45086096e+03, 7.20786682e+02, 5.62648438e+02, 1312., 0.,
          9.16105835e+02, 7.02741650e+03, 5.76817725e+03, 0., 0., 0.,
          518., 0., 0., 0., 7.19270947e+03, 1.49032007e+03,
          1.54166101e+03, 6.99120850e+02, 2.04093298e+03, 3.11668774e+03,
          1.93384326e+03, 2.54725928e+03, 1.58476758e+03, 4.49876318e+03,
          1.09487927e+03, 3.17336206e+03, 5.16690381e+03, 1.74959021e+03,
          2.85416162e+03, 1.53535901e+03, 1046., 5.41428809e+03,
          2.38494653e+03, 2.12079980e+03, 6.62462082e+01, 3.28432715e+03,
          2.56483228e+03, 2.56019409e+03, 2024., 5.41645313e+03,
          2.26387720e+03, 8.06479980e+02, 1388., 1.96049829e+03,
          6.80413086e+02, 8.46404541e+02, 3.67176489e+03, 1.75714294e+03,
          5.96796533e+03, 2.01461353e+03 ]
      - [ 7.52469238e+02, 5.25127144e+01, 1.24807666e+03, 6.59902832e+03,
          1.74232727e+03, 0., 0., 0., 0., 0., 0., 0., 0., 4.56537415e+02,
          1.25376807e+03, 7.14452209e+02, 820., 7.07106733e+00,
          8.51140137e+02, 3.07819385e+03, 4.32173438e+03, 6.78657959e+02,
          3.53553391e+01, 0., 886., 0., 0., 0., 7.29001660e+03,
          9.16931152e+02, 4.77230499e+02, 0., 1.41315247e+02,
          4.43614404e+03, 5.99078076e+03, 7.03119922e+03, 2.25173193e+03,
          1.87233606e+03, 1.37905762e+02, 2.74104663e+03, 7.52463745e+02,
          4.69361328e+02, 2.68612158e+03, 3.59216577e+03, 1.52774438e+03,
          1.16619034e+01, 0., 0., 1.80246228e+03, 3.24040527e+03,
          2.96541724e+03, 1.65294238e+03, 3.31602612e+03, 4.83862109e+03,
          5.51105530e+02, 0., 560., 0., 4.96789665e+01, 1.78393958e+03,
          3.18585132e+03, 6.74507275e+03, 1.90229883e+03, 4.21684863e+03 ]
      - [ 5.25560913e+02, 1.20540955e+03, 7.93567078e+02, 5.56178516e+03,
          1.94296582e+03, 5.65862160e+01, 0., 0., 0., 0., 0., 0., 0., 0.,
          0., 0., 1.37581238e+03, 8.53240845e+02, 3.48131927e+02,
          3.83559033e+03, 4.60068994e+03, 1.82989148e+03, 5.65685425e+01,
          0., 896., 0., 1.10923393e+02, 1.92944238e+03, 5.60032861e+03,
          1.38900916e+03, 6.35337097e+02, 1.52182166e+03, 2.44515186e+03,
          2.69924780e+03, 4.62170361e+03, 7.76441016e+03, 2.33861670e+03,
          2.78786652e+02, 1.61064038e+03, 3.46375928e+03, 2.81584808e+02,
          2.29381909e+03, 7.62359814e+03, 3.49310760e+02, 934., 0.,
          1.99963257e+03, 2.57087061e+03, 2.54211621e+03, 1.97649048e+03,
          1.76032349e+03, 1.89877686e+03, 4.14008594e+03, 4.30859961e+03,
          3.51457764e+03, 9.63417908e+02, 2.96846143e+03, 2.48712524e+03,
          9.25165039e+02, 1.03954346e+03, 3.27994873e+03, 3.44676074e+03,
          2.07172314e+03, 3.94954053e+03 ]
      - [ 2.99901733e+03, 1.03523230e+03, 1.75401782e+03, 2.49622583e+03,
          5.97672412e+03, 3.52865417e+02, 5.68506737e+01, 0., 0.,
          2.82842708e+00, 3.96988678e+01, 6.33593555e+03, 1.99891321e+03,
          2.33361475e+03, 1.47043555e+03, 1.01267224e+03, 8.01073425e+02,
          7.07106781e+00, 0., 2.90121826e+03, 4.40882568e+03,
          1.58443994e+03, 2.68700581e+01, 0., 992., 0., 2.90987976e+02,
          3.40477588e+03, 3.47754395e+03, 1.51749194e+03, 8.84266479e+02,
          1.78507837e+03, 5.80234766e+03, 1.44757922e+03, 1.12082166e+03,
          4.00012598e+03, 2.91881470e+03, 4.07738477e+03, 1.01080957e+03,
          3.22604468e+03, 1.72401294e+03, 5.69127197e+03, 3.14110571e+03,
          5.14410339e+02, 3.53180957e+03, 3.34970435e+03, 2.19964746e+03,
          0., 1.58737109e+03, 5.49705908e+03, 4.18501251e+02,
          1.79915894e+03, 1756., 6.32127930e+03, 3.00877563e+03,
          6.65666992e+02, 2.08377612e+03, 2.21759888e+03, 8.53047485e+02,
          6.57933777e+02, 2.45438623e+03, 5.70236572e+03, 3.87741504e+03,
          2.00039111e+03 ]
      - [ 3.16586548e+03, 9.07520142e+02, 1.57166284e+03, 6.56844775e+03,
          2.26313232e+03, 0., 0., 0., 0., 3.81837654e+01, 1.00846420e+02,
          6.15036328e+03, 6.00234814e+03, 2.01250293e+03, 8.72029968e+02,
          0., 5.89148804e+02, 1.52735062e+02, 0., 1.10835107e+03,
          8.33331665e+02, 6.63689087e+02, 8.62670288e+01, 0., 506., 0.,
          0., 3.99259497e+03, 5.62616162e+03, 9.00063843e+02,
          1.11328833e+03, 1.95158569e+03, 12., 9.39452698e+02,
          7.96997607e+03, 2.61450073e+03, 2.62208838e+03, 7.49539746e+03,
          9.43247009e+02, 0., 2.90715112e+03, 1.08546973e+03,
          3.65094995e+03, 4.82235205e+03, 6.65418848e+03, 4.99053906e+03,
          6.91180298e+02, 3.41313690e+02, 5.99782764e+03, 9.67327148e+02,
          1.67932764e+03, 7.68177063e+02, 4.48718799e+03, 4.77532373e+03,
          1.05021985e+03, 7.90711731e+02, 1.37838452e+03, 1.55321143e+03,
          2.48965866e+02, 3.56448090e+02, 5.81336133e+03, 1.67516333e+03,
          1.16350244e+03, 4.13891748e+03 ]
      - [ 1464., 2.64482397e+03, 2.47840063e+03, 5.61136768e+03,
          4.78314990e+03, 0., 0., 0., 8., 3.53553391e+01, 9.71699524e+01,
          5.81335791e+03, 8.80272363e+03, 9.15443542e+02, 1.03630383e+03,
          8.61626358e+01, 276., 4.47213602e+00, 0., 6.57432861e+02,
          1.10462676e+04, 3.47509583e+02, 1.97989902e+01, 0., 688., 0.,
          0., 0., 1.01005361e+04, 1.52795691e+03, 4.70325714e+02,
          1.55293579e+03, 2.06543286e+03, 1.44780566e+03, 1.75546765e+03,
          2.30550439e+03, 3.12664526e+03, 5.19385107e+03, 7.35345764e+02,
          2.13229663e+03, 4.10737256e+03, 1.83923901e+03, 6.28001855e+03,
          4.10463165e+02, 2.67358740e+03, 2.29330908e+03, 2.31393921e+03,
          2.02807202e+03, 3.07106934e+03, 6.26404150e+03, 1.10471375e+03,
          1.00419617e+03, 3.13968164e+03, 5.76952344e+03, 1.52809204e+03,
          8.40985168e+02, 2.12926367e+03, 6.08111839e+01, 1.02381274e+03,
          0., 2.73485107e+03, 4.68307031e+03, 3.64462402e+03, 0. ]
      - [ 1852., 2.55186987e+03, 2.93254565e+03, 1.72367847e+03,
          7.70556836e+03, 3.05286751e+01, 0., 0., 14., 5.23259010e+01,
          1.25500610e+03, 3.06970801e+03, 8.81828223e+03, 1.00054810e+03,
          7.35054626e+02, 9.77032837e+02, 9.48265747e+02, 5.86163757e+02,
          0., 7.06724854e+02, 9.70145215e+03, 2.77848873e+01,
          9.75807343e+01, 0., 1064., 0., 0., 0., 8.55883008e+03,
          1.37156812e+03, 8.73599060e+02, 1.69980396e+03, 3.25307495e+03,
          1.89805481e+03, 3.22961841e+03, 1.92709314e+03, 3.59363159e+03,
          5.64707715e+03, 9.82261719e+02, 5.51089844e+02, 3.27770947e+03,
          1.59181274e+03, 6.42981641e+03, 0., 5.06538232e+03,
          2.47901440e+03, 1.90467957e+03, 9.88230591e+02, 2.72328125e+03,
          1.11118262e+03, 6.99604883e+03, 3.16227770e+00, 4.47959473e+03,
          3.54897412e+03, 1.99288574e+03, 6.27265259e+02, 1.98336353e+03,
          6.55645447e+02, 2.25539352e+02, 0., 2.61085107e+03,
          5.98067285e+03, 1.33237769e+03, 3.88766846e+03 ]
      - [ 2.09974609e+03, 4.19176758e+02, 2.16879443e+03, 8.44620996e+03,
          6.67232813e+03, 0., 0., 0., 228., 2.12132034e+01,
          4.24532898e+02, 6.34294922e+03, 8.73894141e+03, 8.86081238e+02,
          0., 0., 2.11585083e+03, 4.93222046e+02, 5.83144714e+02,
          1.91740503e+03, 5.58763281e+03, 1.56984070e+02, 2.96984844e+01,
          0., 1180., 0., 0., 2.04446399e+03, 7.63039697e+03,
          1.15759192e+03, 1.19853320e+03, 5.29854675e+02, 2.28868042e+03,
          2.69681226e+03, 3.64619043e+03, 7.58619812e+02, 5.41753564e+03,
          3.01219971e+03, 5.74543164e+03, 1.87090076e+03, 2.30817676e+03,
          1.45682874e+03, 3.54491626e+03, 1.87846948e+03, 3.27962280e+03,
          2.57702881e+03, 1.12463391e+03, 2.47487109e+03, 3.32700879e+03,
          2.49337598e+03, 2.93594873e+03, 5.50236328e+02, 4.64285596e+03,
          4.36737061e+03, 1.59357483e+03, 2.29002182e+02, 2.00958972e+03,
          7.50671204e+02, 8.97958557e+02, 6.20903625e+02, 4.81777393e+03,
          2.37863354e+03, 3.49844678e+03, 1.86212317e+03 ]
      - [ 2.43009473e+03, 1.33074585e+03, 1.05236047e+03, 6.72996777e+03,
          2.94861182e+03, 0., 9.64261398e+01, 0., 136., 5.65685415e+00,
          0., 2.94331616e+03, 6.73312646e+03, 2.67015259e+03,
          8.96562439e+02, 6.05152893e+02, 1718., 4.66690483e+01,
          2.10138965e+03, 2.98232202e+03, 5.03284375e+03, 3.14639954e+02,
          1.41421356e+01, 0., 780., 0., 0., 0., 1.00585176e+04,
          8.53970703e+02, 8.71510254e+02, 1.77081934e+03, 2.12754199e+03,
          1.38117322e+03, 2.12219165e+03, 2.40637451e+03, 2.69756152e+03,
          3.28638379e+03, 1.97948962e+03, 5.25769971e+03, 3.45556494e+03,
          1.52972168e+03, 7.99181689e+03, 0., 2.43258374e+03,
          2.03987024e+03, 1.85898633e+03, 2.99104028e+03, 2.16829785e+03,
          3.58293799e+03, 1.67474609e+03, 1.77646155e+03, 3.62978174e+03,
          5.58130908e+03, 2.10054175e+03, 2.51928320e+03, 4.00726221e+03,
          1.41015417e+03, 9.60692444e+02, 1.42324512e+03, 1.67768799e+03,
          4.09692676e+03, 1.94575745e+03, 1.83322900e+03 ]
      - [ 2.00955725e+03, 9.50155090e+02, 1.18315869e+03, 3.98459253e+03,
          3.43208105e+03, 0., 0., 0., 0., 1.13137083e+01, 0.,
          2.05018677e+03, 4.25490234e+03, 2.12256372e+03, 6.11277649e+02,
          6.86118713e+02, 1.76372998e+03, 7.07106781e+00, 4.76969849e+02,
          2.12315845e+03, 4.98105566e+03, 0., 1.07480232e+02, 0., 482.,
          0., 0., 1.92236206e+03, 5.66807910e+03, 1.78913867e+03,
          9.14527832e+02, 7.86162842e+02, 4.95906836e+03, 1.40964734e+03,
          1.43274609e+03, 3.03567212e+03, 3.32033838e+03, 6.56227100e+03,
          1.15624084e+03, 8.04692505e+02, 3.44766040e+03, 2.10824683e+03,
          5.49736865e+03, 7.76958069e+02, 3.77803076e+03, 2.00150317e+03,
          2.36235254e+03, 1.62066052e+03, 5.30991797e+03, 2.98603833e+03,
          2.98911255e+02, 1.88674463e+03, 3.97969189e+03, 3.93687427e+03,
          2.83488818e+03, 1.29367627e+03, 1.45366833e+03, 2.15358057e+03,
          6.74395996e+02, 8.63655884e+02, 5.02846387e+03, 2.50942236e+03,
          3.55684058e+03, 2.08806133e+01 ]
      - [ 1438., 1.64616296e+03, 1.35819763e+03, 4.56083887e+03,
          3.62470459e+03, 2.14160263e+02, 0., 0., 0., 1.97989902e+01, 0.,
          5.27074707e+03, 9.03771289e+03, 1.16063770e+03, 1.41421354e+00,
          0., 1.89123462e+03, 0., 1.96229462e+02, 4.23143005e+02,
          8.41371216e+02, 0., 0., 0., 0., 0., 0., 3.32301196e+03,
          5.11981348e+03, 9.56342773e+02, 1.48524524e+03, 9.63747253e+02,
          1.90822620e+03, 1.98216687e+03, 3.20301685e+03, 1.79520422e+03,
          1.60335535e+03, 2.46378027e+03, 2.46769995e+03, 2.84638525e+03,
          2.63644312e+03, 2.82928369e+03, 1.02101617e+03, 1.38243823e+03,
          3.60734229e+03, 3.67667456e+03, 2.28576343e+03, 2.04563440e+03,
          3.64648584e+03, 4.02052661e+03, 2.61602844e+02, 0., 2040.,
          5.82527686e+03, 1.14571082e+03, 8.54655029e+02, 390.,
          1.52245508e+03, 0., 1.36750732e+03, 6.33147559e+03,
          1.46718750e+03, 3.85873999e+03, 2.53310669e+03 ]
      - [ 3.24198779e+03, 2.17972876e+03, 1.42079761e+03, 4.56336572e+03,
          2.02277393e+03, 2.10508911e+02, 1.41421356e+01, 0., 0.,
          2.96984844e+01, 0., 4.45917139e+03, 7.21862598e+03,
          1.30460852e+03, 7.64557007e+02, 1.40356689e+02, 1.35288586e+03,
          2.31931982e+03, 7.10828247e+02, 9.38273560e+02, 6.72302002e+02,
          2.68287170e+02, 7.07106781e+01, 4.51201111e+02, 642., 0., 0.,
          4.09226538e+03, 4.26176465e+03, 1.37089783e+03, 9.75783081e+02,
          8.59803528e+02, 0., 5.24137988e+03, 2.69189038e+03,
          1.87725793e+03, 6.55247998e+03, 3.52239807e+02, 4.38406219e+01,
          0., 1046., 3.53553391e+01, 3.67684741e+03, 0., 5.53583105e+03,
          5.57312207e+03, 1.19772009e+03, 1.35239343e+03, 4.98515869e+03,
          1.83101013e+03, 1.11532605e+03, 9.87420410e+02, 2.93288843e+03,
          1.04506653e+03, 0., 1.69851685e+03, 9.07044824e+03,
          9.80297607e+02, 0., 0., 5.91375391e+03, 6.55449268e+03,
          1.25868542e+03, 1.59162720e+03 ]
      - [ 3.43291113e+03, 3.35534119e+02, 8.31424438e+02, 7.17067529e+03,
          150., 0., 0., 0., 0., 6.78822479e+01, 0., 4.11465283e+03,
          7.61857813e+03, 7.61779907e+02, 5.94422485e+02, 8.00437622e+02,
          1.27198914e+03, 7.35391083e+01, 7.47091675e+02, 2.17433032e+03,
          0., 0., 0., 0., 0., 0., 0., 3.87325928e+03, 4.87916113e+03,
          1.43413867e+03, 9.80560120e+02, 1.97726074e+03, 1.62956677e+03,
          3.36124268e+03, 1.64053210e+03, 5.72366943e+03, 4.92350684e+03,
          4.43053864e+02, 1.97989902e+01, 0., 1280., 7.93159332e+01,
          1.95731567e+03, 3.09583588e+02, 5.22995654e+03, 5.06596631e+03,
          2.83728882e+03, 5.79392761e+02, 2.96476147e+03, 3.67936230e+03,
          2.96937195e+02, 2.58841553e+02, 1342., 1.65866602e+03,
          2.21337305e+03, 1.96164871e+02, 8.52009180e+03, 1.54765820e+03,
          4.68614998e+01, 0., 1.07210283e+04, 2.24020386e+03,
          2.46640088e+03, 2.66986877e+02 ]
      - [ 2.81674609e+03, 1.46456787e+03, 1.01968414e+03, 4.73535596e+03,
          3.82849829e+03, 0., 0., 0., 0., 2.96984844e+01, 7.62758179e+01,
          7.98642578e+03, 4.54261719e+03, 7.24135498e+02, 7.67813782e+02,
          0., 2.18294116e+03, 0., 0., 6.97449585e+02, 8.98836975e+02,
          5.66389221e+02, 1.97989899e+02, 0., 696., 0., 0.,
          4.08080273e+03, 5.05771289e+03, 1.16418994e+03, 1.03921472e+03,
          3.79684082e+02, 5.68295850e+03, 3.62388184e+03, 4.18018848e+03,
          2.72696143e+03, 1016., 0., 7.07494202e+02, 3.26434155e+03,
          1386., 9.80115112e+02, 5.48594873e+03, 1.05012000e+03,
          7.54085791e+03, 9.22821732e+01, 9.44577576e+02, 3.20624390e+02,
          4.34877441e+03, 3.15868896e+03, 1.27318127e+03, 0.,
          3.93291968e+03, 2.49569189e+03, 8.92073608e+02, 3.94289246e+02,
          8.53912903e+02, 0., 0., 1.04095618e+03, 5.12781494e+03,
          5.06946973e+03, 1.93429199e+03, 1.67435547e+03 ]
      - [ 1.98112012e+03, 1.81074304e+03, 1.97765295e+03, 4.52342676e+03,
          6.93647168e+03, 0., 1.13137074e+01, 0., 202., 7.07106781e+00,
          4.44072075e+01, 4.71450439e+03, 1.03379355e+04, 4.47213602e+00,
          9.31464233e+02, 0., 1.76591553e+03, 0., 3.45312164e+02,
          2.44840845e+03, 2.11459131e+03, 0., 1.69705620e+01, 0., 462.,
          0., 0., 5.40601172e+03, 2.80453882e+03, 1.26505383e+03,
          1.51176392e+03, 2.10991699e+03, 2.06035620e+03, 3.17660010e+03,
          2.05790186e+03, 1.80555212e+03, 4.06021069e+03, 4.35757031e+03,
          2.72772632e+03, 2.23172534e+03, 1988., 1.02795569e+03,
          5.00014404e+03, 6.57761353e+02, 3.27385474e+03, 2.34289551e+03,
          3.26126587e+03, 6.29135925e+02, 1.99153650e+03, 1.67462634e+03,
          1.62682458e+03, 1.40282715e+03, 5.21780664e+03, 4.07222266e+03,
          6.54170837e+02, 0., 9.16678528e+02, 1.92804126e+03,
          3.96988602e+01, 1.84440100e+03, 1.78346106e+03, 6.55349072e+03,
          2.40710181e+03, 3.69019653e+03 ]
      - [ 2.68021826e+03, 9.47937561e+02, 1.61328674e+03, 5.69253076e+03,
          2.65772583e+02, 0., 0., 0., 0., 1.69705620e+01, 1.08811760e+02,
          6.66325342e+03, 4.39900928e+03, 2.67536646e+03, 7.85986633e+02,
          0., 4.79084534e+02, 1.29209033e+03, 8.44493958e+02,
          1.25444348e+03, 0., 0., 0., 0., 0., 0., 0., 2.47386341e+01,
          6.13901563e+03, 2.39534399e+03, 1.51389697e+03, 1.49634216e+03,
          2.07446680e+03, 3.15835791e+03, 2.08418579e+03, 5.42249805e+03,
          1520., 0., 1.30564819e+02, 7.49837012e+03, 1682.,
          4.38406219e+01, 6.53093323e+02, 0., 6.94484570e+03,
          2.88907568e+03, 1.37258337e+03, 2.58271411e+03, 1006.,
          1.83847771e+01, 6.08276253e+01, 4.50693665e+02, 2.08532031e+03,
          4.11030426e+02, 1.30511243e+03, 2.26715683e+02, 0.,
          7.57554443e+02, 7.62764709e+02, 2.04291858e+03, 7.79498193e+03,
          4.42342871e+03, 4.51900879e+03, 2.98000635e+03 ]
      - [ 0., 1.37056287e+03, 3.77446753e+03, 5.65824316e+03,
          4.48453516e+03, 0., 0., 0., 0., 2.36444504e+02, 4.52874786e+02,
          6.87193701e+03, 4.66750488e+03, 1.56657813e+03, 0.,
          9.02471802e+02, 2.47868262e+03, 1.20347375e+03, 1.65043066e+03,
          4.90379346e+03, 6.06468750e+02, 9.84073181e+01, 0., 0., 460.,
          0., 5.10881577e+01, 2.01096680e+03, 2.89890576e+03,
          1.49195996e+03, 1.09568567e+03, 3.67491486e+02, 2040.,
          1.87383411e+03, 0., 3.12926587e+03, 1.15611406e+04,
          2.75075366e+03, 1.72827478e+03, 2.69809180e+03, 7.37501160e+02,
          1.31063318e+03, 0., 0., 4.21319238e+03, 1.96023938e+03,
          1.53197302e+03, 7.75686768e+02, 3.26947510e+03, 1.03421191e+03,
          1.40666797e+03, 3.57417700e+03, 2.76516943e+03, 3.29943286e+03,
          4.51137299e+02, 3.01771423e+02, 1.06859570e+03, 2.89459790e+03,
          1.55052625e+03, 2.43617139e+03, 8.99648730e+03, 1.31693188e+03,
          2.51901196e+03, 2.75750537e+03 ]
      - [ 1.31189392e+03, 9.83840698e+02, 1.11316138e+03, 7.42291016e+03,
          2.67969360e+03, 9.94886856e+01, 3.88252502e+02, 0.,
          4.22082916e+02, 0., 1.15243408e+03, 5.18364502e+03,
          3.43295898e+03, 1.20997925e+03, 1.79630530e+03, 1.01697296e+03,
          3.10689941e+03, 1.11459326e+03, 6.29390442e+02, 3.07242578e+03,
          3.10709424e+03, 170., 0., 0., 396., 0., 0., 0., 4.60233398e+03,
          1.32495056e+03, 1.39319824e+02, 8.21942688e+02, 2.03115942e+03,
          2.09608325e+03, 5.02687744e+02, 2.04000488e+03, 1.09291963e+04,
          2.64923413e+03, 3.35272974e+03, 2.96349438e+03, 0.,
          6.81259521e+02, 1.90536087e+02, 0., 4.52514258e+03,
          2.12426172e+03, 2.83510229e+03, 0., 2.32306104e+03,
          2.03122852e+03, 1.57741284e+03, 3.63696216e+03, 2.24218726e+03,
          2.84719653e+03, 4.66246155e+02, 9.17060547e+01, 2.72294531e+03,
          0., 2.10263330e+03, 4.81044873e+03, 7.21628516e+03,
          3.83914600e+03, 1.91853235e+03, 2.73110693e+03 ]
      - [ 5.97322632e+02, 1.36115283e+03, 3.15251685e+03, 6.31704199e+03,
          2.10803516e+03, 0., 0., 0., 0., 1.27279224e+01, 3.05941956e+02,
          6.77423535e+03, 2.98744580e+03, 5.62318420e+02, 1.46796997e+03,
          2.14885742e+03, 2.06143188e+03, 7.69674744e+02, 1.98532336e+03,
          2.08256616e+03, 2.34972388e+03, 8.14125290e+01, 0., 0., 220.,
          0., 1.61245155e+01, 0., 4.52126611e+03, 1.29615088e+03,
          7.29540405e+02, 2.11848251e+02, 1.97045801e+03, 1.75584241e+03,
          1.06187036e+03, 4.22898340e+03, 1.00667715e+04, 1.29408984e+03,
          3.32359619e+03, 3.12742773e+03, 0., 7.00194946e+02, 0., 0.,
          4.25731592e+03, 3.47260034e+03, 2.02931067e+03, 7.21110229e+01,
          3.45519751e+03, 2.39875946e+02, 3.22662158e+03, 4.61132080e+03,
          1872., 2.08809717e+03, 1.20692078e+03, 0., 1.64670483e+03,
          9.32385620e+02, 1.82120288e+03, 2.49844873e+03, 9.06334082e+03,
          2.93438745e+03, 2.84317163e+03, 2.04348474e+03 ]
      - [ 7.51715393e+02, 1.18277441e+03, 4.30238428e+03, 8.41155859e+03,
          1.13510083e+03, 0., 3.62270630e+02, 0., 4.72239349e+02,
          3.81837654e+01, 6.05931152e+02, 9.73839453e+03, 9.58070007e+02,
          1.77042346e+03, 5.48967041e+02, 1.77714404e+03, 2.20097632e+03,
          3.50583527e+02, 1.77620728e+03, 3.51232617e+03, 3.51424512e+03,
          0., 0., 0., 600., 0., 0., 2.06270508e+03, 3.75691284e+03,
          5.59794617e+02, 1.04879492e+03, 2.38638989e+03, 2.00671179e+03,
          1.05463147e+03, 1.01564264e+03, 1.44836353e+03, 1.20459365e+04,
          4.51717285e+03, 2.61878760e+03, 1.51013110e+03, 5.72380981e+02,
          2.13556793e+02, 1.49968115e+03, 0., 4.91050049e+03,
          2.02484985e+03, 1.60813354e+03, 1.14108740e+03, 1.71453235e+03,
          2.31459985e+03, 1.15718677e+03, 4.07789038e+03, 2.62246729e+03,
          4.29757031e+03, 3.72609863e+02, 0., 2.89808838e+03, 0.,
          3.06281152e+03, 3.50894971e+03, 7.74503809e+03, 2.15432056e+03,
          3.31070801e+03, 2.02326917e+03 ]
      - [ 1.69526294e+03, 2.15683667e+03, 3.77695313e+03, 6.20019971e+03,
          2.04005188e+03, 0., 0., 0., 0., 1.41421354e+00, 1.71455518e+03,
          3.15313696e+03, 6.86690088e+03, 5.02470184e+02, 1.04907669e+02,
          9.41857117e+02, 3.23787720e+03, 1.05659790e+03, 1.84854749e+03,
          5.25665430e+03, 2.64383252e+03, 5.73061943e+01, 1.55563488e+01,
          0., 636., 0., 0., 0., 5.67746729e+03, 6.60108643e+02,
          1.04969702e+03, 3.87138214e+02, 2.00880798e+03, 2.02595691e+03,
          8.37735062e+01, 5.08519043e+03, 6.99716943e+03, 5.13063477e+03,
          2.49327466e+03, 1.98557007e+03, 9.48352783e+02, 1.02793494e+03,
          3.63389587e+02, 0., 4.18157617e+03, 1.97109509e+03,
          1.59685730e+03, 1.14121582e+03, 2.34633887e+03, 2.35200806e+03,
          1.73164233e+03, 3.85801538e+03, 2040., 4.27810498e+03,
          1.15382483e+03, 0., 1.87738794e+03, 6.53118652e+02,
          3.40109570e+03, 3.51947412e+03, 8.51481641e+03, 2.42044922e+03,
          2.44730371e+03, 1.42472449e+03 ]
      - [ 1.32890161e+03, 9.63235840e+02, 1.41482507e+03, 9.55395801e+03,
          0., 0., 0., 0., 0., 9.89949512e+00, 2.66624634e+03,
          3.68380469e+03, 2.69547046e+03, 1.35317432e+03, 2.00121130e+03,
          1.01746057e+03, 2.30223560e+03, 1.11558752e+03, 1.68117969e+03,
          5.03674805e+03, 1.04141504e+03, 2.56628143e+02, 0., 0., 484.,
          0., 0., 2.04544775e+03, 2.74074927e+03, 1.41193433e+03,
          1.07467090e+03, 3.16152588e+02, 1.71704419e+03, 2.63850464e+03,
          0., 2.42638354e+03, 1.21238047e+04, 1.70965015e+03,
          3.31829419e+03, 2.96859668e+03, 0., 5.53624023e+02, 0., 0.,
          5.75790137e+03, 1.89432251e+03, 1.34769678e+03, 6.40157776e+02,
          2.25074951e+03, 1.12187524e+03, 1.79360840e+03, 1.87390198e+03,
          4.67964307e+03, 8.54273376e+02, 6.84571960e+02, 2.57449036e+02,
          698., 2.71204492e+03, 6.65970947e+02, 4.72580225e+03,
          7.38287500e+03, 1.86245044e+03, 2.99732861e+03, 3.35296240e+03 ]
      - [ 8.58196533e+02, 1.55463318e+03, 2.60562842e+03, 7.06488037e+03,
          2.06467212e+03, 0., 0., 0., 0., 5.94557953e+01, 8.81022186e+01,
          1.00595967e+04, 3.40359222e+02, 1.03516736e+03, 1.42765039e+03,
          8.36393433e+02, 5.22280029e+02, 5.63255066e+02, 1.78022131e+03,
          5.71755322e+03, 1.31700049e+03, 0., 0., 0., 0., 0., 0.,
          3.82265259e+03, 1.88544946e+03, 1.34719849e+03, 6.45796570e+02,
          1.90042322e+03, 2.03219324e+03, 1.45080249e+03, 1.10334680e+03,
          2.15016016e+03, 9.79619336e+03, 3.56836230e+03, 4.34410791e+03,
          2.04545447e+03, 0., 6.54967346e+02, 1.71592545e+02, 0.,
          5.18164014e+03, 1.46872595e+03, 2.73069238e+03, 5.20511292e+02,
          3.10076489e+03, 2.66443237e+02, 2.79200586e+03, 4.72153320e+03,
          5.46930762e+03, 2.83478394e+02, 1.08191528e+03, 0.,
          1.69359241e+03, 1.02672485e+03, 1.65185706e+03, 3.65750781e+03,
          9.09200879e+03, 2.15846875e+03, 3.85357568e+03, 2.05179053e+03 ]
      - [ 2.98583911e+03, 1.50442212e+03, 1.59962158e+03, 3.35213940e+03,
          3.96006323e+03, 2.16333084e+01, 0., 0., 240., 1.41421354e+00,
          3.61806152e+03, 8.50179565e+02, 7.49554785e+03, 1.66081372e+03,
          9.06588806e+02, 1.65139844e+03, 2.63030151e+03, 1.41421354e+00,
          3.89166016e+02, 1.11972974e+03, 2.70646533e+03, 1.30384045e+01,
          4.24264050e+00, 0., 614., 0., 0., 0., 5.39857520e+03,
          2.20245752e+03, 1.28701859e+02, 1.29160010e+03, 9.49375916e+02,
          1.25924207e+03, 3.28447729e+03, 4.68586670e+03, 3.09076196e+03,
          9.04556580e+02, 1.01686945e+03, 6.06411035e+03, 1630.,
          1.55563488e+01, 2.71309546e+03, 1.95063538e+03, 5.50831104e+03,
          2.43451318e+03, 2.01467749e+03, 3.65598901e+03, 4.68491992e+03,
          2.50827148e+03, 7.68374939e+01, 4.78069336e+02, 6.56475244e+03,
          1.15831592e+03, 9.07299133e+02, 2.38503662e+02, 7.26745728e+02,
          8.15207947e+02, 1.09125244e+03, 2.14901782e+03, 7.55486133e+03,
          1.80651379e+03, 3.51555200e+03, 2.26688550e+03 ]
      - [ 1742., 1.53155798e+03, 2.47531787e+03, 5.31070313e+03,
          1.81416589e+03, 1.34164076e+01, 0., 0., 0., 0., 0.,
          1.15776309e+04, 2.43928418e+03, 3.75246552e+02, 8.08199280e+02,
          1.44354407e+03, 0., 1.90664221e+03, 0., 8.67237732e+02,
          4.65102142e+02, 0., 0., 0., 0., 0., 0., 2.06286060e+03,
          4.08748682e+03, 1.66536877e+03, 1.03872644e+03, 1.00348578e+03,
          1.63771777e+03, 2.90454517e+03, 2.04708850e+03, 5.47743457e+03,
          1.61018555e+03, 0., 1.84632004e+02, 1.01454316e+04,
          2.64100586e+03, 1.10762805e+03, 0., 0., 5.09978223e+03,
          4.83154297e+03, 1.98870764e+03, 4.35093079e+02, 1.18421545e+03,
          1.26883263e+02, 2.76280640e+02, 4.94114685e+02, 1192.,
          3.18402252e+02, 1.04804163e+03, 8.74057190e+02, 4.43135406e+02,
          0., 0., 1.71268860e+03, 2.73031177e+03, 8.48247168e+03,
          2.93549219e+03, 5.96101416e+03 ]
      - [ 3.08672583e+03, 1.88598169e+03, 1.06935510e+03, 2.22036026e+02,
          5.68957153e+02, 0., 0., 1.06075439e+02, 0., 4.24264050e+00,
          1.48875818e+03, 4.25351563e+03, 4.30366211e+03, 1.03327698e+03,
          1.77398486e+03, 2.15641602e+03, 1.32946240e+03, 1.02531970e+03,
          0., 0., 0., 0., 0., 0., 0., 0., 0., 0., 0., 5.41275818e+02,
          1.02845374e+03, 3.10541473e+02, 3.11236230e+03, 5.07843115e+03,
          1.97061743e+03, 0., 1606., 2.43657666e+03, 2.67313428e+03,
          4.69851660e+03, 2.56328735e+03, 9.45771729e+02, 0.,
          6.90072479e+01, 6.09340723e+03, 8.85297668e+02, 1.09268591e+03,
          1.99006360e+03, 6.96749512e+03, 1.08698914e+02, 1.41489465e+03,
          7.15939941e+02, 1404., 7.79871750e+01, 1.33698877e+03,
          2.29587720e+03, 1.31115540e+03, 3.71024445e+02, 0.,
          3.91801367e+03, 4.55789844e+03, 1.79478247e+03, 2.64254907e+03,
          4.56519287e+03 ]
      - [ 2.66867285e+03, 1.21178247e+03, 1.03868396e+03, 2.47426733e+03,
          3.01345288e+03, 0., 0., 0., 0., 0., 0., 7.68645752e+03,
          4.93199219e+03, 7.87489441e+02, 8.36671997e+02, 7.14849609e+02,
          6.20880005e+02, 0., 0., 4.45028076e+02, 6.60242371e+02, 0., 0.,
          0., 0., 0., 3.57770882e+01, 2.06707007e+03, 1.65345386e+03,
          9.21284607e+02, 3.48324634e+03, 1.09490845e+03, 1.22573657e+03,
          2.64570923e+03, 7.23407080e+03, 0., 1310., 0., 2.59768494e+02,
          6.06121680e+03, 1338., 0., 0., 0., 3.63651001e+03,
          4.60777393e+03, 1.72469800e+03, 1.21415955e+03, 5.34249902e+03,
          2.64713257e+02, 3.28876862e+02, 6.27228821e+02, 28., 0.,
          1.97989902e+01, 0., 206., 0., 4.05565147e+01, 3.50711499e+03,
          6.57800342e+03, 1.88810229e+03, 1.67758679e+03, 5.09191016e+03 ]
      - [ 2.61022583e+03, 9.34129395e+02, 2.06711255e+03, 3.01860254e+03,
          2.09656958e+03, 1.74729462e+02, 0., 0., 0., 0., 0.,
          5.87526221e+03, 5.84876367e+03, 8.91878906e+02, 1.37846777e+03,
          5.60373108e+02, 7.49325256e+02, 9.96555054e+02, 0.,
          1.82427588e+03, 1.73368457e+03, 0., 0., 0., 0., 0.,
          5.16139526e+01, 2.80369556e+03, 4.59424072e+03, 1.84875061e+03,
          6.60411560e+02, 1.77540076e+03, 1.92479102e+03, 3.16795825e+03,
          4.73052881e+03, 2.04358911e+03, 1636., 4.30603271e+02,
          8.64194763e+02, 7.60752295e+03, 1848., 0., 2.47457382e+02,
          3.12075488e+03, 4.15188135e+03, 2.19731494e+03, 3.98313013e+03,
          7.77324890e+02, 2.03955591e+03, 2.25070996e+03, 5.91693420e+02,
